{"learner":{"attributes":{"scikit_learn":"{\"_estimator_type\": \"regressor\"}"},"feature_names":[],"feature_types":[],"gradient_booster":{"model":{"gbtree_model_param":{"num_parallel_tree":"1","num_trees":"200"},"iteration_indptr":[0,1,2,3,4,5,6,7,8,9,10,11,12,13,14,15,16,17,18,19,20,21,22,23,24,25,26,27,28,29,30,31,32,33,34,35,36,37,38,39,40,41,42,43,44,45,46,47,48,49,50,51,52,53,54,55,56,57,58,59,60,61,62,63,64,65,66,67,68,69,70,71,72,73,74,75,76,77,78,79,80,81,82,83,84,85,86,87,88,89,90,91,92,93,94,95,96,97,98,99,100,101,102,103,104,105,106,107,108,109,110,111,112,113,114,115,116,117,118,119,120,121,122,123,124,125,126,127,128,129,130,131,132,133,134,135,136,137,138,139,140,141,142,143,144,145,146,147,148,149,150,151,152,153,154,155,156,157,158,159,160,161,162,163,164,165,166,167,168,169,170,171,172,173,174,175,176,177,178,179,180,181,182,183,184,185,186,187,188,189,190,191,192,193,194,195,196,197,198,199,200],"tree_info":[0,0,0,0,0,0,0,0,0,0,0,0,0,0,0,0,0,0,0,0,0,0,0,0,0,0,0,0,0,0,0,0,0,0,0,0,0,0,0,0,0,0,0,0,0,0,0,0,0,0,0,0,0,0,0,0,0,0,0,0,0,0,0,0,0,0,0,0,0,0,0,0,0,0,0,0,0,0,0,0,0,0,0,0,0,0,0,0,0,0,0,0,0,0,0,0,0,0,0,0,0,0,0,0,0,0,0,0,0,0,0,0,0,0,0,0,0,0,0,0,0,0,0,0,0,0,0,0,0,0,0,0,0,0,0,0,0,0,0,0,0,0,0,0,0,0,0,0,0,0,0,0,0,0,0,0,0,0,0,0,0,0,0,0,0,0,0,0,0,0,0,0,0,0,0,0,0,0,0,0,0,0,0,0,0,0,0,0,0,0,0,0,0,0,0,0,0,0,0,0],"trees":[{"base_weights":[6.474548E-3,-8.467442E-2,1.6151056E-1,-2.092332E-1,-2.0675244E-2,-2.0250092E-1,1.7755048E-1,-2.5491104E-1,-4.5194343E-2,1.3860266E-2,-9.913919E-2,2.6880673E-1,-3.1399968E-1,1.3743407E-1,2.532103E-1,1.01815825E-2,-1.351807E-2,1.3552497E-3,-2.0786403E-2,-1.0882495E-3,6.7210137E-3,-6.654178E-3,5.3365035E-3,-1.3748379E-2,1.9288493E-2,-5.2910666E-3,-2.577821E-2,7.373772E-3,-1.2330308E-2,-6.150854E-3,1.3460129E-2],"categories":[],"categories_nodes":[],"categories_segments":[],"categories_sizes":[],"default_left":[0,0,0,0,0,0,0,0,0,0,0,0,0,0,0,0,0,0,0,0,0,0,0,0,0,0,0,0,0,0,0],"id":0,"left_children":[1,3,5,7,9,11,13,15,17,19,21,23,25,27,29,-1,-1,-1,-1,-1,-1,-1,-1,-1,-1,-1,-1,-1,-1,-1,-1],"loss_changes":[3.4847504E1,1.237566E1,5.366705E0,3.9372597E0,2.7843308E0,2.133864E0,2.6210003E0,2.9739265E0,3.1188316E0,3.069542E0,2.2084677E0,6.1488664E-1,1.2882063E0,2.2498798E0,1.8501644E0,0E0,0E0,0E0,0E0,0E0,0E0,0E0,0E0,0E0,0E0,0E0,0E0,0E0,0E0,0E0,0E0],"parents":[2147483647,0,0,1,1,2,2,3,3,4,4,5,5,6,6,7,7,8,8,9,9,10,10,11,11,12,12,13,13,14,14],"right_children":[2,4,6,8,10,12,14,16,18,20,22,24,26,28,30,-1,-1,-1,-1,-1,-1,-1,-1,-1,-1,-1,-1,-1,-1,-1,-1],"split_conditions":[3.6421486E1,-8.794042E1,-1.3030844E1,2.8857143E0,6.561E-1,-4.6078805E-2,1.2186753E2,-1.05325036E-1,9.9666664E1,3.728355E-1,9.55E-1,4.2721657E1,6.666667E-1,2.3966034E-1,-2.272689E-2,1.01815825E-2,-1.351807E-2,1.3552497E-3,-2.0786403E-2,-1.0882495E-3,6.7210137E-3,-6.654178E-3,5.3365035E-3,-1.3748379E-2,1.9288493E-2,-5.2910666E-3,-2.577821E-2,7.373772E-3,-1.2330308E-2,-6.150854E-3,1.3460129E-2],"split_indices":[1,1,7,7,36,20,1,29,5,6,9,1,11,27,17,0,0,0,0,0,0,0,0,0,0,0,0,0,0,0,0],"split_type":[0,0,0,0,0,0,0,0,0,0,0,0,0,0,0,0,0,0,0,0,0,0,0,0,0,0,0,0,0,0,0],"sum_hessian":[2.464E3,1.552E3,9.12E2,5.26E2,1.026E3,3.8E1,8.74E2,4.11E2,1.15E2,7.13E2,3.13E2,7E0,3.1E1,5.73E2,3.01E2,1.3E1,3.98E2,9.7E1,1.8E1,5.51E2,1.62E2,2.69E2,4.4E1,1E0,6E0,1.6E1,1.5E1,5.59E2,1.4E1,1.2E1,2.89E2],"tree_param":{"num_deleted":"0","num_feature":"37","num_nodes":"31","size_leaf_vector":"1"}},{"base_weights":[4.806639E-3,-8.914145E-2,8.332786E-2,-1.0702354E-1,1.01784274E-1,4.485899E-2,2.1925566E-1,-1.2971589E-1,7.2012832E-3,1.5713173E-1,-3.8991708E-1,2.7687637E-2,1.8154703E-1,-1.3952969E-1,2.3238024E-1,-1.3162102E-2,-4.9682898E-3,1.7309746E-2,-1.1536658E-3,1.9260355E-3,1.62047E-2,-2.4087643E-2,1.0915118E-2,7.533083E-3,3.4363734E-4,1.0396446E-2,-2.228583E-2,-2.3616027E-2,1.771417E-2,-1.8667525E-2,1.1900007E-2],"categories":[],"categories_nodes":[],"categories_segments":[],"categories_sizes":[],"default_left":[0,0,0,0,0,0,0,0,0,0,0,0,0,0,0,0,0,0,0,0,0,0,0,0,0,0,0,0,0,0,0],"id":1,"left_children":[1,3,5,7,9,11,13,15,17,19,21,23,25,27,29,-1,-1,-1,-1,-1,-1,-1,-1,-1,-1,-1,-1,-1,-1,-1,-1],"loss_changes":[1.8066126E1,3.8176708E0,6.9656353E0,2.644806E0,2.673853E0,2.4383235E0,1.4168453E0,3.4225473E0,1.7526803E0,1.7104256E0,6.6373086E-1,2.3692384E0,2.012291E0,1.9750365E0,1.0556355E0,0E0,0E0,0E0,0E0,0E0,0E0,0E0,0E0,0E0,0E0,0E0,0E0,0E0,0E0,0E0,0E0],"parents":[2147483647,0,0,1,1,2,2,3,3,4,4,5,5,6,6,7,7,8,8,9,9,10,10,11,11,12,12,13,13,14,14],"right_children":[2,4,6,8,10,12,14,16,18,20,22,24,26,28,30,-1,-1,-1,-1,-1,-1,-1,-1,-1,-1,-1,-1,-1,-1,-1,-1],"split_conditions":[-8.262286E-3,7.101852E-2,1.0100529E0,1.0342873E-1,2.5224775E-1,1.2533333E0,-5.484007E0,-9.371821E-1,-4.474746E0,1.5675342E0,5.5E0,-4.9E1,3.60755E-2,9.742344E-3,-2.5800436E0,-1.3162102E-2,-4.9682898E-3,1.7309746E-2,-1.1536658E-3,1.9260355E-3,1.62047E-2,-2.4087643E-2,1.0915118E-2,7.533083E-3,3.4363734E-4,1.0396446E-2,-2.228583E-2,-2.3616027E-2,1.771417E-2,-1.8667525E-2,1.1900007E-2],"split_indices":[34,20,6,35,27,9,7,34,22,30,2,5,31,33,19,0,0,0,0,0,0,0,0,0,0,0,0,0,0,0,0],"split_type":[0,0,0,0,0,0,0,0,0,0,0,0,0,0,0,0,0,0,0,0,0,0,0,0,0,0,0,0,0,0,0],"sum_hessian":[2.447E3,1.114E3,1.333E3,1.019E3,9.5E1,1.04E3,2.93E2,8.5E2,1.69E2,8.6E1,9E0,9.25E2,1.15E2,1E1,2.83E2,1.56E2,6.94E2,1.3E1,1.56E2,5.1E1,3.5E1,8E0,1E0,1.33E2,7.92E2,1.11E2,4E0,6E0,4E0,2E0,2.81E2],"tree_param":{"num_deleted":"0","num_feature":"37","num_nodes":"31","size_leaf_vector":"1"}},{"base_weights":[9.420147E-3,-1.3442597E-1,1.0557279E-1,-2.2695586E-1,-6.940603E-2,6.4375356E-2,2.5115883E-1,-2.6220542E-1,-2.0488191E-2,-8.845734E-2,2.1103078E-1,-1.31061375E-2,1.0750874E-1,-2.3119228E-2,2.7727038E-1,-1.36090955E-2,1.2919943E-2,2.6190581E-3,-1.9503655E-2,-3.6100745E-3,-1.8147102E-2,1.5791876E-2,-5.1765563E-3,-2.3666963E-3,1.0671012E-2,-1.8415902E-2,5.82932E-3,-1.3686399E-2,1.3247107E-2,1.1701035E-2,1.9245995E-2],"categories":[],"categories_nodes":[],"categories_segments":[],"categories_sizes":[],"default_left":[0,0,0,0,0,0,0,0,0,0,0,0,0,0,0,0,0,0,0,0,0,0,0,0,0,0,0,0,0,0,0],"id":2,"left_children":[1,3,5,7,9,11,13,15,17,19,21,23,25,27,29,-1,-1,-1,-1,-1,-1,-1,-1,-1,-1,-1,-1,-1,-1,-1,-1],"loss_changes":[3.3831436E1,5.880211E0,8.776564E0,2.9348984E0,3.1013982E0,3.8247018E0,2.3196812E0,1.8621902E0,1.6363173E0,2.3877273E0,1.2525225E0,3.1890354E0,3.2176933E0,2.1660523E0,1.2833824E0,0E0,0E0,0E0,0E0,0E0,0E0,0E0,0E0,0E0,0E0,0E0,0E0,0E0,0E0,0E0,0E0],"parents":[2147483647,0,0,1,1,2,2,3,3,4,4,5,5,6,6,7,7,8,8,9,9,10,10,11,11,12,12,13,13,14,14],"right_children":[2,4,6,8,10,12,14,16,18,20,22,24,26,28,30,-1,-1,-1,-1,-1,-1,-1,-1,-1,-1,-1,-1,-1,-1,-1,-1],"split_conditions":[-2.7759964E1,-1.0800519E2,1.2186753E2,1.5450145E0,1.1343875E1,-9.333333E0,-1.5212108E-2,7.5E-1,2.7077916E0,-3.1297302E1,1.3166667E0,5E0,-2.5E0,1.0657814E-1,1E0,-1.36090955E-2,1.2919943E-2,2.6190581E-3,-1.9503655E-2,-3.6100745E-3,-1.8147102E-2,1.5791876E-2,-5.1765563E-3,-2.3666963E-3,1.0671012E-2,-1.8415902E-2,5.82932E-3,-1.3686399E-2,1.3247107E-2,1.1701035E-2,1.9245995E-2],"split_indices":[1,1,1,19,7,4,17,26,22,1,10,2,15,25,9,0,0,0,0,0,0,0,0,0,0,0,0,0,0,0,0],"split_type":[0,0,0,0,0,0,0,0,0,0,0,0,0,0,0,0,0,0,0,0,0,0,0,0,0,0,0,0,0,0,0],"sum_hessian":[2.444E3,9.79E2,1.465E3,4.03E2,5.76E2,1.143E3,3.22E2,3.44E2,5.9E1,5.4E2,3.6E1,4.09E2,7.34E2,2.8E1,2.94E2,3.38E2,6E0,5E1,9E0,5.11E2,2.9E1,2.7E1,9E0,3.56E2,5.3E1,1.3E1,7.21E2,1.5E1,1.3E1,2.12E2,8.2E1],"tree_param":{"num_deleted":"0","num_feature":"37","num_nodes":"31","size_leaf_vector":"1"}},{"base_weights":[-3.4817106E-3,-1.7363602E-1,7.543103E-2,-2.5899255E-1,-1.238531E-1,2.0642245E-2,1.831526E-1,2.0290898E-2,-2.721259E-1,-8.941352E-2,-2.4625699E-1,5.84504E-3,1.9511558E-1,-1.9197062E-1,1.9153376E-1,5.7440097E-3,-1.4260465E-2,-6.561334E-3,2.6971882E-3,-1.450818E-2,1.0871748E-2,-2.4392586E-2,5.074521E-4,1.48497885E-2,3.2717248E-3,-1.829297E-2,7.971163E-3,4.7100214E-3,1.1022373E-2],"categories":[],"categories_nodes":[],"categories_segments":[],"categories_sizes":[],"default_left":[0,0,0,0,0,0,0,0,0,0,0,0,0,0,0,0,0,0,0,0,0,0,0,0,0,0,0,0,0],"id":3,"left_children":[1,3,5,7,9,11,13,-1,15,17,19,21,23,25,27,-1,-1,-1,-1,-1,-1,-1,-1,-1,-1,-1,-1,-1,-1],"loss_changes":[3.3353188E1,3.3121204E0,1.0011803E1,2.633747E0,2.0815353E0,2.9058738E0,1.8351173E0,0E0,1.4707584E0,2.3508189E0,2.282238E0,2.2126927E0,1.1432164E0,8.5267127E-1,1.5552216E0,0E0,0E0,0E0,0E0,0E0,0E0,0E0,0E0,0E0,0E0,0E0,0E0,0E0,0E0],"parents":[2147483647,0,0,1,1,2,2,3,3,4,4,5,5,6,6,8,8,9,9,10,10,11,11,12,12,13,13,14,14],"right_children":[2,4,6,8,10,12,14,-1,16,18,20,22,24,26,28,-1,-1,-1,-1,-1,-1,-1,-1,-1,-1,-1,-1,-1,-1],"split_conditions":[-5.1839657E1,-6.302525E0,7.805027E1,-7.5E-1,2.9497117E-1,1.1055555E0,-1.3030844E1,2.0290898E-2,-3.761111E0,1.1980422E0,8.6905375E-2,-4.971001E-1,2.1455927E0,1.2742674E-1,-1.5925925E-2,5.7440097E-3,-1.4260465E-2,-6.561334E-3,2.6971882E-3,-1.450818E-2,1.0871748E-2,-2.4392586E-2,5.074521E-4,1.48497885E-2,3.2717248E-3,-1.829297E-2,7.971163E-3,4.7100214E-3,1.1022373E-2],"split_indices":[1,7,1,28,21,6,7,0,14,19,27,31,19,27,20,0,0,0,0,0,0,0,0,0,0,0,0,0,0],"split_type":[0,0,0,0,0,0,0,0,0,0,0,0,0,0,0,0,0,0,0,0,0,0,0,0,0,0,0,0,0],"sum_hessian":[2.482E3,7.86E2,1.696E3,2.88E2,4.98E2,1.125E3,5.71E2,5E0,2.83E2,3.9E2,1.08E2,1.038E3,8.7E1,1.2E1,5.59E2,9E0,2.74E2,3.02E2,8.8E1,9.9E1,9E0,8E0,1.03E3,4.8E1,3.9E1,8E0,4E0,1.29E2,4.3E2],"tree_param":{"num_deleted":"0","num_feature":"37","num_nodes":"29","size_leaf_vector":"1"}},{"base_weights":[6.9113E-3,-1.22419275E-1,1.01779036E-1,-1.564395E-1,-4.559601E-3,6.4722E-2,2.3168364E-1,-1.2677878E-1,-2.5318432E-1,-2.4803369E-1,3.624177E-2,-1.21232495E-2,1.0646087E-1,9.5840454E-2,2.756164E-1,-7.615929E-3,2.067386E-4,1.0631115E-3,-1.4649572E-2,-1.7405352E-2,1.3476488E-3,5.2317423E-3,-5.2073835E-3,-1.4455038E-3,1.4331003E-2,4.1535194E-3,1.1589299E-2,-6.405644E-3,1.0094751E-2,1.4140411E-2,-1.922049E-2],"categories":[],"categories_nodes":[],"categories_segments":[],"categories_sizes":[],"default_left":[0,0,0,0,0,0,0,0,0,0,0,0,0,0,0,0,0,0,0,0,0,0,0,0,0,0,0,0,0,0,0],"id":4,"left_children":[1,3,5,7,9,11,13,15,17,19,21,23,25,27,29,-1,-1,-1,-1,-1,-1,-1,-1,-1,-1,-1,-1,-1,-1,-1,-1],"loss_changes":[3.0415783E1,4.205371E0,6.8688555E0,2.3036919E0,2.3534312E0,3.5743723E0,1.8654308E0,2.0903206E0,2.0819654E0,9.4502234E-1,1.9600356E0,1.9791625E0,2.097227E0,1.902216E0,1.2431965E0,0E0,0E0,0E0,0E0,0E0,0E0,0E0,0E0,0E0,0E0,0E0,0E0,0E0,0E0,0E0,0E0],"parents":[2147483647,0,0,1,1,2,2,3,3,4,4,5,5,6,6,7,7,8,8,9,9,10,10,11,11,12,12,13,13,14,14],"right_children":[2,4,6,8,10,12,14,16,18,20,22,24,26,28,30,-1,-1,-1,-1,-1,-1,-1,-1,-1,-1,-1,-1,-1,-1,-1,-1],"split_conditions":[-2.33307E1,3.131217E0,1.2186753E2,7.6666665E0,-1.7196407E2,-1.6E0,-8.425926E-3,1E0,-3.7777779E-1,1.9625217E-2,7.29E-1,5.2380955E-1,1.27E0,4.4789217E-2,3.3968386E-1,-7.615929E-3,2.067386E-4,1.0631115E-3,-1.4649572E-2,-1.7405352E-2,1.3476488E-3,5.2317423E-3,-5.2073835E-3,-1.4455038E-3,1.4331003E-2,4.1535194E-3,1.1589299E-2,-6.405644E-3,1.0094751E-2,1.4140411E-2,-1.922049E-2],"split_indices":[1,7,1,3,1,7,20,12,32,16,36,26,9,8,35,0,0,0,0,0,0,0,0,0,0,0,0,0,0,0,0],"split_type":[0,0,0,0,0,0,0,0,0,0,0,0,0,0,0,0,0,0,0,0,0,0,0,0,0,0,0,0,0,0,0],"sum_hessian":[2.477E3,1.048E3,1.429E3,8.13E2,2.35E2,1.113E3,3.16E2,6.24E2,1.89E2,3.3E1,2.02E2,3.92E2,7.21E2,7.8E1,2.38E2,5.22E2,1.02E2,2.4E1,1.65E2,2.4E1,9E0,1.36E2,6.6E1,3.72E2,2E1,6.09E2,1.12E2,2.5E1,5.3E1,2.36E2,2E0],"tree_param":{"num_deleted":"0","num_feature":"37","num_nodes":"31","size_leaf_vector":"1"}},{"base_weights":[-5.3417077E-3,-1.1188858E-1,9.727249E-2,-1.24070965E-1,1.1104614E-1,5.0745822E-2,1.8214843E-1,-1.6898209E-1,-7.565641E-2,2.4085417E-1,-7.575947E-2,2.030998E-2,1.578286E-1,1.9500184E-1,-1.7868778E-1,-9.707514E-3,-9.885344E-4,-1.3535353E-3,-8.481679E-3,-1.1210303E-2,1.5108073E-2,-1.1933177E-2,1.382834E-2,-1.9402124E-3,3.886496E-3,-8.999996E-3,9.030645E-3,6.5313946E-3,1.2983255E-2,1.5599283E-2,-1.5795952E-2],"categories":[],"categories_nodes":[],"categories_segments":[],"categories_sizes":[],"default_left":[0,0,0,0,0,0,0,0,0,0,0,0,0,0,0,0,0,0,0,0,0,0,0,0,0,0,0,0,0,0,0],"id":5,"left_children":[1,3,5,7,9,11,13,15,17,19,21,23,25,27,29,-1,-1,-1,-1,-1,-1,-1,-1,-1,-1,-1,-1,-1,-1,-1,-1],"loss_changes":[2.7300205E1,3.3407269E0,5.013878E0,2.513811E0,1.5701746E0,2.679079E0,2.121933E0,2.2569027E0,2.5569036E0,1.1511862E0,1.6156815E0,2.1821795E0,1.4333973E0,1.776825E0,1.1759338E0,0E0,0E0,0E0,0E0,0E0,0E0,0E0,0E0,0E0,0E0,0E0,0E0,0E0,0E0,0E0,0E0],"parents":[2147483647,0,0,1,1,2,2,3,3,4,4,5,5,6,6,7,7,8,8,9,9,10,10,11,11,12,12,13,13,14,14],"right_children":[2,4,6,8,10,12,14,16,18,20,22,24,26,28,30,-1,-1,-1,-1,-1,-1,-1,-1,-1,-1,-1,-1,-1,-1,-1,-1],"split_conditions":[-6.0134387E0,2.1746544E-2,3.3100963E-1,-7.841099E1,2E0,1.0968309E2,1.4266667E2,1.606678E0,6.561E-1,3.138106E-1,2.3333333E-1,-5.125259E-2,-2.0413818E-2,5.551115E-17,-1.5E0,-9.707514E-3,-9.885344E-4,-1.3535353E-3,-8.481679E-3,-1.1210303E-2,1.5108073E-2,-1.1933177E-2,1.382834E-2,-1.9402124E-3,3.886496E-3,-8.999996E-3,9.030645E-3,6.5313946E-3,1.2983255E-2,1.5599283E-2,-1.5795952E-2],"split_indices":[1,17,34,1,12,1,5,19,36,36,28,34,17,28,23,0,0,0,0,0,0,0,0,0,0,0,0,0,0,0,0],"split_type":[0,0,0,0,0,0,0,0,0,0,0,0,0,0,0,0,0,0,0,0,0,0,0,0,0,0,0,0,0,0,0],"sum_hessian":[2.495E3,1.224E3,1.271E3,1.161E3,6.3E1,8.22E2,4.49E2,6.01E2,5.6E2,3.7E1,2.6E1,6.41E2,1.81E2,4.34E2,1.5E1,5.14E2,8.7E1,3.7E2,1.9E2,4E0,3.3E1,1.8E1,8E0,3.16E2,3.25E2,1.1E1,1.7E2,2.19E2,2.15E2,3E0,1.2E1],"tree_param":{"num_deleted":"0","num_feature":"37","num_nodes":"31","size_leaf_vector":"1"}},{"base_weights":[3.1859935E-3,-1.3909079E-1,6.219485E-2,-1.6268927E-1,-8.478638E-3,1.556006E-2,1.582957E-1,-2.1409254E-1,-8.278801E-2,-8.116805E-2,2.233646E-1,-5.4078512E-2,6.369525E-2,1.6239685E-1,-2.3181994E-2,-1.2555975E-2,-4.0847845E-3,-1.275191E-3,-1.1449656E-2,6.91359E-3,-9.761935E-3,1.5775658E-2,-1.9268394E-2,1.6959729E-3,-5.884195E-3,2.3435268E-3,1.296167E-2,5.738688E-3,1.0745219E-2],"categories":[],"categories_nodes":[],"categories_segments":[],"categories_sizes":[],"default_left":[0,0,0,0,0,0,0,0,0,0,0,0,0,0,0,0,0,0,0,0,0,0,0,0,0,0,0,0,0],"id":6,"left_children":[1,3,5,7,9,11,13,15,17,19,21,23,25,27,-1,-1,-1,-1,-1,-1,-1,-1,-1,-1,-1,-1,-1,-1,-1],"loss_changes":[2.0762548E1,2.2332525E0,7.831449E0,2.5040855E0,1.9056154E0,3.9521785E0,1.5317125E0,1.8080235E0,2.0209684E0,2.1797175E0,1.6361219E0,2.7018154E0,2.2808914E0,1.3956556E0,0E0,0E0,0E0,0E0,0E0,0E0,0E0,0E0,0E0,0E0,0E0,0E0,0E0,0E0,0E0],"parents":[2147483647,0,0,1,1,2,2,3,3,4,4,5,5,6,6,7,7,8,8,9,9,10,10,11,11,12,12,13,13],"right_children":[2,4,6,8,10,12,14,16,18,20,22,24,26,28,-1,-1,-1,-1,-1,-1,-1,-1,-1,-1,-1,-1,-1,-1,-1],"split_conditions":[-6.2046276E1,1.5450145E0,7.805027E1,-1.0651371E2,5.2944446E0,-4.6512928E-2,6E0,5E-1,-1.2708032E-1,-9.615499E-2,2.8233489E-2,-3.2333332E1,1.19E2,6.930615E-2,-2.3181994E-2,-1.2555975E-2,-4.0847845E-3,-1.275191E-3,-1.1449656E-2,6.91359E-3,-9.761935E-3,1.5775658E-2,-1.9268394E-2,1.6959729E-3,-5.884195E-3,2.3435268E-3,1.296167E-2,5.738688E-3,1.0745219E-2],"split_indices":[1,19,1,1,14,34,23,24,31,35,29,5,4,8,0,0,0,0,0,0,0,0,0,0,0,0,0,0,0],"split_type":[0,0,0,0,0,0,0,0,0,0,0,0,0,0,0,0,0,0,0,0,0,0,0,0,0,0,0,0,0],"sum_hessian":[2.471E3,7.24E2,1.747E3,6.13E2,1.11E2,1.177E3,5.7E2,3.72E2,2.41E2,8.5E1,2.6E1,4.81E2,6.96E2,5.67E2,3E0,2.9E2,8.2E1,1.74E2,6.7E1,2.9E1,5.6E1,2.3E1,3E0,2.02E2,2.79E2,6.42E2,5.4E1,2.99E2,2.68E2],"tree_param":{"num_deleted":"0","num_feature":"37","num_nodes":"29","size_leaf_vector":"1"}},{"base_weights":[-1.6652872E-3,-6.6828124E-2,1.2101837E-1,-1.371838E-1,-1.1982343E-2,9.036092E-2,2.3489776E-1,-1.6781099E-1,-2.2691028E-2,-8.74461E-2,2.478581E-2,1.242221E-1,-2.7083931E-2,-2.1777399E-1,2.515671E-1,-7.619295E-3,-1.6458532E-2,2.1363345E-3,-1.1642558E-2,-1.329131E-3,-9.820532E-3,2.0088432E-3,-1.55657595E-2,5.3993836E-3,1.8223308E-2,-6.9763274E-3,4.433703E-3,1.35728E-2,-2.3387859E-2,1.3701319E-2,-5.511679E-3],"categories":[],"categories_nodes":[],"categories_segments":[],"categories_sizes":[],"default_left":[0,0,0,0,0,0,0,0,0,0,0,0,0,0,0,0,0,0,0,0,0,0,0,0,0,0,0,0,0,0,0],"id":7,"left_children":[1,3,5,7,9,11,13,15,17,19,21,23,25,27,29,-1,-1,-1,-1,-1,-1,-1,-1,-1,-1,-1,-1,-1,-1,-1,-1],"loss_changes":[1.9842234E1,6.2533283E0,2.9847422E0,2.4858723E0,2.5326598E0,2.7076025E0,1.4281101E0,1.3436718E0,2.0859263E0,1.9777353E0,3.188698E0,2.0199604E0,2.0038402E0,9.830704E-1,1.4603443E0,0E0,0E0,0E0,0E0,0E0,0E0,0E0,0E0,0E0,0E0,0E0,0E0,0E0,0E0,0E0,0E0],"parents":[2147483647,0,0,1,1,2,2,3,3,4,4,5,5,6,6,7,7,8,8,9,9,10,10,11,11,12,12,13,13,14,14],"right_children":[2,4,6,8,10,12,14,16,18,20,22,24,26,28,30,-1,-1,-1,-1,-1,-1,-1,-1,-1,-1,-1,-1,-1,-1,-1,-1],"split_conditions":[4.2721657E1,-6.2046276E1,9.392592E0,2.8857143E0,-3.2019E0,7.575758E-3,-6.0076933E-2,1.4666667E1,2.1111111E-1,-2.6666667E-2,1.4333333E1,4.7113155E-3,3.3333334E-1,1.02168846E2,5.2380955E-1,-7.619295E-3,-1.6458532E-2,2.1363345E-3,-1.1642558E-2,-1.329131E-3,-9.820532E-3,2.0088432E-3,-1.55657595E-2,5.3993836E-3,1.8223308E-2,-6.9763274E-3,4.433703E-3,1.35728E-2,-2.3387859E-2,1.3701319E-2,-5.511679E-3],"split_indices":[1,1,7,7,7,16,20,4,32,10,3,16,12,1,26,0,0,0,0,0,0,0,0,0,0,0,0,0,0,0,0],"split_type":[0,0,0,0,0,0,0,0,0,0,0,0,0,0,0,0,0,0,0,0,0,0,0,0,0,0,0,0,0,0,0],"sum_hessian":[2.48E3,1.62E3,8.6E2,7.09E2,9.11E2,6.79E2,1.81E2,5.59E2,1.5E2,2.98E2,6.13E2,5.27E2,1.52E2,6E0,1.75E2,5.12E2,4.7E1,1.15E2,3.5E1,1.92E2,1.06E2,5.87E2,2.6E1,4.95E2,3.2E1,7.7E1,7.5E1,2E0,4E0,1.65E2,1E1],"tree_param":{"num_deleted":"0","num_feature":"37","num_nodes":"31","size_leaf_vector":"1"}},{"base_weights":[-1.5823944E-3,-6.834131E-2,1.1513595E-1,-1.0549628E-1,5.72859E-2,-2.1978405E-1,1.301903E-1,-1.8079925E-1,-6.5914825E-2,2.8413957E-2,2.868293E-1,2.3258603E-1,-4.058075E-1,8.534897E-2,1.8059203E-1,-1.3117539E-2,-6.037098E-3,3.1236673E-4,-6.2157386E-3,8.821066E-3,-1.4243602E-3,-4.898386E-3,2.0085242E-2,-8.9972345E-3,1.9504506E-2,1.13460915E-2,-2.1882324E-2,-5.7939324E-3,6.0716476E-3,9.3214195E-3,-2.2482533E-2],"categories":[],"categories_nodes":[],"categories_segments":[],"categories_sizes":[],"default_left":[0,0,0,0,0,0,0,0,0,0,0,0,0,0,0,0,0,0,0,0,0,0,0,0,0,0,0,0,0,0,0],"id":8,"left_children":[1,3,5,7,9,11,13,15,17,19,21,23,25,27,29,-1,-1,-1,-1,-1,-1,-1,-1,-1,-1,-1,-1,-1,-1,-1,-1],"loss_changes":[1.9230705E1,7.334294E0,4.5563345E0,3.6005707E0,2.3710735E0,3.376292E0,1.928256E0,2.0106916E0,3.3553324E0,2.6999986E0,1.8075042E0,8.4989804E-1,6.63383E-1,3.3323908E0,1.569869E0,0E0,0E0,0E0,0E0,0E0,0E0,0E0,0E0,0E0,0E0,0E0,0E0,0E0,0E0,0E0,0E0],"parents":[2147483647,0,0,1,1,2,2,3,3,4,4,5,5,6,6,7,7,8,8,9,9,10,10,11,11,12,12,13,13,14,14],"right_children":[2,4,6,8,10,12,14,16,18,20,22,24,26,28,30,-1,-1,-1,-1,-1,-1,-1,-1,-1,-1,-1,-1,-1,-1,-1,-1],"split_conditions":[3.6421486E1,4.0704427E0,-1.2858586E1,-9.469864E1,2.6400478E0,-4.6078805E-2,2.8E1,-6.785985E0,4.3046722E-1,-4.361613E-1,7.118687E-1,3.8742048E-1,-1.6E1,-1.0607564E-2,6E0,-1.3117539E-2,-6.037098E-3,3.1236673E-4,-6.2157386E-3,8.821066E-3,-1.4243602E-3,-4.898386E-3,2.0085242E-2,-8.9972345E-3,1.9504506E-2,1.13460915E-2,-2.1882324E-2,-5.7939324E-3,6.0716476E-3,9.3214195E-3,-2.2482533E-2],"split_indices":[1,7,7,1,30,20,4,7,36,22,6,36,2,17,23,0,0,0,0,0,0,0,0,0,0,0,0,0,0,0,0],"split_type":[0,0,0,0,0,0,0,0,0,0,0,0,0,0,0,0,0,0,0,0,0,0,0,0,0,0,0,0,0,0,0],"sum_hessian":[2.466E3,1.569E3,8.97E2,1.211E3,3.58E2,3.8E1,8.59E2,4.16E2,7.95E2,3.19E2,3.9E1,1.1E1,2.7E1,4.56E2,4.03E2,1.75E2,2.41E2,3.56E2,4.39E2,8.8E1,2.31E2,9E0,3E1,3E0,8E0,1E0,2.6E1,6.9E1,3.87E2,4E2,3E0],"tree_param":{"num_deleted":"0","num_feature":"37","num_nodes":"31","size_leaf_vector":"1"}},{"base_weights":[4.008619E-3,-5.7064544E-2,1.1720236E-1,-1.292513E-1,-1.1944842E-2,1.7726837E-2,1.5435818E-1,-1.5066747E-1,7.413193E-3,-2.529186E-2,1.6782673E-1,2.0456985E-2,-5.1704454E-3,1.6318452E-1,-8.414048E-2,-9.163319E-3,-2.1227167E-3,1.0949437E-2,-4.8324354E-3,-8.065868E-4,-1.275713E-2,1.4405966E-2,-2.5300658E-3,-6.5653804E-3,3.0468288E-3,-2.291791E-3,8.690307E-3,-2.025656E-2,5.703165E-3],"categories":[],"categories_nodes":[],"categories_segments":[],"categories_sizes":[],"default_left":[0,0,0,0,0,0,0,0,0,0,0,0,0,0,0,0,0,0,0,0,0,0,0,0,0,0,0,0,0],"id":9,"left_children":[1,3,5,7,9,11,13,15,17,19,21,-1,23,25,27,-1,-1,-1,-1,-1,-1,-1,-1,-1,-1,-1,-1,-1,-1],"loss_changes":[1.6964521E1,5.190186E0,3.1759052E0,1.7952633E0,2.3604696E0,2.1082537E0,1.3315048E0,1.8618631E0,1.870589E0,1.9223809E0,1.8012981E0,0E0,1.8674985E0,1.3489265E0,1.5095067E0,0E0,0E0,0E0,0E0,0E0,0E0,0E0,0E0,0E0,0E0,0E0,0E0,0E0,0E0],"parents":[2147483647,0,0,1,1,2,2,3,3,4,4,5,5,6,6,7,7,8,8,9,9,10,10,12,12,13,13,14,14],"right_children":[2,4,6,8,10,12,14,16,18,20,22,-1,24,26,28,-1,-1,-1,-1,-1,-1,-1,-1,-1,-1,-1,-1,-1,-1],"split_conditions":[4.0381313E1,-7.841099E1,-4.3333335E0,1.606678E0,2.537986E0,-4.486034E-1,1.5E0,5E-1,1.10461965E-1,1.4333333E1,6.561E-1,2.0456985E-2,7.233315E1,-6.0076933E-2,3.3333334E-1,-9.163319E-3,-2.1227167E-3,1.0949437E-2,-4.8324354E-3,-8.065868E-4,-1.275713E-2,1.4405966E-2,-2.5300658E-3,-6.5653804E-3,3.0468288E-3,-2.291791E-3,8.690307E-3,-2.025656E-2,5.703165E-3],"split_indices":[1,1,4,19,30,18,11,24,21,3,36,0,1,20,12,0,0,0,0,0,0,0,0,0,0,0,0,0,0],"split_type":[0,0,0,0,0,0,0,0,0,0,0,0,0,0,0,0,0,0,0,0,0,0,0,0,0,0,0,0,0],"sum_hessian":[2.452E3,1.593E3,8.59E2,6.12E2,9.81E2,2.34E2,6.25E2,5.29E2,8.3E1,9.14E2,6.7E1,1.2E1,2.22E2,6.03E2,2.2E1,4.06E2,1.23E2,2.7E1,5.6E1,8.8E2,3.4E1,4.3E1,2.4E1,7.6E1,1.46E2,2.9E1,5.74E2,8E0,1.4E1],"tree_param":{"num_deleted":"0","num_feature":"37","num_nodes":"29","size_leaf_vector":"1"}},{"base_weights":[-4.0627853E-3,-3.4551796E-2,1.3266623E-1,-1.2974167E-1,-1.1134554E-2,1.683599E-1,-3.9644707E-2,3.2379577E-1,-1.4000684E-1,2.5950726E-2,-6.129238E-2,-2.2763731E-2,1.764638E-1,-1.5930414E-1,1.7544873E-1,2.1301715E-2,-1.2352807E-2,-1.0657713E-2,-3.7030787E-3,1.6034473E-3,-2.4127603E-2,-3.8431815E-3,4.2366027E-3,5.9242113E-3,1.3639681E-2,1.6880548E-3,-2.0327907E-2,1.6877268E-2,-1.0213012E-2],"categories":[],"categories_nodes":[],"categories_segments":[],"categories_sizes":[],"default_left":[0,0,0,0,0,0,0,0,0,0,0,0,0,0,0,0,0,0,0,0,0,0,0,0,0,0,0,0,0],"id":10,"left_children":[1,3,5,7,9,11,13,15,17,19,21,-1,23,25,27,-1,-1,-1,-1,-1,-1,-1,-1,-1,-1,-1,-1,-1,-1],"loss_changes":[1.0151278E1,4.4366617E0,2.7374573E0,1.8750024E0,2.9759178E0,1.9401608E0,2.0097725E0,6.305218E-1,1.8413482E0,2.877716E0,1.5526853E0,0E0,2.000677E0,2.4005334E0,1.7923338E0,0E0,0E0,0E0,0E0,0E0,0E0,0E0,0E0,0E0,0E0,0E0,0E0,0E0,0E0],"parents":[2147483647,0,0,1,1,2,2,3,3,4,4,5,5,6,6,7,7,8,8,9,9,10,10,12,12,13,13,14,14],"right_children":[2,4,6,8,10,12,14,16,18,20,22,-1,24,26,28,-1,-1,-1,-1,-1,-1,-1,-1,-1,-1,-1,-1,-1,-1],"split_conditions":[7.255291E-1,-9.8E-1,7.3333335E0,-3.0219404E-2,3.3333334E-1,-6.8333334E-1,1.1942918E-1,-5.902778E-1,2.7435037E-4,2.7638888E-1,1E0,-2.2763731E-2,1.6666666E0,4.906205E-2,1.5260572E0,2.1301715E-2,-1.2352807E-2,-1.0657713E-2,-3.7030787E-3,1.6034473E-3,-2.4127603E-2,-3.8431815E-3,4.2366027E-3,5.9242113E-3,1.3639681E-2,1.6880548E-3,-2.0327907E-2,1.6877268E-2,-1.0213012E-2],"split_indices":[6,9,3,33,3,26,25,6,17,27,9,0,15,25,6,0,0,0,0,0,0,0,0,0,0,0,0,0,0],"split_type":[0,0,0,0,0,0,0,0,0,0,0,0,0,0,0,0,0,0,0,0,0,0,0,0,0,0,0,0,0],"sum_hessian":[2.433E3,1.99E3,4.43E2,3.92E2,1.598E3,3.67E2,7.6E1,8E0,3.84E2,9.19E2,6.79E2,4E0,3.63E2,4.9E1,2.7E1,7E0,1E0,1.81E2,2.03E2,9.09E2,1E1,6.14E2,6.5E1,2.28E2,1.35E2,2.8E1,2.1E1,1.9E1,8E0],"tree_param":{"num_deleted":"0","num_feature":"37","num_nodes":"29","size_leaf_vector":"1"}},{"base_weights":[-1.1095833E-2,-9.948141E-2,7.240762E-2,-1.1382838E-1,8.685136E-2,4.9635883E-2,2.1979332E-1,2.2522299E-2,-1.17817834E-1,2.8000632E-1,3.0992227E-3,1.833563E-1,3.0838486E-2,2.6813826E-1,1.3203451E-1,-9.134185E-3,-4.02523E-3,-8.151094E-3,1.7244026E-2,-7.4861418E-3,7.3136524E-3,4.267299E-3,1.3031331E-2,-1.0719147E-2,1.9476599E-3,1.42381955E-2,-6.5651373E-3,9.4348015E-3,-1.3700882E-2],"categories":[],"categories_nodes":[],"categories_segments":[],"categories_sizes":[],"default_left":[0,0,0,0,0,0,0,0,0,0,0,0,0,0,0,0,0,0,0,0,0,0,0,0,0,0,0,0,0],"id":11,"left_children":[1,3,5,7,9,11,13,-1,15,17,19,21,23,25,27,-1,-1,-1,-1,-1,-1,-1,-1,-1,-1,-1,-1,-1,-1],"loss_changes":[1.8155855E1,3.2044907E0,4.234719E0,2.5518427E0,1.3903663E0,2.7517602E0,6.8161106E-1,0E0,2.6549454E0,8.0349207E-1,1.3565875E0,1.0001507E0,1.9246255E0,7.546139E-1,1.4781728E0,0E0,0E0,0E0,0E0,0E0,0E0,0E0,0E0,0E0,0E0,0E0,0E0,0E0,0E0],"parents":[2147483647,0,0,1,1,2,2,3,3,4,4,5,5,6,6,8,8,9,9,10,10,11,11,12,12,13,13,14,14],"right_children":[2,4,6,8,10,12,14,-1,16,18,20,22,24,26,28,-1,-1,-1,-1,-1,-1,-1,-1,-1,-1,-1,-1,-1,-1],"split_conditions":[-6.0134387E0,1.3866134E-1,1.27E0,-8.055556E-1,1.5125152E-1,-1.9777056E-2,4.0862495E-1,2.2522299E-2,-1.0651371E2,-1.5972222E-1,2.7685186E-2,5.429293E-1,-3.3333333E0,2.0949247E-1,2.7918467E-1,-9.134185E-3,-4.02523E-3,-8.151094E-3,1.7244026E-2,-7.4861418E-3,7.3136524E-3,4.267299E-3,1.3031331E-2,-1.0719147E-2,1.9476599E-3,1.42381955E-2,-6.5651373E-3,9.4348015E-3,-1.3700882E-2],"split_indices":[1,25,9,28,25,16,18,0,1,27,20,6,23,27,21,0,0,0,0,0,0,0,0,0,0,0,0,0,0],"split_type":[0,0,0,0,0,0,0,0,0,0,0,0,0,0,0,0,0,0,0,0,0,0,0,0,0,0,0,0,0],"sum_hessian":[2.458E3,1.194E3,1.264E3,1.109E3,8.5E1,1.096E3,1.68E2,7E0,1.102E3,2.5E1,6E1,1.34E2,9.62E2,1.07E2,6.1E1,4.01E2,7.01E2,3E0,2.2E1,2.9E1,3.1E1,6E1,7.4E1,3E1,9.32E2,1.03E2,4E0,5.4E1,7E0],"tree_param":{"num_deleted":"0","num_feature":"37","num_nodes":"29","size_leaf_vector":"1"}},{"base_weights":[1.0587096E-3,-3.3232924E-2,6.704656E-2,-1.5582927E-1,-1.8643362E-2,9.436637E-2,-1.3770294E-1,-1.8149838E-1,1.9814182E-2,-1.2848022E-2,-2.9368696E-1,2.0878254E-2,1.2363995E-1,-3.7359532E-2,-2.8118834E-1,-1.1715283E-2,-1.7149352E-3,8.1914867E-4,-3.4739599E-3,-1.816427E-2,-6.5542693E-4,-1.2006761E-3,8.6267255E-3,-1.6574334E-2,6.4719836E-3,-6.8610846E-3,1.8676212E-2,-1.6846647E-2,1.593414E-2],"categories":[],"categories_nodes":[],"categories_segments":[],"categories_sizes":[],"default_left":[0,0,0,0,0,0,0,0,0,0,0,0,0,0,0,0,0,0,0,0,0,0,0,0,0,0,0,0,0],"id":12,"left_children":[1,3,5,7,9,11,13,15,-1,17,19,21,23,25,27,-1,-1,-1,-1,-1,-1,-1,-1,-1,-1,-1,-1,-1,-1],"loss_changes":[5.598209E0,2.908979E0,4.7452803E0,2.523724E0,2.3170493E0,1.6044092E0,1.4292763E0,1.2823172E0,0E0,2.3633735E0,5.8107185E-1,1.4610804E0,1.4524555E0,2.5131602E0,1.4783978E0,0E0,0E0,0E0,0E0,0E0,0E0,0E0,0E0,0E0,0E0,0E0,0E0,0E0,0E0],"parents":[2147483647,0,0,1,1,2,2,3,3,4,4,5,5,6,6,7,7,9,9,10,10,11,11,12,12,13,13,14,14],"right_children":[2,4,6,8,10,12,14,16,-1,18,20,22,24,26,28,-1,-1,-1,-1,-1,-1,-1,-1,-1,-1,-1,-1,-1,-1],"split_conditions":[1.4854872E-1,-9.888419E-1,1.0666667E1,2.4014551E-2,1.7E1,-4.8953477E-2,1.415E0,7.849003E-2,1.9814182E-2,6.561E-1,-2.4529174E-1,1.6666666E0,-7.8333336E-1,1.4037444E-1,2.6533334E0,-1.1715283E-2,-1.7149352E-3,8.1914867E-4,-3.4739599E-3,-1.816427E-2,-6.5542693E-4,-1.2006761E-3,8.6267255E-3,-1.6574334E-2,6.4719836E-3,-6.8610846E-3,1.8676212E-2,-1.6846647E-2,1.593414E-2],"split_indices":[34,34,3,17,3,35,10,27,0,36,31,15,26,25,10,0,0,0,0,0,0,0,0,0,0,0,0,0,0],"split_type":[0,0,0,0,0,0,0,0,0,0,0,0,0,0,0,0,0,0,0,0,0,0,0,0,0,0,0,0,0],"sum_hessian":[2.472E3,1.627E3,8.45E2,1.72E2,1.455E3,7.46E2,9.9E1,1.65E2,7E0,1.426E3,2.9E1,2.13E2,5.33E2,5.9E1,4E1,1.21E2,4.4E1,9.41E2,4.85E2,2.3E1,6E0,1.65E2,4.8E1,6E0,5.27E2,4.8E1,1.1E1,3.7E1,3E0],"tree_param":{"num_deleted":"0","num_feature":"37","num_nodes":"29","size_leaf_vector":"1"}},{"base_weights":[-1.3429827E-2,-7.459627E-2,1.0029165E-1,-1.3319762E-1,-3.4075595E-2,-1.0975667E-1,1.0901776E-1,-2.6642224E-1,-1.13202356E-1,-4.634178E-2,1.6681731E-1,2.7545977E-1,-2.3409708E-1,7.775158E-2,1.5439196E-1,1.737177E-2,-1.4269999E-2,-4.0409598E-3,-1.1372204E-2,-1.6390246E-3,-1.1931617E-2,-4.7325404E-4,1.4231287E-2,-1.3167346E-2,1.8786449E-2,8.495765E-3,-1.919986E-2,4.6898476E-3,-3.6645401E-3,-5.34651E-3,9.0096295E-3],"categories":[],"categories_nodes":[],"categories_segments":[],"categories_sizes":[],"default_left":[0,0,0,0,0,0,0,0,0,0,0,0,0,0,0,0,0,0,0,0,0,0,0,0,0,0,0,0,0,0,0],"id":13,"left_children":[1,3,5,7,9,11,13,15,17,19,21,23,25,27,29,-1,-1,-1,-1,-1,-1,-1,-1,-1,-1,-1,-1,-1,-1,-1,-1],"loss_changes":[1.7202562E1,3.8137646E0,1.5974283E0,1.7199974E0,2.3536391E0,1.7409132E0,1.1669168E0,1.0893755E0,2.1014361E0,2.3338995E0,1.144909E0,5.8517855E-1,1.7004074E0,1.2040994E0,2.2981567E0,0E0,0E0,0E0,0E0,0E0,0E0,0E0,0E0,0E0,0E0,0E0,0E0,0E0,0E0,0E0,0E0],"parents":[2147483647,0,0,1,1,2,2,3,3,4,4,5,5,6,6,7,7,8,8,9,9,10,10,11,11,12,12,13,13,14,14],"right_children":[2,4,6,8,10,12,14,16,18,20,22,24,26,28,30,-1,-1,-1,-1,-1,-1,-1,-1,-1,-1,-1,-1,-1,-1,-1,-1],"split_conditions":[4.1524376E1,-3.2700782E0,-1.3030844E1,-2.293335E-1,2.6641316E0,-4.6078805E-2,1.1547276E2,-8.666667E-1,0E0,2.3308854E0,8.95669E-2,-3.9E1,-1.937963E1,8.3333336E1,-1.5012195E-2,1.737177E-2,-1.4269999E-2,-4.0409598E-3,-1.1372204E-2,-1.6390246E-3,-1.1931617E-2,-4.7325404E-4,1.4231287E-2,-1.3167346E-2,1.8786449E-2,8.495765E-3,-1.919986E-2,4.6898476E-3,-3.6645401E-3,-5.34651E-3,9.0096295E-3],"split_indices":[1,7,7,8,30,20,1,28,19,30,8,5,7,5,17,0,0,0,0,0,0,0,0,0,0,0,0,0,0,0,0],"split_type":[0,0,0,0,0,0,0,0,0,0,0,0,0,0,0,0,0,0,0,0,0,0,0,0,0,0,0,0,0,0,0],"sum_hessian":[2.471E3,1.607E3,8.64E2,6.56E2,9.51E2,3.4E1,8.3E2,8.4E1,5.72E2,8.97E2,5.4E1,8E0,2.6E1,4.93E2,3.37E2,2E0,8.2E1,4.47E2,1.25E2,8.39E2,5.8E1,2.2E1,3.2E1,1E0,7E0,7E0,1.9E1,4.46E2,4.7E1,3E1,3.07E2],"tree_param":{"num_deleted":"0","num_feature":"37","num_nodes":"31","size_leaf_vector":"1"}},{"base_weights":[-2.7504049E-3,-8.4406815E-2,5.5876613E-2,-9.617267E-2,1.7684063E-1,1.18494695E-2,1.0471397E-1,-2.8829992E-1,-8.238996E-2,-2.150874E-1,2.6739502E-1,-1.3763885E-1,3.392791E-2,-2.0379092E-1,1.1052625E-1,-1.8694887E-2,-6.64818E-3,-5.6715193E-3,-5.3132186E-4,-1.9829597E-2,5.5470616E-3,1.934555E-2,8.4938854E-4,3.6695972E-3,-1.2295334E-2,6.1685755E-3,-4.737401E-5,-1.5929854E-2,1.4254766E-2,5.7235695E-3,-1.732317E-2],"categories":[],"categories_nodes":[],"categories_segments":[],"categories_sizes":[],"default_left":[0,0,0,0,0,0,0,0,0,0,0,0,0,0,0,0,0,0,0,0,0,0,0,0,0,0,0,0,0,0,0],"id":14,"left_children":[1,3,5,7,9,11,13,15,17,19,21,23,25,27,29,-1,-1,-1,-1,-1,-1,-1,-1,-1,-1,-1,-1,-1,-1,-1,-1],"loss_changes":[1.1867576E1,3.2014642E0,3.1014533E0,2.603097E0,1.6545991E0,2.5130262E0,1.2490158E0,8.278508E-1,2.0637522E0,5.7657933E-1,1.1007507E0,2.2571363E0,2.068266E0,8.2048345E-1,1.2512026E0,0E0,0E0,0E0,0E0,0E0,0E0,0E0,0E0,0E0,0E0,0E0,0E0,0E0,0E0,0E0,0E0],"parents":[2147483647,0,0,1,1,2,2,3,3,4,4,5,5,6,6,7,7,8,8,9,9,10,10,11,11,12,12,13,13,14,14],"right_children":[2,4,6,8,10,12,14,16,18,20,22,24,26,28,30,-1,-1,-1,-1,-1,-1,-1,-1,-1,-1,-1,-1,-1,-1,-1,-1],"split_conditions":[-2.33307E1,2.1746544E-2,6.2790676E1,-2.2171956E2,-3.4813705E-1,-2.5133753E0,-2.5E0,1.3373124E-2,8.3626E-1,-9.233911E-2,-7.3333335E0,-3.1690052E-1,7.579234E-1,3.4785353E-2,2.7638888E-1,-1.8694887E-2,-6.64818E-3,-5.6715193E-3,-5.3132186E-4,-1.9829597E-2,5.5470616E-3,1.934555E-2,8.4938854E-4,3.6695972E-3,-1.2295334E-2,6.1685755E-3,-4.737401E-5,-1.5929854E-2,1.4254766E-2,5.7235695E-3,-1.732317E-2],"split_indices":[1,17,1,1,31,19,15,16,7,25,4,18,30,16,27,0,0,0,0,0,0,0,0,0,0,0,0,0,0,0,0],"split_type":[0,0,0,0,0,0,0,0,0,0,0,0,0,0,0,0,0,0,0,0,0,0,0,0,0,0,0,0,0,0,0],"sum_hessian":[2.477E3,1.035E3,1.442E3,9.91E2,4.4E1,7.59E2,6.83E2,6.5E1,9.26E2,8E0,3.6E1,9.7E1,6.62E2,1.2E1,6.71E2,4.1E1,2.4E1,6.46E2,2.8E2,5E0,3E0,2.4E1,1.2E1,3.3E1,6.4E1,1.85E2,4.77E2,1E1,2E0,6.66E2,5E0],"tree_param":{"num_deleted":"0","num_feature":"37","num_nodes":"31","size_leaf_vector":"1"}},{"base_weights":[1.0137188E-3,-1.0577129E-1,5.0482016E-2,-1.555838E-1,-5.0496228E-2,1.8769577E-2,1.125506E-1,2.0911893E-2,-1.6362132E-1,3.231676E-1,-6.267609E-2,-4.6519253E-2,4.972523E-2,-1.9526504E-3,1.3521677E-1,2.1064086E-2,-8.521917E-3,-1.4143221E-2,2.3633024E-2,-3.589628E-3,1.759904E-2,1.5805025E-2,-3.1528876E-3,3.1859383E-3,-4.8504607E-3,3.7794139E-3,-1.41242E-2,3.77498E-3,9.108701E-3],"categories":[],"categories_nodes":[],"categories_segments":[],"categories_sizes":[],"default_left":[0,0,0,0,0,0,0,0,0,0,0,0,0,0,0,0,0,0,0,0,0,0,0,0,0,0,0,0,0],"id":15,"left_children":[1,3,5,7,9,11,13,-1,15,17,19,21,23,25,27,-1,-1,-1,-1,-1,-1,-1,-1,-1,-1,-1,-1,-1,-1],"loss_changes":[1.3148131E1,2.1618137E0,3.3460445E0,1.9778442E0,1.7269452E0,2.2800462E0,1.4925909E0,0E0,1.7026062E0,1.2208682E0,1.4012647E0,2.1969106E0,1.5769817E0,2.1096077E0,1.3322401E0,0E0,0E0,0E0,0E0,0E0,0E0,0E0,0E0,0E0,0E0,0E0,0E0,0E0,0E0],"parents":[2147483647,0,0,1,1,2,2,3,3,4,4,5,5,6,6,8,8,9,9,10,10,11,11,12,12,13,13,14,14],"right_children":[2,4,6,8,10,12,14,-1,16,18,20,22,24,26,28,-1,-1,-1,-1,-1,-1,-1,-1,-1,-1,-1,-1,-1,-1],"split_conditions":[-5.1839657E1,-2.1333334E-1,7.805027E1,-8.666667E-1,-4.799203E-1,-3.2700782E0,-2.3333333E-1,2.0911893E-2,-1.4108427E-1,-2.7061057E2,1.1764102E0,-1.575E2,1.5674936E-2,2.2131944E0,2.2666666E1,2.1064086E-2,-8.521917E-3,-1.4143221E-2,2.3633024E-2,-3.589628E-3,1.759904E-2,1.5805025E-2,-3.1528876E-3,3.1859383E-3,-4.8504607E-3,3.7794139E-3,-1.41242E-2,3.77498E-3,9.108701E-3],"split_indices":[1,9,1,28,34,7,28,0,29,1,34,4,16,30,4,0,0,0,0,0,0,0,0,0,0,0,0,0,0],"split_type":[0,0,0,0,0,0,0,0,0,0,0,0,0,0,0,0,0,0,0,0,0,0,0,0,0,0,0,0,0],"sum_hessian":[2.487E3,7.87E2,1.7E3,4.13E2,3.74E2,1.126E3,5.74E2,5E0,4.08E2,1.1E1,3.63E2,3.62E2,7.64E2,9.5E1,4.79E2,4E0,4.04E2,2E0,9E0,3.56E2,7E0,1.5E1,3.47E2,6.98E2,6.6E1,7.5E1,2E1,2.12E2,2.67E2],"tree_param":{"num_deleted":"0","num_feature":"37","num_nodes":"29","size_leaf_vector":"1"}},{"base_weights":[4.279946E-3,-9.466726E-2,4.5155708E-2,-1.0717866E-1,2.3908213E-1,9.7190915E-3,1.0196826E-1,9.873777E-2,-1.1974354E-1,3.578408E-1,-7.285505E-2,-2.5363953E-3,1.5415767E-1,1.8287577E-1,7.61904E-2,2.1632167E-2,-5.9455647E-3,-1.21547645E-2,-4.837427E-3,2.0300776E-2,-1.2732598E-2,1.5107091E-2,-1.24105485E-2,2.4565228E-4,-1.3269007E-2,9.3433065E-3,-1.1382899E-2,9.839178E-3,-1.4242043E-2,-8.441174E-3,4.2554107E-3],"categories":[],"categories_nodes":[],"categories_segments":[],"categories_sizes":[],"default_left":[0,0,0,0,0,0,0,0,0,0,0,0,0,0,0,0,0,0,0,0,0,0,0,0,0,0,0,0,0,0,0],"id":16,"left_children":[1,3,5,7,9,11,13,15,17,19,21,23,25,27,29,-1,-1,-1,-1,-1,-1,-1,-1,-1,-1,-1,-1,-1,-1,-1,-1],"loss_changes":[9.836557E0,2.9945264E0,3.4638028E0,1.7867217E0,9.892471E-1,1.8785362E0,1.3646626E0,2.958415E0,1.8116798E0,6.640191E-1,6.0105824E-1,1.9182241E0,1.0790957E0,1.090332E0,1.1134176E0,0E0,0E0,0E0,0E0,0E0,0E0,0E0,0E0,0E0,0E0,0E0,0E0,0E0,0E0,0E0,0E0],"parents":[2147483647,0,0,1,1,2,2,3,3,4,4,5,5,6,6,7,7,8,8,9,9,10,10,11,11,12,12,13,13,14,14],"right_children":[2,4,6,8,10,12,14,16,18,20,22,24,26,28,30,-1,-1,-1,-1,-1,-1,-1,-1,-1,-1,-1,-1,-1,-1,-1,-1],"split_conditions":[-6.2046276E1,2.1746544E-2,6.470419E1,-4.1666665E0,-1.8666666E1,1.1055555E0,-1.5313391E-2,-3.7213605E-2,-2.8333333E0,-6.670391E1,-5E-1,1.4333333E1,3.081208E-1,4.9514234E-1,-1.4433334E0,2.1632167E-2,-5.9455647E-3,-1.21547645E-2,-4.837427E-3,2.0300776E-2,-1.2732598E-2,1.5107091E-2,-1.24105485E-2,2.4565228E-4,-1.3269007E-2,9.3433065E-3,-1.1382899E-2,9.839178E-3,-1.4242043E-2,-8.441174E-3,4.2554107E-3],"split_indices":[1,17,1,14,4,6,16,25,3,1,24,3,8,21,9,0,0,0,0,0,0,0,0,0,0,0,0,0,0,0,0],"split_type":[0,0,0,0,0,0,0,0,0,0,0,0,0,0,0,0,0,0,0,0,0,0,0,0,0,0,0,0,0,0,0],"sum_hessian":[2.43E3,7.1E2,1.72E3,6.85E2,2.5E1,1.06E3,6.6E2,3.9E1,6.46E2,1.8E1,7E0,9.78E2,8.2E1,1.58E2,5.02E2,1.5E1,2.4E1,1E2,5.46E2,1.7E1,1E0,2E0,5E0,9.52E2,2.6E1,7.6E1,6E0,1.54E2,4E0,1.7E1,4.85E2],"tree_param":{"num_deleted":"0","num_feature":"37","num_nodes":"31","size_leaf_vector":"1"}},{"base_weights":[3.5343095E-4,-6.470395E-2,4.690759E-2,-7.4873194E-2,1.3387348E-1,-4.9294796E-2,6.956165E-2,5.373526E-3,-1.0039372E-1,-1.3237111E-1,2.6305833E-1,1.9076431E-2,-7.0646375E-2,4.4320434E-2,1.4150709E-1,-1.3538965E-3,1.6039671E-2,-9.656305E-3,-3.6206648E-3,-1.7429195E-2,4.9274783E-3,2.1581957E-2,1.037334E-3,-1.9980522E-3,-1.7263869E-2,-3.5399634E-3,3.0265795E-3,-2.2386564E-2,7.4495855E-3],"categories":[],"categories_nodes":[],"categories_segments":[],"categories_sizes":[],"default_left":[0,0,0,0,0,0,0,0,0,0,0,0,0,0,0,0,0,0,0,0,0,0,0,0,0,0,0,0,0],"id":17,"left_children":[1,3,5,7,9,11,13,15,17,19,21,-1,23,25,27,-1,-1,-1,-1,-1,-1,-1,-1,-1,-1,-1,-1,-1,-1],"loss_changes":[7.3991E0,2.0677748E0,3.1068597E0,1.9870391E0,1.7545595E0,2.529016E0,2.0875654E0,2.4141073E0,1.8957086E0,8.831289E-1,1.3799143E0,0E0,2.1772597E0,1.5999064E0,1.3853645E0,0E0,0E0,0E0,0E0,0E0,0E0,0E0,0E0,0E0,0E0,0E0,0E0,0E0,0E0],"parents":[2147483647,0,0,1,1,2,2,3,3,4,4,5,5,6,6,7,7,8,8,9,9,10,10,12,12,13,13,14,14],"right_children":[2,4,6,8,10,12,14,16,18,20,22,-1,24,26,28,-1,-1,-1,-1,-1,-1,-1,-1,-1,-1,-1,-1,-1,-1],"split_conditions":[-2.33307E1,2.1746544E-2,-9.768784E-3,-1.0488241E-2,3.4867844E-1,-1.7366667E0,1.1547276E2,1.2780228E-1,-1.0733334E0,5.4886956E-3,-1.8666666E1,1.9076431E-2,1.674233E-2,-2.5133753E0,-1.2222222E0,-1.3538965E-3,1.6039671E-2,-9.656305E-3,-3.6206648E-3,-1.7429195E-2,4.9274783E-3,2.1581957E-2,1.037334E-3,-1.9980522E-3,-1.7263869E-2,-3.5399634E-3,3.0265795E-3,-2.2386564E-2,7.4495855E-3],"split_indices":[1,17,17,33,36,10,1,8,9,16,4,0,16,19,6,0,0,0,0,0,0,0,0,0,0,0,0,0,0],"split_type":[0,0,0,0,0,0,0,0,0,0,0,0,0,0,0,0,0,0,0,0,0,0,0,0,0,0,0,0,0],"sum_hessian":[2.441E3,1.018E3,1.423E3,9.69E2,4.9E1,2.71E2,1.152E3,2.34E2,7.35E2,1.6E1,3.3E1,1.2E1,2.59E2,8.54E2,2.98E2,2.13E2,2.1E1,1.69E2,5.66E2,8E0,8E0,1.9E1,1.4E1,2.34E2,2.5E1,1.05E2,7.49E2,3E0,2.95E2],"tree_param":{"num_deleted":"0","num_feature":"37","num_nodes":"29","size_leaf_vector":"1"}},{"base_weights":[-1.1423388E-3,-4.10552E-2,6.970091E-2,-6.7911595E-2,3.65867E-2,-2.6324213E-1,7.9199046E-2,-4.458344E-2,-1.6335395E-1,2.349604E-2,2.016585E-2,-4.2525166E-1,2.2297362E-2,8.7029114E-2,-2.0011103E-1,-3.435706E-3,2.8677548E-3,2.7653154E-3,-1.006865E-2,-8.202462E-3,2.1668726E-3,1.0940869E-2,-2.4138872E-2,1.813525E-2,-1.3254595E-2,6.3314023E-3,2.1901065E-3,1.6574083E-2,-1.4591885E-2],"categories":[],"categories_nodes":[],"categories_segments":[],"categories_sizes":[],"default_left":[0,0,0,0,0,0,0,0,0,0,0,0,0,0,0,0,0,0,0,0,0,0,0,0,0,0,0,0,0],"id":18,"left_children":[1,3,5,7,9,11,13,15,17,19,-1,21,23,25,27,-1,-1,-1,-1,-1,-1,-1,-1,-1,-1,-1,-1,-1,-1],"loss_changes":[7.006719E0,3.3074982E0,2.8448153E0,2.6155272E0,1.9492261E0,1.165985E0,1.9179344E0,2.335875E0,1.9315E0,1.4769688E0,0E0,6.984489E-1,1.0744451E0,1.4425874E0,1.2670078E0,0E0,0E0,0E0,0E0,0E0,0E0,0E0,0E0,0E0,0E0,0E0,0E0,0E0,0E0],"parents":[2147483647,0,0,1,1,2,2,3,3,4,4,5,5,6,6,7,7,8,8,9,9,11,11,12,12,13,13,14,14],"right_children":[2,4,6,8,10,12,14,16,18,20,-1,22,24,26,28,-1,-1,-1,-1,-1,-1,-1,-1,-1,-1,-1,-1,-1,-1],"split_conditions":[3.6421486E1,3.131217E0,-1.2222222E0,7.6666665E0,1.7009379E-1,7.849003E-2,2.4222037E-2,2.3333333E-1,-3.7777779E-1,-1.7196407E2,2.016585E-2,-1.5E1,1.6417888E-1,1.6285801E-2,-8.666667E0,-3.435706E-3,2.8677548E-3,2.7653154E-3,-1.006865E-2,-8.202462E-3,2.1668726E-3,1.0940869E-2,-2.4138872E-2,1.813525E-2,-1.3254595E-2,6.3314023E-3,2.1901065E-3,1.6574083E-2,-1.4591885E-2],"split_indices":[1,7,6,3,27,27,16,32,32,1,0,2,27,35,2,0,0,0,0,0,0,0,0,0,0,0,0,0,0],"split_type":[0,0,0,0,0,0,0,0,0,0,0,0,0,0,0,0,0,0,0,0,0,0,0,0,0,0,0,0,0],"sum_hessian":[2.476E3,1.584E3,8.92E2,1.177E3,4.07E2,2.4E1,8.68E2,9.47E2,2.3E2,3.94E2,1.3E1,1.5E1,9E0,8.45E2,2.3E1,7.66E2,1.81E2,3.4E1,1.96E2,3.7E1,3.57E2,1E0,1.4E1,4E0,5E0,4.4E2,4.05E2,3E0,2E1],"tree_param":{"num_deleted":"0","num_feature":"37","num_nodes":"29","size_leaf_vector":"1"}},{"base_weights":[7.1874447E-3,-3.1243796E-2,7.5424135E-2,-4.7738988E-2,1.1026225E-1,-5.0597478E-2,9.014548E-2,2.7136417E-2,-7.6331705E-2,2.6670995E-1,3.5244472E-2,6.165098E-2,-2.7708313E-1,-2.0839101E-1,1.0056423E-1,-2.9222805E-3,5.13324E-3,-4.763613E-3,3.5089576E-3,1.8873673E-2,3.9976304E-3,-2.116519E-3,1.2936436E-2,-6.2115337E-3,1.0225654E-2,-1.9620001E-2,-1.5871673E-3,8.733754E-4,-2.2648348E-2,5.403138E-3,-5.4198955E-3],"categories":[],"categories_nodes":[],"categories_segments":[],"categories_sizes":[],"default_left":[0,0,0,0,0,0,0,0,0,0,0,0,0,0,0,0,0,0,0,0,0,0,0,0,0,0,0,0,0,0,0],"id":19,"left_children":[1,3,5,7,9,11,13,15,17,19,21,23,25,27,29,-1,-1,-1,-1,-1,-1,-1,-1,-1,-1,-1,-1,-1,-1,-1,-1],"loss_changes":[6.4272866E0,3.6652417E0,1.6427102E0,3.0100238E0,1.915363E0,2.3813903E0,2.4812632E0,2.5204463E0,2.8288589E0,1.0661724E0,1.9526688E0,1.6983997E0,8.6459064E-1,1.4993801E0,1.2103992E0,0E0,0E0,0E0,0E0,0E0,0E0,0E0,0E0,0E0,0E0,0E0,0E0,0E0,0E0,0E0,0E0],"parents":[2147483647,0,0,1,1,2,2,3,3,4,4,5,5,6,6,7,7,8,8,9,9,10,10,11,11,12,12,13,13,14,14],"right_children":[2,4,6,8,10,12,14,16,18,20,22,24,26,28,30,-1,-1,-1,-1,-1,-1,-1,-1,-1,-1,-1,-1,-1,-1,-1,-1],"split_conditions":[3.7755222E1,7.118687E-1,-1.5212108E-2,3.4867844E-1,4.7E-1,-9.592159E-3,-1.51E0,-1.9913842E-1,1.5123105E-2,-1.5031265E-2,1.19E2,2.1333334E1,2.3333333E0,-3.6072965E0,3.60755E-2,-2.9222805E-3,5.13324E-3,-4.763613E-3,3.5089576E-3,1.8873673E-2,3.9976304E-3,-2.116519E-3,1.2936436E-2,-6.2115337E-3,1.0225654E-2,-1.9620001E-2,-1.5871673E-3,8.733754E-4,-2.2648348E-2,5.403138E-3,-5.4198955E-3],"split_indices":[1,6,17,36,9,33,9,34,17,27,4,4,2,19,31,0,0,0,0,0,0,0,0,0,0,0,0,0,0,0,0],"split_type":[0,0,0,0,0,0,0,0,0,0,0,0,0,0,0,0,0,0,0,0,0,0,0,0,0,0,0,0,0,0,0],"sum_hessian":[2.449E3,1.567E3,8.82E2,1.404E3,1.63E2,9.2E1,7.9E2,3.88E2,1.016E3,5.2E1,1.11E2,6.2E1,3E1,2.6E1,7.64E2,1.82E2,2.06E2,9E2,1.16E2,3.2E1,2E1,8.3E1,2.8E1,2.7E1,3.5E1,2E1,1E1,1.4E1,1.2E1,7.38E2,2.6E1],"tree_param":{"num_deleted":"0","num_feature":"37","num_nodes":"31","size_leaf_vector":"1"}},{"base_weights":[-2.1501267E-3,-6.147433E-2,5.1761776E-2,-8.379912E-2,4.84392E-2,6.0720827E-2,-1.5899195E-1,-6.119523E-2,-1.9228336E-1,8.127372E-2,-2.4949342E-1,3.2910936E-2,1.2711631E-1,5.957669E-2,-2.4683684E-1,1.4745179E-3,-4.5587183E-3,-1.1409417E-2,1.2668373E-2,1.5593417E-2,2.4428195E-3,2.1058875E-3,-2.0487731E-2,1.8882795E-3,-1.7613728E-2,3.7643448E-3,1.0147546E-2,1.8788517E-2,-1.1405198E-2,-2.3316048E-2,-4.9687205E-3],"categories":[],"categories_nodes":[],"categories_segments":[],"categories_sizes":[],"default_left":[0,0,0,0,0,0,0,0,0,0,0,0,0,0,0,0,0,0,0,0,0,0,0,0,0,0,0,0,0,0,0],"id":20,"left_children":[1,3,5,7,9,11,13,15,17,19,21,23,25,27,29,-1,-1,-1,-1,-1,-1,-1,-1,-1,-1,-1,-1,-1,-1,-1,-1],"loss_changes":[7.89334E0,2.8872695E0,2.4510372E0,2.3839993E0,1.9669895E0,2.287262E0,1.0323131E0,2.2048159E0,2.745998E0,1.3303103E0,9.519372E-1,1.6513728E0,1.4232702E0,1.5411192E0,1.1835549E0,0E0,0E0,0E0,0E0,0E0,0E0,0E0,0E0,0E0,0E0,0E0,0E0,0E0,0E0,0E0,0E0],"parents":[2147483647,0,0,1,1,2,2,3,3,4,4,5,5,6,6,7,7,8,8,9,9,10,10,11,11,12,12,13,13,14,14],"right_children":[2,4,6,8,10,12,14,16,18,20,22,24,26,28,30,-1,-1,-1,-1,-1,-1,-1,-1,-1,-1,-1,-1,-1,-1,-1,-1],"split_conditions":[-9.779507E0,5.828775E0,2.4222037E-2,2.727621E-1,4.6825397E-1,5.2333332E1,2.4404863E1,3.4867844E-1,6.9537036E-2,6.6292086E0,-1.5181264E-1,5.448337E-2,4.5542177E-2,2E0,2E0,1.4745179E-3,-4.5587183E-3,-1.1409417E-2,1.2668373E-2,1.5593417E-2,2.4428195E-3,2.1058875E-3,-2.0487731E-2,1.8882795E-3,-1.7613728E-2,3.7643448E-3,1.0147546E-2,1.8788517E-2,-1.1405198E-2,-2.3316048E-2,-4.9687205E-3],"split_indices":[1,7,16,21,32,4,1,36,20,7,27,31,27,11,11,0,0,0,0,0,0,0,0,0,0,0,0,0,0,0,0],"split_type":[0,0,0,0,0,0,0,0,0,0,0,0,0,0,0,0,0,0,0,0,0,0,0,0,0,0,0,0,0,0,0],"sum_hessian":[2.466E3,1.174E3,1.292E3,9.76E2,1.98E2,1.24E3,5.2E1,8.09E2,1.67E2,1.79E2,1.9E1,8.75E2,3.65E2,1.5E1,3.7E1,2.01E2,6.08E2,1.55E2,1.2E1,2.1E1,1.58E2,7E0,1.2E1,8.65E2,1E1,2.18E2,1.47E2,7E0,8E0,1.4E1,2.3E1],"tree_param":{"num_deleted":"0","num_feature":"37","num_nodes":"31","size_leaf_vector":"1"}},{"base_weights":[-6.547862E-3,-8.407216E-2,2.4200546E-2,-8.978303E-2,1.8091677E-2,-3.381033E-1,2.730816E-2,-2.2036032E-1,-7.557328E-2,1.4906064E-1,-2.3615802E-2,7.227572E-3,7.713372E-2,-1.6272848E-2,-2.1056735E-3,1.0211703E-2,-4.2845034E-3,1.7116692E-2,-1.0768973E-2,5.052281E-4,-2.1890564E-2,4.6799737E-3,-7.935891E-3],"categories":[],"categories_nodes":[],"categories_segments":[],"categories_sizes":[],"default_left":[0,0,0,0,0,0,0,0,0,0,0,0,0,0,0,0,0,0,0,0,0,0,0],"id":21,"left_children":[1,3,5,7,-1,9,11,13,15,17,-1,19,21,-1,-1,-1,-1,-1,-1,-1,-1,-1,-1],"loss_changes":[5.842219E0,1.8048568E0,1.9851888E0,1.2599101E0,0E0,1.0511574E0,1.7413594E0,1.2414141E0,1.7782278E0,3.554777E-1,0E0,1.5946463E0,1.9565909E0,0E0,0E0,0E0,0E0,0E0,0E0,0E0,0E0,0E0,0E0],"parents":[2147483647,0,0,1,1,2,2,3,3,5,5,6,6,7,7,8,8,9,9,11,11,12,12],"right_children":[2,4,6,8,-1,10,12,14,16,18,-1,20,22,-1,-1,-1,-1,-1,-1,-1,-1,-1,-1],"split_conditions":[-6.2046276E1,1.8366667E0,-1.5192268E-2,-2.2171956E2,1.8091677E-2,-1.6666666E0,5.1414144E-1,1.3373124E-2,-2.0981065E2,-3.1297302E1,-2.3615802E-2,2.7638888E-1,1.0666667E1,-1.6272848E-2,-2.1056735E-3,1.0211703E-2,-4.2845034E-3,1.7116692E-2,-1.0768973E-2,5.052281E-4,-2.1890564E-2,4.6799737E-3,-7.935891E-3],"split_indices":[1,9,30,1,0,15,6,16,1,1,0,27,3,0,0,0,0,0,0,0,0,0,0],"split_type":[0,0,0,0,0,0,0,0,0,0,0,0,0,0,0,0,0,0,0,0,0,0,0],"sum_hessian":[2.449E3,6.95E2,1.754E3,6.87E2,8E0,1.4E1,1.74E3,6.6E1,6.21E2,3E0,1.1E1,1.241E3,4.99E2,4.1E1,2.5E1,2.1E1,6E2,2E0,1E0,1.234E3,7E0,4.67E2,3.2E1],"tree_param":{"num_deleted":"0","num_feature":"37","num_nodes":"23","size_leaf_vector":"1"}},{"base_weights":[-4.4039977E-3,-5.5669565E-2,4.341215E-2,-8.33588E-2,2.9308762E-2,-2.1858245E-2,4.6440996E-2,-9.222603E-2,1.2906064E-1,-1.686963E-1,5.5389944E-2,4.955508E-2,-3.4621772E-1,-9.96159E-4,-6.0250666E-3,1.2099317E-2,-7.4793706E-3,-1.0400805E-2,1.5347339E-2,1.7186096E-2,1.7410669E-3,1.0027408E-2,2.1668936E-3,-2.5414243E-2,1.1977106E-3],"categories":[],"categories_nodes":[],"categories_segments":[],"categories_sizes":[],"default_left":[0,0,0,0,0,0,0,0,0,0,0,0,0,0,0,0,0,0,0,0,0,0,0,0,0],"id":22,"left_children":[1,3,5,7,9,-1,11,13,15,17,19,21,23,-1,-1,-1,-1,-1,-1,-1,-1,-1,-1,-1,-1],"loss_changes":[5.9787393E0,2.7719076E0,1.8572631E0,1.6845131E0,1.5069638E0,0E0,1.5517354E0,1.7414598E0,1.1689928E0,6.9972414E-1,1.5121919E0,1.1609976E0,6.121026E-1,0E0,0E0,0E0,0E0,0E0,0E0,0E0,0E0,0E0,0E0,0E0,0E0],"parents":[2147483647,0,0,1,1,2,2,3,3,4,4,6,6,7,7,8,8,9,9,10,10,11,11,12,12],"right_children":[2,4,6,8,10,-1,12,14,16,18,20,22,24,-1,-1,-1,-1,-1,-1,-1,-1,-1,-1,-1,-1],"split_conditions":[-6.0134387E0,2.8857143E0,-1.5192268E-2,7.240741E-2,-1.7196407E2,-2.1858245E-2,1.6666666E0,3.4867844E-1,6.418296E-3,6.540261E-2,-3.65173E-1,-3.8061957E0,0E0,-9.96159E-4,-6.0250666E-3,1.2099317E-2,-7.4793706E-3,-1.0400805E-2,1.5347339E-2,1.7186096E-2,1.7410669E-3,1.0027408E-2,2.1668936E-3,-2.5414243E-2,1.1977106E-3],"split_indices":[1,7,30,20,1,0,24,36,33,8,18,22,12,0,0,0,0,0,0,0,0,0,0,0,0],"split_type":[0,0,0,0,0,0,0,0,0,0,0,0,0,0,0,0,0,0,0,0,0,0,0,0,0],"sum_hessian":[2.437E3,1.176E3,1.261E3,8.87E2,2.89E2,7E0,1.254E3,8.52E2,3.5E1,3.3E1,2.56E2,1.245E3,9E0,2.4E2,6.12E2,2.5E1,1E1,3.1E1,2E0,1.6E1,2.4E2,4.8E1,1.197E3,6E0,3E0],"tree_param":{"num_deleted":"0","num_feature":"37","num_nodes":"25","size_leaf_vector":"1"}},{"base_weights":[9.161628E-4,-7.288127E-2,3.0843673E-2,2.2967906E-1,-8.189258E-2,3.742345E-2,-1.870087E-1,-1.6126594E-2,4.2240322E-1,-9.305974E-2,1.0890366E-1,1.3561376E-2,9.835976E-2,-2.1070076E-2,-8.956393E-2,2.3939215E-2,-1.0582821E-2,1.7844478E-2,-4.9919435E-3,1.0763369E-2,-9.070503E-3,9.807268E-4,-1.004172E-2,-1.1149534E-2,5.5280686E-3,1.9795045E-2,-7.91608E-3],"categories":[],"categories_nodes":[],"categories_segments":[],"categories_sizes":[],"default_left":[0,0,0,0,0,0,0,0,0,0,0,0,0,0,0,0,0,0,0,0,0,0,0,0,0,0,0],"id":23,"left_children":[1,3,5,7,9,11,13,-1,15,17,19,21,23,-1,25,-1,-1,-1,-1,-1,-1,-1,-1,-1,-1,-1,-1],"loss_changes":[5.488344E0,1.9736853E0,2.5412855E0,2.3711505E0,1.4951992E0,2.495299E0,1.149956E0,0E0,6.7332125E-1,2.0457559E0,1.2433264E0,1.6066871E0,1.9184933E0,0E0,1.3310978E0,0E0,0E0,0E0,0E0,0E0,0E0,0E0,0E0,0E0,0E0,0E0,0E0],"parents":[2147483647,0,0,1,1,2,2,3,3,4,4,5,5,6,6,8,8,9,9,10,10,11,11,12,12,14,14],"right_children":[2,4,6,8,10,12,14,-1,16,18,20,22,24,-1,26,-1,-1,-1,-1,-1,-1,-1,-1,-1,-1,-1,-1],"split_conditions":[-6.2046276E1,-1.0011238E-1,1.4333333E1,-9.939153E-1,1.1576431E1,5.2575755E-1,-2.33307E1,-1.6126594E-2,1.91E0,-7.5E-1,1.5266666E0,2.4475524E-1,5.040358E-3,-2.1070076E-2,-2.885153E-1,2.3939215E-2,-1.0582821E-2,1.7844478E-2,-4.9919435E-3,1.0763369E-2,-9.070503E-3,9.807268E-4,-1.004172E-2,-1.1149534E-2,5.5280686E-3,1.9795045E-2,-7.91608E-3],"split_indices":[1,29,3,6,7,6,1,0,10,28,10,27,18,0,34,0,0,0,0,0,0,0,0,0,0,0,0],"split_type":[0,0,0,0,0,0,0,0,0,0,0,0,0,0,0,0,0,0,0,0,0,0,0,0,0,0,0],"sum_hessian":[2.483E3,7.16E2,1.767E3,2E1,6.96E2,1.716E3,5.1E1,5E0,1.5E1,6.58E2,3.8E1,1.234E3,4.82E2,1.4E1,3.7E1,1.4E1,1E0,9E0,6.49E2,2.8E1,1E1,1.201E3,3.3E1,1.7E1,4.65E2,4E0,3.3E1],"tree_param":{"num_deleted":"0","num_feature":"37","num_nodes":"27","size_leaf_vector":"1"}},{"base_weights":[2.6821746E-3,-3.068313E-2,6.658943E-2,-7.313429E-2,-4.4136373E-3,2.4239544E-2,1.1878652E-1,-9.432457E-2,2.0818809E-2,-8.462216E-2,1.715122E-2,-1.0413849E-2,1.06428474E-1,1.6173756E-2,1.0328598E-1,-1.0359711E-2,-3.321622E-3,-4.25716E-4,2.3520648E-2,2.0998297E-3,-9.14326E-3,-2.3726601E-5,5.9922254E-3,1.5756164E-2,-1.1886623E-3,-2.1782083E-2,6.293037E-3,3.5347564E-3,1.1216308E-2],"categories":[],"categories_nodes":[],"categories_segments":[],"categories_sizes":[],"default_left":[0,0,0,0,0,0,0,0,0,0,0,0,0,0,0,0,0,0,0,0,0,0,0,0,0,0,0,0,0],"id":24,"left_children":[1,3,5,7,9,11,13,15,17,19,21,23,25,-1,27,-1,-1,-1,-1,-1,-1,-1,-1,-1,-1,-1,-1,-1,-1],"loss_changes":[5.2218766E0,1.7939863E0,1.8539753E0,1.2263627E0,1.7224882E0,1.3254865E0,1.1595559E0,1.5666189E0,1.5074377E0,2.6323957E0,1.4209431E0,1.4339566E0,1.508473E0,0E0,1.3687665E0,0E0,0E0,0E0,0E0,0E0,0E0,0E0,0E0,0E0,0E0,0E0,0E0,0E0,0E0],"parents":[2147483647,0,0,1,1,2,2,3,3,4,4,5,5,6,6,7,7,8,8,9,9,10,10,11,11,12,12,14,14],"right_children":[2,4,6,8,10,12,14,16,18,20,22,24,26,-1,28,-1,-1,-1,-1,-1,-1,-1,-1,-1,-1,-1,-1,-1,-1],"split_conditions":[4.2721657E1,-7.7574615E1,2.8E1,7.355607E-2,-8.510101E-2,1.0578425E-2,-1.9386364E0,-9.4333336E1,5.9333334E0,-8.729604E-1,1.3333334E0,-3.971216E-1,-3.5E0,1.6173756E-2,1.7324147E2,-1.0359711E-2,-3.321622E-3,-4.25716E-4,2.3520648E-2,2.0998297E-3,-9.14326E-3,-2.3726601E-5,5.9922254E-3,1.5756164E-2,-1.1886623E-3,-2.1782083E-2,6.293037E-3,3.5347564E-3,1.1216308E-2],"split_indices":[1,1,4,27,25,17,7,4,14,6,15,18,23,0,1,0,0,0,0,0,0,0,0,0,0,0,0,0,0],"split_type":[0,0,0,0,0,0,0,0,0,0,0,0,0,0,0,0,0,0,0,0,0,0,0,0,0,0,0,0,0],"sum_hessian":[2.447E3,1.608E3,8.39E2,6.14E2,9.94E2,4.64E2,3.75E2,5.01E2,1.13E2,2.1E2,7.84E2,3.27E2,1.37E2,2.5E1,3.5E2,9.8E1,4.03E2,1.07E2,6E0,9.2E1,1.18E2,6.7E2,1.14E2,1.2E1,3.15E2,4E0,1.33E2,2.77E2,7.3E1],"tree_param":{"num_deleted":"0","num_feature":"37","num_nodes":"29","size_leaf_vector":"1"}},{"base_weights":[3.5198494E-3,-2.201713E-2,7.37797E-2,4.5376197E-3,-6.332261E-2,1.9272336E-1,6.1427653E-2,3.125551E-2,-7.85905E-2,-8.677145E-2,2.483576E-2,2.2739717E-1,-2.4803755E-1,-1.7881738E-1,7.3877E-2,1.8326258E-3,-1.9014318E-2,-1.7448285E-3,-1.3550987E-2,-5.106039E-6,-5.6078597E-3,-1.1556496E-2,4.1217087E-3,1.2031412E-3,1.55559825E-2,-2.1188183E-2,1.13716675E-2,1.0906513E-3,-2.4079038E-2,1.3424361E-3,6.008073E-3],"categories":[],"categories_nodes":[],"categories_segments":[],"categories_sizes":[],"default_left":[0,0,0,0,0,0,0,0,0,0,0,0,0,0,0,0,0,0,0,0,0,0,0,0,0,0,0,0,0,0,0],"id":25,"left_children":[1,3,5,7,9,11,13,15,17,19,21,23,25,27,29,-1,-1,-1,-1,-1,-1,-1,-1,-1,-1,-1,-1,-1,-1,-1,-1],"loss_changes":[4.469243E0,2.0042446E0,9.6370935E-1,2.4744384E0,1.4802115E0,1.0039403E0,1.8167188E0,1.8863201E0,2.2691073E0,1.2430816E0,2.2452784E0,9.798856E-1,5.1414114E-1,1.8328108E0,1.2461872E0,0E0,0E0,0E0,0E0,0E0,0E0,0E0,0E0,0E0,0E0,0E0,0E0,0E0,0E0,0E0,0E0],"parents":[2147483647,0,0,1,1,2,2,3,3,4,4,5,5,6,6,7,7,8,8,9,9,10,10,11,11,12,12,13,13,14,14],"right_children":[2,4,6,8,10,12,14,16,18,20,22,24,26,28,30,-1,-1,-1,-1,-1,-1,-1,-1,-1,-1,-1,-1,-1,-1,-1,-1],"split_conditions":[6.470419E1,5.9049E-1,-1.9567092E-1,1.0433429E-2,1.9111111E0,1.8152705E-1,-3.5E0,2.4475524E-1,3.7548825E-2,-1.3221463E0,-1.05E2,-7.8821975E-1,-1E1,-1.5643252E-1,1.2186753E2,1.8326258E-3,-1.9014318E-2,-1.7448285E-3,-1.3550987E-2,-5.106039E-6,-5.6078597E-3,-1.1556496E-2,4.1217087E-3,1.2031412E-3,1.55559825E-2,-2.1188183E-2,1.13716675E-2,1.0906513E-3,-2.4079038E-2,1.3424361E-3,6.008073E-3],"split_indices":[1,36,18,33,13,35,2,27,29,22,5,34,3,34,1,0,0,0,0,0,0,0,0,0,0,0,0,0,0,0,0],"split_type":[0,0,0,0,0,0,0,0,0,0,0,0,0,0,0,0,0,0,0,0,0,0,0,0,0,0,0,0,0,0,0],"sum_hessian":[2.489E3,1.826E3,6.63E2,1.112E3,7.14E2,6.1E1,6.02E2,8.42E2,2.7E2,5.64E2,1.5E2,5.7E1,4E0,2.9E1,5.73E2,8.32E2,1E1,2.21E2,4.9E1,1.28E2,4.36E2,2.7E1,1.23E2,1.7E1,4E1,3E0,1E0,1.8E1,1.1E1,2.85E2,2.88E2],"tree_param":{"num_deleted":"0","num_feature":"37","num_nodes":"31","size_leaf_vector":"1"}},{"base_weights":[-3.388123E-3,-5.3278506E-2,3.6887784E-2,-3.1073492E-2,-1.4433989E-1,-7.918882E-2,4.9913734E-2,4.9438603E-2,-5.9975106E-2,-2.0190738E-1,-1.2189921E-2,3.191022E-1,-1.1649282E-1,-2.1605363E-2,5.3056803E-2,1.298556E-3,1.9438399E-2,-4.4745514E-3,6.4435215E-3,-1.2029513E-2,2.266527E-3,1.0084899E-2,-6.185896E-3,1.9570513E-2,-1.1907163E-2,-7.465638E-3,1.3957493E-2,-1.9444447E-3,3.359609E-3],"categories":[],"categories_nodes":[],"categories_segments":[],"categories_sizes":[],"default_left":[0,0,0,0,0,0,0,0,0,0,0,0,0,0,0,0,0,0,0,0,0,0,0,0,0,0,0,0,0],"id":26,"left_children":[1,3,5,7,9,11,13,15,17,19,21,23,25,-1,27,-1,-1,-1,-1,-1,-1,-1,-1,-1,-1,-1,-1,-1,-1],"loss_changes":[4.91691E0,2.2055821E0,2.0512118E0,2.0506632E0,1.6255531E0,2.0726984E0,1.8682256E0,1.8453306E0,3.623452E0,1.4359221E0,1.59935E0,5.767317E-1,1.6777871E0,0E0,1.5765338E0,0E0,0E0,0E0,0E0,0E0,0E0,0E0,0E0,0E0,0E0,0E0,0E0,0E0,0E0],"parents":[2147483647,0,0,1,1,2,2,3,3,4,4,5,5,6,6,7,7,8,8,9,9,10,10,11,11,12,12,14,14],"right_children":[2,4,6,8,10,12,14,16,18,20,22,24,26,-1,28,-1,-1,-1,-1,-1,-1,-1,-1,-1,-1,-1,-1,-1,-1],"split_conditions":[-1.5459258E1,2.727621E-1,-2.5800436E0,3.4867844E-1,4.4356513E0,-1.3666667E1,-2.653846E-1,1.19666664E2,1.4920246E-2,8.1E-1,7.2E-1,1.3162246E0,1.9977157E0,-2.1605363E-2,-1.4842434E-2,1.298556E-3,1.9438399E-2,-4.4745514E-3,6.4435215E-3,-1.2029513E-2,2.266527E-3,1.0084899E-2,-6.185896E-3,1.9570513E-2,-1.1907163E-2,-7.465638E-3,1.3957493E-2,-1.9444447E-3,3.359609E-3],"split_indices":[1,21,19,36,7,2,25,5,17,36,10,22,22,0,17,0,0,0,0,0,0,0,0,0,0,0,0,0,0],"split_type":[0,0,0,0,0,0,0,0,0,0,0,0,0,0,0,0,0,0,0,0,0,0,0,0,0,0,0,0,0],"sum_hessian":[2.445E3,1.092E3,1.353E3,8.79E2,2.13E2,1.36E2,1.217E3,2.32E2,6.47E2,1.48E2,6.5E1,1.1E1,1.25E2,7E0,1.21E3,2.18E2,1.4E1,5.6E2,8.7E1,1.28E2,2E1,2.2E1,4.3E1,1E1,1E0,1.16E2,9E0,1.61E2,1.049E3],"tree_param":{"num_deleted":"0","num_feature":"37","num_nodes":"29","size_leaf_vector":"1"}},{"base_weights":[9.877903E-6,-8.8330045E-2,2.2571348E-2,-2.812801E-1,-6.992204E-2,6.9025704E-3,9.4111994E-2,-3.418207E-1,-6.8583734E-2,-7.699367E-2,1.7227644E-2,-7.7712564E-3,5.968423E-2,-1.7294747E-1,1.14680864E-1,-3.4487632E-3,-1.8300004E-2,1.3716364E-2,-1.5186125E-2,7.2001033E-3,-4.4224416E-3,1.900252E-2,-5.8690447E-4,7.095025E-3,-5.6406175E-4,5.135035E-3,-2.0827655E-2,-2.158174E-2,6.0477676E-3],"categories":[],"categories_nodes":[],"categories_segments":[],"categories_sizes":[],"default_left":[0,0,0,0,0,0,0,0,0,0,0,0,0,0,0,0,0,0,0,0,0,0,0,0,0,0,0,0,0],"id":27,"left_children":[1,3,5,7,9,11,13,15,17,19,-1,21,23,25,27,-1,-1,-1,-1,-1,-1,-1,-1,-1,-1,-1,-1,-1,-1],"loss_changes":[4.986683E0,1.7882123E0,2.2334127E0,5.431342E-1,1.39238E0,1.2675604E0,1.986367E0,1.9906068E-1,9.7026765E-1,1.174715E0,0E0,1.9751812E0,2.0786881E0,1.7886657E0,1.1936836E0,0E0,0E0,0E0,0E0,0E0,0E0,0E0,0E0,0E0,0E0,0E0,0E0,0E0,0E0],"parents":[2147483647,0,0,1,1,2,2,3,3,4,4,5,5,6,6,7,7,8,8,9,9,11,11,12,12,13,13,14,14],"right_children":[2,4,6,8,10,12,14,16,18,20,-1,22,24,26,28,-1,-1,-1,-1,-1,-1,-1,-1,-1,-1,-1,-1,-1,-1],"split_conditions":[-9.469864E1,-4.2225194E-1,1.1547276E2,1.2376549E-2,9.911168E-1,6.028561E0,-1.5212108E-2,-1.988294E-1,2.3318303E-1,-2.9756239E-2,1.7227644E-2,-2E0,1.8659163E0,5.9049E-1,-1.2222222E0,-3.4487632E-3,-1.8300004E-2,1.3716364E-2,-1.5186125E-2,7.2001033E-3,-4.4224416E-3,1.900252E-2,-5.8690447E-4,7.095025E-3,-5.6406175E-4,5.135035E-3,-2.0827655E-2,-2.158174E-2,6.0477676E-3],"split_indices":[1,31,1,33,34,7,17,21,21,17,0,11,30,36,6,0,0,0,0,0,0,0,0,0,0,0,0,0,0],"split_type":[0,0,0,0,0,0,0,0,0,0,0,0,0,0,0,0,0,0,0,0,0,0,0,0,0,0,0,0,0],"sum_hessian":[2.5E3,5.08E2,1.992E3,4.3E1,4.65E2,1.635E3,3.57E2,3.3E1,1E1,4.58E2,7E0,1.28E3,3.55E2,2.5E1,3.32E2,3E0,3E1,4E0,6E0,2.2E1,4.36E2,1.2E1,1.268E3,1.64E2,1.91E2,1.2E1,1.3E1,3E0,3.29E2],"tree_param":{"num_deleted":"0","num_feature":"37","num_nodes":"29","size_leaf_vector":"1"}},{"base_weights":[-2.6105046E-3,-5.0351556E-2,3.3307575E-2,3.2325275E-2,-7.627315E-2,-2.121309E-2,3.6231566E-2,1.1017124E-2,2.1242952E-2,-1.3244687E-1,-4.6714753E-2,-6.2896786E-3,5.99405E-2,-1.15584135E-2,1.88146E-3,-9.029992E-3,-1.1701253E-3,8.921376E-3,-3.3500944E-3,-1.7398021E-3,7.4374313E-3,2.0989007E-3,6.638554E-3],"categories":[],"categories_nodes":[],"categories_segments":[],"categories_sizes":[],"default_left":[0,0,0,0,0,0,0,0,0,0,0,0,0,0,0,0,0,0,0,0,0,0,0],"id":28,"left_children":[1,3,5,7,9,-1,11,13,-1,15,17,19,21,-1,-1,-1,-1,-1,-1,-1,-1,-1,-1],"loss_changes":[4.2217183E0,2.2677388E0,1.8951619E0,2.111454E0,1.3304391E0,0E0,1.4087392E0,1.5619571E0,0E0,1.4502473E0,2.4281573E0,2.2193844E0,1.1678984E0,0E0,0E0,0E0,0E0,0E0,0E0,0E0,0E0,0E0,0E0],"parents":[2147483647,0,0,1,1,2,2,3,3,4,4,6,6,7,7,9,9,10,10,11,11,12,12],"right_children":[2,4,6,8,10,-1,12,14,-1,16,18,20,22,-1,-1,-1,-1,-1,-1,-1,-1,-1,-1],"split_conditions":[-2.33307E1,-1.0488241E-2,-1.5192268E-2,-1.1243386E-2,-3.8890302E-2,-2.121309E-2,-1.256025E-4,-1.989011E-1,2.1242952E-2,2.0666666E-1,-7.6805554E-2,1.27E0,8.382375E-2,-1.15584135E-2,1.88146E-3,-9.029992E-3,-1.1701253E-3,8.921376E-3,-3.3500944E-3,-1.7398021E-3,7.4374313E-3,2.0989007E-3,6.638554E-3],"split_indices":[1,33,30,33,27,0,17,25,0,9,20,9,21,0,0,0,0,0,0,0,0,0,0],"split_type":[0,0,0,0,0,0,0,0,0,0,0,0,0,0,0,0,0,0,0,0,0,0,0],"sum_hessian":[2.46E3,1.056E3,1.404E3,2.52E2,8.04E2,8E0,1.396E3,2.4E2,1.2E1,2.76E2,5.28E2,5E2,8.96E2,2.3E1,2.17E2,1.91E2,8.5E1,4.3E1,4.85E2,4.23E2,7.7E1,7.2E2,1.76E2],"tree_param":{"num_deleted":"0","num_feature":"37","num_nodes":"23","size_leaf_vector":"1"}},{"base_weights":[-4.737748E-3,-5.847463E-2,2.0318925E-2,2.8519773E-1,-6.506792E-2,-3.0143723E-1,2.4162427E-2,-1.4476152E-2,2.2650242E-2,3.3530205E-1,-6.9693096E-2,1.0206534E-1,-2.2137124E-2,9.331095E-3,9.707635E-2,2.1521172E-2,-1.0641722E-2,-2.302325E-3,-7.3707523E-3,-1.394504E-2,1.811368E-2,6.1499267E-3,-2.999672E-4,5.947146E-3,-1.8227147E-2],"categories":[],"categories_nodes":[],"categories_segments":[],"categories_sizes":[],"default_left":[0,0,0,0,0,0,0,0,0,0,0,0,0,0,0,0,0,0,0,0,0,0,0,0,0],"id":29,"left_children":[1,3,5,7,9,11,13,-1,-1,15,17,19,-1,21,23,-1,-1,-1,-1,-1,-1,-1,-1,-1,-1],"loss_changes":[3.332349E0,1.8018444E0,2.0947828E0,1.5777887E0,1.4547963E0,1.185529E0,1.8039683E0,0E0,0E0,5.6086445E-1,1.3991749E0,6.9582164E-1,0E0,2.4194274E0,2.8898764E0,0E0,0E0,0E0,0E0,0E0,0E0,0E0,0E0,0E0,0E0],"parents":[2147483647,0,0,1,1,2,2,3,3,4,4,5,5,6,6,9,9,10,10,11,11,13,13,14,14],"right_children":[2,4,6,8,10,12,14,-1,-1,16,18,20,-1,22,24,-1,-1,-1,-1,-1,-1,-1,-1,-1,-1],"split_conditions":[-5.1839657E1,-1.10468395E-1,-2.653846E-1,-1E0,-8.055556E-1,-1.2766666E0,1.2518674E-1,-1.4476152E-2,2.2650242E-2,8.4666664E1,2.4057844E-1,-6.55E1,-2.2137124E-2,-1.1766666E0,1.5E0,2.1521172E-2,-1.0641722E-2,-2.302325E-3,-7.3707523E-3,-1.394504E-2,1.811368E-2,6.1499267E-3,-2.999672E-4,5.947146E-3,-1.8227147E-2],"split_indices":[1,29,25,24,28,9,25,0,0,5,21,5,0,10,11,0,0,0,0,0,0,0,0,0,0],"split_type":[0,0,0,0,0,0,0,0,0,0,0,0,0,0,0,0,0,0,0,0,0,0,0,0,0],"sum_hessian":[2.473E3,7.86E2,1.687E3,1.4E1,7.72E2,1.9E1,1.668E3,3E0,1.1E1,8E0,7.64E2,5E0,1.4E1,1.387E3,2.81E2,7E0,1E0,5.87E2,1.77E2,2E0,3E0,1.64E2,1.223E3,2.69E2,1.2E1],"tree_param":{"num_deleted":"0","num_feature":"37","num_nodes":"25","size_leaf_vector":"1"}},{"base_weights":[-4.479814E-3,-3.0539764E-2,4.055075E-2,3.0095246E-1,-3.306527E-2,1.0202539E-2,7.844208E-2,-1.4478396E-2,1.9048026E-2,-3.589489E-2,2.6134437E-1,1.5572493E-1,-1.0422434E-2,1.392583E-1,3.430142E-2,-1.5557751E-3,-1.1794887E-2,1.9216744E-2,-3.075181E-3,1.4849446E-2,9.151726E-4,-7.6894495E-3,1.4205086E-3,8.497017E-3,-8.333892E-3,-6.687008E-4,7.154061E-3],"categories":[],"categories_nodes":[],"categories_segments":[],"categories_sizes":[],"default_left":[0,0,0,0,0,0,0,0,0,0,0,0,0,0,0,0,0,0,0,0,0,0,0,0,0,0,0],"id":30,"left_children":[1,3,5,7,9,11,13,-1,-1,15,17,19,21,23,25,-1,-1,-1,-1,-1,-1,-1,-1,-1,-1,-1,-1],"loss_changes":[2.916198E0,1.3276817E0,1.0467895E0,6.772703E-1,1.3114644E0,1.5233305E0,1.082433E0,0E0,0E0,1.473336E0,6.192466E-1,1.2175645E0,2.4818163E0,1.624073E0,1.2258388E0,0E0,0E0,0E0,0E0,0E0,0E0,0E0,0E0,0E0,0E0,0E0,0E0],"parents":[2147483647,0,0,1,1,2,2,3,3,4,4,5,5,6,6,9,9,10,10,11,11,12,12,13,13,14,14],"right_children":[2,4,6,8,10,12,14,-1,-1,16,18,20,22,24,26,-1,-1,-1,-1,-1,-1,-1,-1,-1,-1,-1,-1],"split_conditions":[3.6421486E1,-4.020598E-2,2.8E1,-1.5E0,1.4333333E-1,-1.1233333E0,-2.0357129E-1,-1.4478396E-2,1.9048026E-2,1.8E1,3.3333334E-1,7.867719E-2,-5.3333336E-1,1.5333333E1,1.3411997E-1,-1.5557751E-3,-1.1794887E-2,1.9216744E-2,-3.075181E-3,1.4849446E-2,9.151726E-4,-7.6894495E-3,1.4205086E-3,8.497017E-3,-8.333892E-3,-6.687008E-4,7.154061E-3],"split_indices":[1,16,4,12,20,10,31,0,0,3,15,35,10,2,35,0,0,0,0,0,0,0,0,0,0,0,0],"split_type":[0,0,0,0,0,0,0,0,0,0,0,0,0,0,0,0,0,0,0,0,0,0,0,0,0,0,0],"sum_hessian":[2.483E3,1.573E3,9.1E2,1.1E1,1.562E3,5.06E2,4.04E2,1E0,1E1,1.548E3,1.4E1,6.2E1,4.44E2,1.69E2,2.35E2,1.513E3,3.5E1,1E1,4E0,3E1,3.2E1,9.4E1,3.5E2,1.54E2,1.5E1,1.64E2,7.1E1],"tree_param":{"num_deleted":"0","num_feature":"37","num_nodes":"27","size_leaf_vector":"1"}},{"base_weights":[-1.2589375E-3,-6.09324E-2,2.2799317E-2,2.5055906E-2,-6.47938E-2,2.7883954E-2,-1.6484371E-1,3.2431322E-1,-6.9676146E-2,-3.3843073E-1,3.0639604E-2,-2.3035906E-1,1.2121908E-2,2.0826815E-2,-1.0336785E-2,-7.676276E-3,-2.3825837E-3,1.2409029E-2,-2.0399837E-2,-1.4115068E-2,1.6688192E-3,-1.5821269E-2,8.210881E-3],"categories":[],"categories_nodes":[],"categories_segments":[],"categories_sizes":[],"default_left":[0,0,0,0,0,0,0,0,0,0,0,0,0,0,0,0,0,0,0,0,0,0,0],"id":31,"left_children":[1,3,5,-1,7,9,11,13,15,17,19,21,-1,-1,-1,-1,-1,-1,-1,-1,-1,-1,-1],"loss_changes":[3.5775669E0,1.5864074E0,1.6990725E0,0E0,1.3752215E0,1.7566922E0,1.309959E0,5.2688754E-1,1.2927885E0,6.317636E-1,1.4808053E0,1.4443126E0,0E0,0E0,0E0,0E0,0E0,0E0,0E0,0E0,0E0,0E0,0E0],"parents":[2147483647,0,0,1,1,2,2,4,4,5,5,6,6,7,7,8,8,9,9,10,10,11,11],"right_children":[2,4,6,-1,8,10,12,14,16,18,20,22,-1,-1,-1,-1,-1,-1,-1,-1,-1,-1,-1],"split_conditions":[-6.2046276E1,-6.5904427E0,2.4475524E-1,2.5055906E-2,-8.055556E-1,-1.5192268E-2,1.4137177E0,1.2033334E0,-9.4333336E1,-5.773669E1,-4.8423383E-1,3.6666667E-1,1.2121908E-2,2.0826815E-2,-1.0336785E-2,-7.676276E-3,-2.3825837E-3,1.2409029E-2,-2.0399837E-2,-1.4115068E-2,1.6688192E-3,-1.5821269E-2,8.210881E-3],"split_indices":[1,19,27,0,28,30,19,10,4,1,31,32,0,0,0,0,0,0,0,0,0,0,0],"split_type":[0,0,0,0,0,0,0,0,0,0,0,0,0,0,0,0,0,0,0,0,0,0,0],"sum_hessian":[2.49E3,7.15E2,1.775E3,4E0,7.11E2,1.729E3,4.6E1,8E0,7.03E2,1.2E1,1.717E3,4E1,6E0,7E0,1E0,1.45E2,5.58E2,1E0,1.1E1,1.4E1,1.703E3,3.3E1,7E0],"tree_param":{"num_deleted":"0","num_feature":"37","num_nodes":"23","size_leaf_vector":"1"}},{"base_weights":[-6.997497E-3,-7.176919E-2,9.704259E-3,-1.7720854E-1,-4.2224646E-2,1.4194906E-2,-1.6526239E-1,-2.0647998E-1,1.8228829E-2,3.236493E-2,-1.3617934E-1,-5.21517E-3,5.4882605E-2,-2.8854352E-1,2.3889977E-1,1.3833635E-2,-1.1927832E-2,-8.2294625E-4,1.2355751E-2,-8.68937E-3,1.3827953E-2,4.997397E-4,-5.2829864E-3,-6.3013523E-3,3.3330494E-3,-1.7848527E-2,6.794784E-3,-1.53122395E-2,1.8927658E-2],"categories":[],"categories_nodes":[],"categories_segments":[],"categories_sizes":[],"default_left":[0,0,0,0,0,0,0,0,0,0,0,0,0,0,0,0,0,0,0,0,0,0,0,0,0,0,0,0,0],"id":32,"left_children":[1,3,5,7,9,11,13,15,-1,17,19,21,23,25,27,-1,-1,-1,-1,-1,-1,-1,-1,-1,-1,-1,-1,-1,-1],"loss_changes":[2.6597636E0,1.562557E0,1.5384152E0,1.8197498E0,2.772584E0,1.5063419E0,2.5103862E0,1.693284E0,0E0,2.3212361E0,2.7644627E0,1.9749196E0,1.3209884E0,1.1521492E0,1.0295055E0,0E0,0E0,0E0,0E0,0E0,0E0,0E0,0E0,0E0,0E0,0E0,0E0,0E0,0E0],"parents":[2147483647,0,0,1,1,2,2,3,3,4,4,5,5,6,6,7,7,9,9,10,10,11,11,12,12,13,13,14,14],"right_children":[2,4,6,8,10,12,14,16,-1,18,20,22,24,26,28,-1,-1,-1,-1,-1,-1,-1,-1,-1,-1,-1,-1,-1,-1],"split_conditions":[-9.469864E1,-1.5E0,2.4475524E-1,1.7916447E-1,7.3333335E0,2.3948288E-2,3.6666667E-1,-1.6905652E-2,1.8228829E-2,2.888889E-1,8.6905375E-2,8.055556E-3,-1.1356209E-1,-1.2333333E1,-2.3333333E0,1.3833635E-2,-1.1927832E-2,-8.2294625E-4,1.2355751E-2,-8.68937E-3,1.3827953E-2,4.997397E-4,-5.2829864E-3,-6.3013523E-3,3.3330494E-3,-1.7848527E-2,6.794784E-3,-1.53122395E-2,1.8927658E-2],"split_indices":[1,3,27,18,3,20,32,33,0,32,27,20,25,5,15,0,0,0,0,0,0,0,0,0,0,0,0,0,0],"split_type":[0,0,0,0,0,0,0,0,0,0,0,0,0,0,0,0,0,0,0,0,0,0,0,0,0,0,0,0,0],"sum_hessian":[2.457E3,5.03E2,1.954E3,1.09E2,3.94E2,1.906E3,4.8E1,1.04E2,5E0,2.2E2,1.74E2,1.291E3,6.15E2,3.7E1,1.1E1,6E0,9.8E1,1.8E2,4E1,1.6E2,1.4E1,1.122E3,1.69E2,3.7E1,5.78E2,3.2E1,5E0,2E0,9E0],"tree_param":{"num_deleted":"0","num_feature":"37","num_nodes":"29","size_leaf_vector":"1"}},{"base_weights":[2.5486248E-4,-1.2100548E-2,9.406989E-2,-5.329751E-2,8.157472E-3,-2.092178E-2,1.0088505E-1,-7.580626E-2,5.987276E-2,1.2346892E-2,-2.9765913E-1,2.1771692E-1,6.9045275E-2,-6.707232E-3,-4.59486E-4,6.1186347E-3,-5.8889664E-3,3.429904E-4,8.179568E-3,1.3213416E-2,-2.06184E-2,1.1676429E-2,-1.8274551E-2,5.3090774E-3,-3.5827092E-3],"categories":[],"categories_nodes":[],"categories_segments":[],"categories_sizes":[],"default_left":[0,0,0,0,0,0,0,0,0,0,0,0,0,0,0,0,0,0,0,0,0,0,0,0,0],"id":33,"left_children":[1,3,5,7,9,-1,11,13,15,17,19,21,23,-1,-1,-1,-1,-1,-1,-1,-1,-1,-1,-1,-1],"loss_changes":[2.8885138E0,1.8381553E0,1.0551286E0,1.8538942E0,1.8959988E0,0E0,1.0525787E0,2.3538654E0,1.3579056E0,1.208859E0,1.398137E0,6.478629E-1,1.1936957E0,0E0,0E0,0E0,0E0,0E0,0E0,0E0,0E0,0E0,0E0,0E0,0E0],"parents":[2147483647,0,0,1,1,2,2,3,3,4,4,6,6,7,7,8,8,9,9,10,10,11,11,12,12],"right_children":[2,4,6,8,10,-1,12,14,16,18,20,22,24,-1,-1,-1,-1,-1,-1,-1,-1,-1,-1,-1,-1],"split_conditions":[1.0396345E0,-8.3333336E-2,-7.222222E-1,5.4666668E1,4.3165496E-1,-2.092178E-2,2.6091352E-1,1.0414423E-3,1.6023583E0,1.27E0,-7.4166665E0,2.4475524E-1,5E-1,-6.707232E-3,-4.59486E-4,6.1186347E-3,-5.8889664E-3,3.429904E-4,8.179568E-3,1.3213416E-2,-2.06184E-2,1.1676429E-2,-1.8274551E-2,5.3090774E-3,-3.5827092E-3],"split_indices":[6,26,26,4,18,0,18,17,22,9,13,27,24,0,0,0,0,0,0,0,0,0,0,0,0],"split_type":[0,0,0,0,0,0,0,0,0,0,0,0,0,0,0,0,0,0,0,0,0,0,0,0,0],"sum_hessian":[2.49E3,2.201E3,2.89E2,7.25E2,1.476E3,3E0,2.86E2,6.05E2,1.2E2,1.457E3,1.9E1,6E1,2.26E2,3.22E2,2.83E2,8.9E1,3.1E1,1.407E3,5E1,3E0,1.6E1,5.9E1,1E0,1.79E2,4.7E1],"tree_param":{"num_deleted":"0","num_feature":"37","num_nodes":"25","size_leaf_vector":"1"}},{"base_weights":[-1.3922717E-3,-3.241567E-1,1.3692131E-3,-1.8718181E-2,1.018726E-1,-2.0935991E-1,4.4151237E-3,-8.57385E-3,1.6214294E-2,-3.058233E-1,3.0785033E-1,5.207672E-2,-9.722424E-3,-1.688633E-2,1.5484306E-2,-9.979645E-3,2.2462878E-2,2.9420804E-3,-1.8205648E-2,-4.7642086E-3,7.905704E-5],"categories":[],"categories_nodes":[],"categories_segments":[],"categories_sizes":[],"default_left":[0,0,0,0,0,0,0,0,0,0,0,0,0,0,0,0,0,0,0,0,0],"id":34,"left_children":[1,3,5,-1,7,9,11,-1,-1,13,15,17,19,-1,-1,-1,-1,-1,-1,-1,-1],"loss_changes":[2.2064335E0,4.8731947E-1,1.5766959E0,0E0,2.3799731E-1,1.8403624E0,1.6318197E0,0E0,0E0,6.936927E-1,5.202053E-1,1.5812E0,1.806792E0,0E0,0E0,0E0,0E0,0E0,0E0,0E0,0E0],"parents":[2147483647,0,0,1,1,2,2,4,4,5,5,6,6,9,9,10,10,11,11,12,12],"right_children":[2,4,6,-1,8,10,12,-1,-1,14,16,18,20,-1,-1,-1,-1,-1,-1,-1,-1],"split_conditions":[-1.5192268E-2,1.3581523E-1,-4.971001E-1,-1.8718181E-2,-2.2E1,1.7914472E-2,-1.0488241E-2,-8.57385E-3,1.6214294E-2,3.3333334E-1,-1.3333334E0,2.2028726E-2,-1.2566667E0,-1.688633E-2,1.5484306E-2,-9.979645E-3,2.2462878E-2,2.9420804E-3,-1.8205648E-2,-4.7642086E-3,7.905704E-5],"split_indices":[30,35,31,0,2,33,33,0,0,23,11,16,9,0,0,0,0,0,0,0,0],"split_type":[0,0,0,0,0,0,0,0,0,0,0,0,0,0,0,0,0,0,0,0,0],"sum_hessian":[2.474E3,2E1,2.454E3,1.8E1,2E0,3.4E1,2.42E3,1E0,1E0,2.9E1,5E0,5.53E2,1.867E3,2.8E1,1E0,1E0,4E0,5.45E2,8E0,2.17E2,1.65E3],"tree_param":{"num_deleted":"0","num_feature":"37","num_nodes":"21","size_leaf_vector":"1"}},{"base_weights":[5.2199382E-3,-4.381352E-2,2.8349122E-2,2.5301728E-1,-4.940825E-2,1.18442126E-1,1.7866964E-2,3.582404E-1,-1.4364439E-2,-1.3453785E-1,-3.0164152E-2,1.9605398E-2,1.926202E-1,-7.912739E-2,2.7967846E-2,2.1049969E-2,-9.871682E-3,1.740175E-2,-7.7129276E-3,-4.6772216E-3,4.494004E-4,-2.029848E-2,3.0643682E-3,3.1665016E-3,1.3479975E-2,1.3914905E-3,-1.0854277E-2,1.5975496E-2,1.1178592E-3],"categories":[],"categories_nodes":[],"categories_segments":[],"categories_sizes":[],"default_left":[0,0,0,0,0,0,0,0,0,0,0,0,0,0,0,0,0,0,0,0,0,0,0,0,0,0,0,0,0],"id":35,"left_children":[1,3,5,7,9,11,13,15,-1,17,19,21,23,25,27,-1,-1,-1,-1,-1,-1,-1,-1,-1,-1,-1,-1,-1,-1],"loss_changes":[2.837636E0,1.3443732E0,1.6033114E0,9.557089E-1,1.2868768E0,1.2939022E0,1.4953196E0,5.364752E-1,0E0,1.4336057E0,1.5989106E0,1.3907685E0,9.881456E-1,2.1308503E0,2.25182E0,0E0,0E0,0E0,0E0,0E0,0E0,0E0,0E0,0E0,0E0,0E0,0E0,0E0,0E0],"parents":[2147483647,0,0,1,1,2,2,3,3,4,4,5,5,6,6,7,7,9,9,10,10,11,11,12,12,13,13,14,14],"right_children":[2,4,6,8,10,12,14,16,-1,18,20,22,24,26,28,-1,-1,-1,-1,-1,-1,-1,-1,-1,-1,-1,-1,-1,-1],"split_conditions":[-5.1839657E1,-7.5E-1,-1.24E0,4.1154772E-1,-1.2566667E0,-1E-1,-2.5133753E0,1.8266667E0,-1.4364439E-2,-6.5904427E0,-4.9928773E-2,-3.4230058E0,-3.9040598E-3,-3.234379E0,-9.7666664E1,2.1049969E-2,-9.871682E-3,1.740175E-2,-7.7129276E-3,-4.6772216E-3,4.494004E-4,-2.029848E-2,3.0643682E-3,3.1665016E-3,1.3479975E-2,1.3914905E-3,-1.0854277E-2,1.5975496E-2,1.1178592E-3],"split_indices":[1,28,10,21,9,26,19,10,0,19,27,19,33,19,4,0,0,0,0,0,0,0,0,0,0,0,0,0,0],"split_type":[0,0,0,0,0,0,0,0,0,0,0,0,0,0,0,0,0,0,0,0,0,0,0,0,0,0,0,0,0],"sum_hessian":[2.5E3,8.01E2,1.699E3,1.4E1,7.87E2,1.76E2,1.523E3,1.2E1,2E0,1.44E2,6.43E2,7.6E1,1E2,1.43E2,1.38E3,1.1E1,1E0,5E0,1.39E2,2.45E2,3.98E2,6E0,7E1,3.8E1,6.2E1,8.1E1,6.2E1,2.5E1,1.355E3],"tree_param":{"num_deleted":"0","num_feature":"37","num_nodes":"29","size_leaf_vector":"1"}},{"base_weights":[3.8413054E-5,-6.730706E-2,1.9806292E-2,1.9675331E-2,-7.134454E-2,-6.9672465E-3,6.0994655E-2,-1.2705763E-1,-3.1989805E-2,2.1321107E-2,-5.3536218E-2,2.4769212E-1,4.9833227E-2,-7.473809E-3,6.4296797E-3,-1.459418E-2,-4.7171136E-4,-1.2115643E-3,4.805136E-3,3.0643863E-3,-4.553323E-3,1.4392065E-2,-1.8509708E-2,-1.3781167E-2,2.76825E-3],"categories":[],"categories_nodes":[],"categories_segments":[],"categories_sizes":[],"default_left":[0,0,0,0,0,0,0,0,0,0,0,0,0,0,0,0,0,0,0,0,0,0,0,0,0],"id":36,"left_children":[1,3,5,-1,7,9,11,13,15,17,19,21,23,-1,-1,-1,-1,-1,-1,-1,-1,-1,-1,-1,-1],"loss_changes":[3.2736123E0,1.0662467E0,2.0967684E0,0E0,1.2106218E0,1.5200571E0,1.54843E0,1.3316965E0,1.9082761E0,2.4481823E0,1.8844669E0,1.1484776E0,1.2899089E0,0E0,0E0,0E0,0E0,0E0,0E0,0E0,0E0,0E0,0E0,0E0,0E0],"parents":[2147483647,0,0,1,1,2,2,4,4,5,5,6,6,7,7,8,8,9,9,10,10,11,11,12,12],"right_children":[2,4,6,-1,8,10,12,14,16,18,20,22,24,-1,-1,-1,-1,-1,-1,-1,-1,-1,-1,-1,-1],"split_conditions":[-8.794042E1,-8.333333E-1,1.4854872E-1,1.9675331E-2,-6E-1,5.316924E-3,-5.3333335E-2,1.3333334E0,-2.1152551E-1,3.1703825E1,-2.5441837E-1,1.843223E-1,-6.8333334E-1,-7.473809E-3,6.4296797E-3,-1.459418E-2,-4.7171136E-4,-1.2115643E-3,4.805136E-3,3.0643863E-3,-4.553323E-3,1.4392065E-2,-1.8509708E-2,-1.3781167E-2,2.76825E-3],"split_indices":[1,28,34,0,9,35,9,12,27,1,18,27,26,0,0,0,0,0,0,0,0,0,0,0,0],"split_type":[0,0,0,0,0,0,0,0,0,0,0,0,0,0,0,0,0,0,0,0,0,0,0,0,0],"sum_hessian":[2.457E3,5.57E2,1.9E3,4E0,5.53E2,1.152E3,7.48E2,2.28E2,3.25E2,7.17E2,4.35E2,4.1E1,7.07E2,2.1E2,1.8E1,2.5E1,3E2,4.46E2,2.71E2,1.07E2,3.28E2,3.9E1,2E0,1.1E1,6.96E2],"tree_param":{"num_deleted":"0","num_feature":"37","num_nodes":"25","size_leaf_vector":"1"}},{"base_weights":[2.372189E-3,-4.362101E-2,1.9932372E-2,-1.4535014E-1,-1.8846873E-2,1.6616087E-2,2.4480069E-1,2.6071554E-1,-1.6642131E-1,-4.55824E-2,7.2846346E-2,2.087067E-2,-1.72648E-1,-9.098353E-2,2.765737E-1,-9.721575E-3,2.4083033E-2,-1.5185676E-2,-4.2849956E-3,1.9413657E-2,-2.6335518E-3,6.987872E-3,-9.3652895E-3,1.4221412E-2,8.8118465E-4,1.270389E-2,-1.1433802E-2,-1.3422313E-2,6.5985485E-3,1.5160309E-2,9.270397E-3],"categories":[],"categories_nodes":[],"categories_segments":[],"categories_sizes":[],"default_left":[0,0,0,0,0,0,0,0,0,0,0,0,0,0,0,0,0,0,0,0,0,0,0,0,0,0,0,0,0,0,0],"id":37,"left_children":[1,3,5,7,9,11,13,15,17,19,21,23,25,27,29,-1,-1,-1,-1,-1,-1,-1,-1,-1,-1,-1,-1,-1,-1,-1,-1],"loss_changes":[2.0022237E0,1.7236328E0,1.3337674E0,1.1899297E0,1.3565301E0,1.4280725E0,3.0255425E-1,7.975875E-1,1.3925211E0,1.3367417E0,2.2020597E0,1.4763178E0,9.9053705E-1,1.5412547E-1,2.054572E-3,0E0,0E0,0E0,0E0,0E0,0E0,0E0,0E0,0E0,0E0,0E0,0E0,0E0,0E0,0E0,0E0],"parents":[2147483647,0,0,1,1,2,2,3,3,4,4,5,5,6,6,7,7,8,8,9,9,10,10,11,11,12,12,13,13,14,14],"right_children":[2,4,6,8,10,12,14,16,18,20,22,24,26,28,30,-1,-1,-1,-1,-1,-1,-1,-1,-1,-1,-1,-1,-1,-1,-1,-1],"split_conditions":[-6.33938E1,-2E0,5.284898E0,-6.75E0,2.8857143E0,1.4333333E1,-1.7548189E-2,-1.5973064E0,1.2439521E-2,-8.055556E-1,9.35E1,-1.575E2,-9.400168E0,-1.1360494E1,1.0577198E2,-9.721575E-3,2.4083033E-2,-1.5185676E-2,-4.2849956E-3,1.9413657E-2,-2.6335518E-3,6.987872E-3,-9.3652895E-3,1.4221412E-2,8.8118465E-4,1.270389E-2,-1.1433802E-2,-1.3422313E-2,6.5985485E-3,1.5160309E-2,9.270397E-3],"split_indices":[1,3,19,13,7,3,33,6,27,28,5,4,7,1,1,0,0,0,0,0,0,0,0,0,0,0,0,0,0,0,0],"split_type":[0,0,0,0,0,0,0,0,0,0,0,0,0,0,0,0,0,0,0,0,0,0,0,0,0,0,0,0,0,0,0],"sum_hessian":[2.477E3,6.84E2,1.793E3,1.33E2,5.51E2,1.768E3,2.5E1,6E0,1.27E2,4.27E2,1.24E2,1.73E3,3.8E1,2E0,2.3E1,2E0,4E0,4.6E1,8.1E1,6E0,4.21E2,9.9E1,2.5E1,2E1,1.71E3,4E0,3.4E1,1E0,1E0,1.6E1,7E0],"tree_param":{"num_deleted":"0","num_feature":"37","num_nodes":"31","size_leaf_vector":"1"}},{"base_weights":[-2.1101574E-3,-2.5825094E-2,3.8083002E-2,2.0074038E-2,-2.8025238E-2,4.757433E-2,-1.2016887E-1,-2.4529317E-2,-2.4812019E-1,5.2319296E-2,-2.6669797E-1,-4.025822E-1,-2.5380317E-2,1.8508008E-2,-1.343199E-3,1.7030094E-2,-1.7422123E-2,6.403754E-3,1.4877535E-3,-2.9638527E-2,4.873713E-3,-2.282643E-2,6.1193528E-3,-8.186663E-3,6.8076807E-3],"categories":[],"categories_nodes":[],"categories_segments":[],"categories_sizes":[],"default_left":[0,0,0,0,0,0,0,0,0,0,0,0,0,0,0,0,0,0,0,0,0,0,0,0,0],"id":38,"left_children":[1,3,5,-1,7,9,11,13,15,17,19,21,23,-1,-1,-1,-1,-1,-1,-1,-1,-1,-1,-1,-1],"loss_changes":[2.3477085E0,1.4675196E0,1.3785634E0,0E0,1.1803818E0,1.3008689E0,1.3817991E0,1.4096524E0,1.5361665E0,1.4508634E0,1.601485E0,4.2403555E-1,9.162405E-1,0E0,0E0,0E0,0E0,0E0,0E0,0E0,0E0,0E0,0E0,0E0,0E0],"parents":[2147483647,0,0,1,1,2,2,4,4,5,5,6,6,7,7,8,8,9,9,10,10,11,11,12,12],"right_children":[2,4,6,-1,8,10,12,14,16,18,20,22,24,-1,-1,-1,-1,-1,-1,-1,-1,-1,-1,-1,-1],"split_conditions":[3.6421486E1,-1.4108427E-1,2.0240642E-1,2.0074038E-2,3.3784054E1,8.455556E0,6.411938E1,-1.9666666E1,-1.6740508E-2,-5.1E1,7.727273E-2,4.588095E0,1.5758244E0,1.8508008E-2,-1.343199E-3,1.7030094E-2,-1.7422123E-2,6.403754E-3,1.4877535E-3,-2.9638527E-2,4.873713E-3,-2.282643E-2,6.1193528E-3,-8.186663E-3,6.8076807E-3],"split_indices":[1,29,27,0,1,13,1,3,17,5,27,7,30,0,0,0,0,0,0,0,0,0,0,0,0],"split_type":[0,0,0,0,0,0,0,0,0,0,0,0,0,0,0,0,0,0,0,0,0,0,0,0,0],"sum_hessian":[2.461E3,1.548E3,9.13E2,7E0,1.541E3,8.62E2,5.1E1,1.518E3,2.3E1,8.5E2,1.2E1,1.2E1,3.9E1,8E0,1.51E3,3E0,2E1,1.94E2,6.56E2,6E0,6E0,1.1E1,1E0,2.1E1,1.8E1],"tree_param":{"num_deleted":"0","num_feature":"37","num_nodes":"25","size_leaf_vector":"1"}},{"base_weights":[2.6424166E-3,-1.5603068E-2,4.2086683E-2,-7.5279693E-3,-1.2577538E-1,2.8546015E-2,1.9655949E-1,-6.282611E-2,9.049088E-3,6.586112E-2,-2.2905873E-1,1.0302332E-1,-1.7167144E-2,-2.2032817E-1,2.3771603E-1,1.6530521E-2,-3.6453789E-3,2.8098035E-3,-8.2863506E-4,-1.4897088E-2,7.602998E-3,-1.446366E-2,6.831474E-3,-1.0638902E-2,6.07061E-3,-9.152452E-3,1.246422E-4,-1.8113397E-2,1.223427E-2,-2.9557084E-3,1.4420964E-2],"categories":[],"categories_nodes":[],"categories_segments":[],"categories_sizes":[],"default_left":[0,0,0,0,0,0,0,0,0,0,0,0,0,0,0,0,0,0,0,0,0,0,0,0,0,0,0,0,0,0,0],"id":39,"left_children":[1,3,5,7,9,11,13,15,17,19,21,23,25,27,29,-1,-1,-1,-1,-1,-1,-1,-1,-1,-1,-1,-1,-1,-1,-1,-1],"loss_changes":[1.7271684E0,1.4589726E0,1.5819628E0,1.4030898E0,2.2318866E0,2.381579E0,1.0989923E0,1.424248E0,1.4239436E0,1.2996805E0,1.6469631E0,1.5705576E0,1.4158328E0,4.846652E-1,8.59864E-1,0E0,0E0,0E0,0E0,0E0,0E0,0E0,0E0,0E0,0E0,0E0,0E0,0E0,0E0,0E0,0E0],"parents":[2147483647,0,0,1,1,2,2,3,3,4,4,5,5,6,6,7,7,8,8,9,9,10,10,11,11,12,12,13,13,14,14],"right_children":[2,4,6,8,10,12,14,16,18,20,22,24,26,28,30,-1,-1,-1,-1,-1,-1,-1,-1,-1,-1,-1,-1,-1,-1,-1,-1],"split_conditions":[3.131217E0,6.9E-1,1.7914472E-2,-1.0166667E0,-2.9686192E-1,-9.592159E-3,-1.2240537E-2,-3.201101E-2,-5.866124E-1,-9.047796E-3,1.2186753E2,-2.04329E-1,-3.2149088E-1,-3.71044E1,-6.110034E-3,1.6530521E-2,-3.6453789E-3,2.8098035E-3,-8.2863506E-4,-1.4897088E-2,7.602998E-3,-1.446366E-2,6.831474E-3,-1.0638902E-2,6.07061E-3,-9.152452E-3,1.246422E-4,-1.8113397E-2,1.223427E-2,-2.9557084E-3,1.4420964E-2],"split_indices":[7,9,33,9,31,33,17,33,19,16,1,27,21,1,16,0,0,0,0,0,0,0,0,0,0,0,0,0,0,0,0],"split_type":[0,0,0,0,0,0,0,0,0,0,0,0,0,0,0,0,0,0,0,0,0,0,0,0,0,0,0,0,0,0,0],"sum_hessian":[2.398E3,1.64E3,7.58E2,1.529E3,1.11E2,6.98E2,6E1,3.52E2,1.177E3,3.9E1,7.2E1,2.65E2,4.33E2,5E0,5.5E1,8E0,3.44E2,4.14E2,7.63E2,7E0,3.2E1,6.2E1,1E1,1.4E1,2.51E2,4.5E1,3.88E2,4E0,1E0,8E0,4.7E1],"tree_param":{"num_deleted":"0","num_feature":"37","num_nodes":"31","size_leaf_vector":"1"}},{"base_weights":[2.3090844E-3,5.873039E-3,-1.4422154E-1,-2.6296095E-3,6.8254806E-2,-2.2850585E-1,1.979104E-1,1.819689E-2,-4.410086E-2,2.553141E-1,3.68008E-2,-2.7594677E-1,1.1259364E-2,-1.5020645E-2,3.2761636E-1,1.5928872E-3,-3.0957726E-3,-8.766906E-3,-1.049189E-3,-3.2602828E-3,1.3671148E-2,3.657854E-3,-5.734647E-3,-1.7460894E-2,-1.5523726E-3,1.7839992E-2,7.029414E-3],"categories":[],"categories_nodes":[],"categories_segments":[],"categories_sizes":[],"default_left":[0,0,0,0,0,0,0,0,0,0,0,0,0,0,0,0,0,0,0,0,0,0,0,0,0,0,0],"id":40,"left_children":[1,3,5,7,9,11,13,15,17,19,21,23,-1,-1,25,-1,-1,-1,-1,-1,-1,-1,-1,-1,-1,-1,-1],"loss_changes":[1.2756068E0,1.2646775E0,1.7177322E0,1.8137108E0,1.6733608E0,1.07375E0,8.740462E-1,1.5319479E0,2.126064E0,2.5580287E-1,1.3632967E0,7.607508E-1,0E0,0E0,4.419327E-3,0E0,0E0,0E0,0E0,0E0,0E0,0E0,0E0,0E0,0E0,0E0,0E0],"parents":[2147483647,0,0,1,1,2,2,3,3,4,4,5,5,6,6,7,7,8,8,9,9,10,10,11,11,14,14],"right_children":[2,4,6,8,10,12,14,16,18,20,22,24,-1,-1,26,-1,-1,-1,-1,-1,-1,-1,-1,-1,-1,-1,-1],"split_conditions":[2.4475524E-1,1.0100529E0,3.6666667E-1,1.6040904E-2,5.8070993E-1,2.5462455E-1,-2.3333333E0,8E0,3.4965035E-2,-5.555556E-1,5E-1,-4.3666668E1,1.1259364E-2,-1.5020645E-2,1.9522312E0,1.5928872E-3,-3.0957726E-3,-8.766906E-3,-1.049189E-3,-3.2602828E-3,1.3671148E-2,3.657854E-3,-5.734647E-3,-1.7460894E-2,-1.5523726E-3,1.7839992E-2,7.029414E-3],"split_indices":[27,6,32,25,34,25,15,3,25,32,24,5,0,0,30,0,0,0,0,0,0,0,0,0,0,0,0],"split_type":[0,0,0,0,0,0,0,0,0,0,0,0,0,0,0,0,0,0,0,0,0,0,0,0,0,0,0],"sum_hessian":[2.44E3,2.383E3,5.7E1,2.098E3,2.85E2,4.6E1,1.1E1,1.397E3,7.01E2,4E1,2.45E2,4.2E1,4E0,2E0,9E0,1.194E3,2.03E2,1.04E2,5.97E2,2E0,3.8E1,1.98E2,4.7E1,3.2E1,1E1,7E0,2E0],"tree_param":{"num_deleted":"0","num_feature":"37","num_nodes":"27","size_leaf_vector":"1"}},{"base_weights":[2.3077997E-4,-1.0375077E-2,6.338455E-2,-4.311719E-3,-1.4746752E-1,7.1186975E-2,-2.4695069E-2,-1.3620825E-3,-2.9832238E-1,1.24347866E-1,-2.0424561E-1,4.2494982E-2,2.0076497E-1,6.5429645E-5,-1.39590595E-2,-2.3480572E-2,4.343663E-3,1.8829234E-2,-1.268772E-2,1.744718E-2,-1.2042067E-2,6.7658606E-3,-6.4572174E-5,1.0856865E-2,-9.953028E-3],"categories":[],"categories_nodes":[],"categories_segments":[],"categories_sizes":[],"default_left":[0,0,0,0,0,0,0,0,0,0,0,0,0,0,0,0,0,0,0,0,0,0,0,0,0],"id":41,"left_children":[1,3,5,7,9,11,-1,13,15,17,19,21,23,-1,-1,-1,-1,-1,-1,-1,-1,-1,-1,-1,-1],"loss_changes":[1.6443465E0,1.7466319E0,1.5700667E0,1.7461839E0,1.3989488E0,1.2889982E0,0E0,1.4805849E0,1.3603927E0,1.6215011E0,1.5821223E0,1.1666441E0,4.55626E-1,0E0,0E0,0E0,0E0,0E0,0E0,0E0,0E0,0E0,0E0,0E0,0E0],"parents":[2147483647,0,0,1,1,2,2,3,3,4,4,5,5,7,7,8,8,9,9,10,10,11,11,12,12],"right_children":[2,4,6,8,10,12,-1,14,16,18,20,22,24,-1,-1,-1,-1,-1,-1,-1,-1,-1,-1,-1,-1],"split_conditions":[1.1942918E-1,1.29E2,7.1666664E-1,1.1636501E-1,-8.252862E-2,1.5E0,-2.4695069E-2,2.621693E-1,3.6444154E-3,4.4722223E0,-2.8527236E-1,-6.052542E-2,1.767048E-2,6.5429645E-5,-1.39590595E-2,-2.3480572E-2,4.343663E-3,1.8829234E-2,-1.268772E-2,1.744718E-2,-1.2042067E-2,6.7658606E-3,-6.4572174E-5,1.0856865E-2,-9.953028E-3],"split_indices":[25,5,26,25,29,15,0,27,17,14,35,27,33,0,0,0,0,0,0,0,0,0,0,0,0],"split_type":[0,0,0,0,0,0,0,0,0,0,0,0,0,0,0,0,0,0,0,0,0,0,0,0,0],"sum_hessian":[2.453E3,2.101E3,3.52E2,2.013E3,8.8E1,3.48E2,4E0,1.994E3,1.9E1,1.5E1,7.3E1,2.86E2,6.2E1,1.976E3,1.8E1,1.3E1,6E0,9E0,6E0,4E0,6.9E1,9.1E1,1.95E2,6E1,2E0],"tree_param":{"num_deleted":"0","num_feature":"37","num_nodes":"25","size_leaf_vector":"1"}},{"base_weights":[7.065052E-3,2.7131054E-1,5.2301264E-3,3.084034E-1,-8.054384E-3,7.823181E-3,-1.8508571E-1,1.6526049E-2,7.971022E-3,1.6357647E-3,8.481305E-2,-3.0270252E-1,1.1015229E-2,2.6851072E-4,-1.019933E-2,-1.2075242E-2,5.6894342E-3,2.8435108E-3,-2.0670893E-2],"categories":[],"categories_nodes":[],"categories_segments":[],"categories_sizes":[],"default_left":[0,0,0,0,0,0,0,0,0,0,0,0,0,0,0,0,0,0,0],"id":42,"left_children":[1,3,5,7,-1,9,11,-1,-1,13,15,17,-1,-1,-1,-1,-1,-1,-1],"loss_changes":[1.1952423E0,3.2234108E-1,1.2115086E0,3.0517578E-5,0E0,1.1526729E0,1.6401503E0,0E0,0E0,1.7219285E0,1.7294288E0,1.0585763E0,0E0,0E0,0E0,0E0,0E0,0E0,0E0],"parents":[2147483647,0,0,1,1,2,2,3,3,5,5,6,6,9,9,10,10,11,11],"right_children":[2,4,6,8,-1,10,12,-1,-1,14,16,18,-1,-1,-1,-1,-1,-1,-1],"split_conditions":[-2.0666666E1,8.75E-1,2.6598516E-1,6.1839585E0,-8.054384E-3,2.5610452E0,5.1919193E0,1.6526049E-2,7.971022E-3,1.5520082E0,-6.8E0,1.984127E-2,1.1015229E-2,2.6851072E-4,-1.019933E-2,-1.2075242E-2,5.6894342E-3,2.8435108E-3,-2.0670893E-2],"split_indices":[3,28,35,7,0,30,7,0,0,6,14,27,0,0,0,0,0,0,0],"split_type":[0,0,0,0,0,0,0,0,0,0,0,0,0,0,0,0,0,0,0],"sum_hessian":[2.467E3,1.6E1,2.451E3,1.5E1,1E0,2.419E3,3.2E1,1.2E1,3E0,2.24E3,1.79E2,2.5E1,7E0,2.201E3,3.9E1,1.4E1,1.65E2,6E0,1.9E1],"tree_param":{"num_deleted":"0","num_feature":"37","num_nodes":"19","size_leaf_vector":"1"}},{"base_weights":[2.8673483E-3,-1.26886815E-2,5.9078474E-2,-2.6453102E-3,-1.1316443E-1,1.9428018E-2,4.7537524E-2,-1.3190739E-2,8.4161274E-2,-1.4217706E-1,1.6655229E-1,2.9535795E-2,1.873894E-1,-4.139187E-3,4.0744848E-4,5.4891366E-3,-8.409422E-3,9.601294E-3,-8.168407E-3,1.8275639E-2,-1.2956372E-2,2.5104906E-3,-4.859457E-3,1.0050266E-2,-1.5058339E-2],"categories":[],"categories_nodes":[],"categories_segments":[],"categories_sizes":[],"default_left":[0,0,0,0,0,0,0,0,0,0,0,0,0,0,0,0,0,0,0,0,0,0,0,0,0],"id":43,"left_children":[1,3,5,7,9,-1,11,13,15,17,19,21,23,-1,-1,-1,-1,-1,-1,-1,-1,-1,-1,-1,-1],"loss_changes":[2.1623209E0,1.954357E0,2.0196865E0,1.6140672E0,1.4519753E0,0E0,1.3010871E0,2.3352427E0,1.2533876E0,1.1645105E0,1.5345032E0,1.2126598E0,4.5301247E-1,0E0,0E0,0E0,0E0,0E0,0E0,0E0,0E0,0E0,0E0,0E0,0E0],"parents":[2147483647,0,0,1,1,2,2,3,3,4,4,6,6,7,7,8,8,9,9,10,10,11,11,12,12],"right_children":[2,4,6,8,10,-1,12,14,16,18,20,22,24,-1,-1,-1,-1,-1,-1,-1,-1,-1,-1,-1,-1],"split_conditions":[6.028561E0,3.0426535E-1,-4.4666666E-1,1.4670738E0,4.172222E0,1.9428018E-2,1.7827632E2,-4.559315E-2,5.1919193E0,-6.666667E-1,9.333333E0,3.5E-1,3.2714692E-1,-4.139187E-3,4.0744848E-4,5.4891366E-3,-8.409422E-3,9.601294E-3,-8.168407E-3,1.8275639E-2,-1.2956372E-2,2.5104906E-3,-4.859457E-3,1.0050266E-2,-1.5058339E-2],"split_indices":[7,21,9,19,13,0,1,27,7,24,3,32,21,0,0,0,0,0,0,0,0,0,0,0,0],"split_type":[0,0,0,0,0,0,0,0,0,0,0,0,0,0,0,0,0,0,0,0,0,0,0,0,0],"sum_hessian":[2.471E3,1.936E3,5.35E2,1.761E3,1.75E2,1.7E1,5.18E2,1.571E3,1.9E2,1.59E2,1.6E1,4.6E2,5.8E1,3.68E2,1.203E3,1.73E2,1.7E1,9E0,1.5E2,1.1E1,5E0,3.96E2,6.4E1,5.7E1,1E0],"tree_param":{"num_deleted":"0","num_feature":"37","num_nodes":"25","size_leaf_vector":"1"}},{"base_weights":[2.5593138E-3,-1.7619852E-2,3.6516536E-2,-1.7197573E-1,-1.15898205E-2,-1.4832334E-1,4.526586E-2,-2.1213816E-1,1.4520422E-1,1.8034495E-2,-1.3886195E-2,-4.4626635E-3,-1.9869218E-2,1.2109949E-1,2.1722117E-2,1.5881298E-2,-1.1454298E-2,-1.1058383E-2,2.3763752E-2,-1.6847274E-3,1.3189224E-3,5.72415E-3,-1.506345E-2,-8.3564426E-4,7.6887305E-3,1.4169092E-3,-1.0772883E-2],"categories":[],"categories_nodes":[],"categories_segments":[],"categories_sizes":[],"default_left":[0,0,0,0,0,0,0,0,0,0,0,0,0,0,0,0,0,0,0,0,0,0,0,0,0,0,0],"id":44,"left_children":[1,3,5,7,9,11,13,15,17,-1,19,21,-1,23,25,-1,-1,-1,-1,-1,-1,-1,-1,-1,-1,-1,-1],"loss_changes":[1.6582108E0,1.4109167E0,1.4654502E0,7.569102E-1,1.254863E0,1.4672599E0,1.5363903E0,5.3065896E-1,9.516161E-1,0E0,1.1605647E0,9.8769355E-1,0E0,9.211893E-1,1.0402063E0,0E0,0E0,0E0,0E0,0E0,0E0,0E0,0E0,0E0,0E0,0E0,0E0],"parents":[2147483647,0,0,1,1,2,2,3,3,4,4,5,5,6,6,7,7,8,8,10,10,11,11,13,13,14,14],"right_children":[2,4,6,8,10,12,14,16,18,-1,20,22,-1,24,26,-1,-1,-1,-1,-1,-1,-1,-1,-1,-1,-1,-1],"split_conditions":[3.6421486E1,-1.8838384E0,-1.3030844E1,5.6791477E-2,-6.5235907E-1,-1.3148269E-1,-5.4333332E1,-6.5904427E0,-4.062207E0,1.8034495E-2,1.1111111E-1,-1.527417E-1,-1.9869218E-2,-1.3815367E-2,1.9119862E-1,1.5881298E-2,-1.1454298E-2,-1.1058383E-2,2.3763752E-2,-1.6847274E-3,1.3189224E-3,5.72415E-3,-1.506345E-2,-8.3564426E-4,7.6887305E-3,1.4169092E-3,-1.0772883E-2],"split_indices":[1,6,7,29,21,21,5,19,19,0,26,31,0,33,27,0,0,0,0,0,0,0,0,0,0,0,0],"split_type":[0,0,0,0,0,0,0,0,0,0,0,0,0,0,0,0,0,0,0,0,0,0,0,0,0,0,0],"sum_hessian":[2.418E3,1.517E3,9.01E2,5.6E1,1.461E3,4E1,8.61E2,5E1,6E0,8E0,1.453E3,2.6E1,1.4E1,2.03E2,6.58E2,1E0,4.9E1,3E0,3E0,9.74E2,4.79E2,1.9E1,7E0,3.9E1,1.64E2,6.41E2,1.7E1],"tree_param":{"num_deleted":"0","num_feature":"37","num_nodes":"27","size_leaf_vector":"1"}},{"base_weights":[-1.2887673E-3,2.7606366E-3,-1.5775785E-1,-8.678968E-3,4.266555E-2,-2.0927493E-1,2.1614182E-1,1.838586E-1,-1.1717066E-2,1.153843E-1,3.1445355E-3,4.043234E-2,-2.7990097E-1,-1.2462159E-2,1.5911577E-2,2.0889113E-2,8.847573E-4,4.8316456E-4,-1.8416353E-3,-2.0825583E-2,6.460545E-3,-1.0489656E-2,1.2348945E-3,-4.671162E-3,1.8248161E-2,1.4412451E-2,-1.5732303E-2],"categories":[],"categories_nodes":[],"categories_segments":[],"categories_sizes":[],"default_left":[0,0,0,0,0,0,0,0,0,0,0,0,0,0,0,0,0,0,0,0,0,0,0,0,0,0,0],"id":45,"left_children":[1,3,5,7,9,11,13,15,17,19,21,23,25,-1,-1,-1,-1,-1,-1,-1,-1,-1,-1,-1,-1,-1,-1],"loss_changes":[1.5572066E0,1.0941356E0,1.2394906E0,1.0919126E0,1.5343099E0,9.812882E-1,4.5940536E-1,1.1198246E0,9.857166E-1,1.4364293E0,1.597745E0,5.9881955E-1,9.395344E-1,0E0,0E0,0E0,0E0,0E0,0E0,0E0,0E0,0E0,0E0,0E0,0E0,0E0,0E0],"parents":[2147483647,0,0,1,1,2,2,3,3,4,4,5,5,6,6,7,7,8,8,9,9,10,10,11,11,12,12],"right_children":[2,4,6,8,10,12,14,16,18,20,22,24,26,-1,-1,-1,-1,-1,-1,-1,-1,-1,-1,-1,-1,-1,-1],"split_conditions":[1.6333334E1,5.429293E-1,3E0,-3E0,5.466667E-1,-4.0314686E-1,2.5E0,-2.4210526E-1,5.31441E-1,-2.6666667E0,4.2919776E-1,-1.23629145E-1,-1.05325036E-1,-1.2462159E-2,1.5911577E-2,2.0889113E-2,8.847573E-4,4.8316456E-4,-1.8416353E-3,-2.0825583E-2,6.460545E-3,-1.0489656E-2,1.2348945E-3,-4.671162E-3,1.8248161E-2,1.4412451E-2,-1.5732303E-2],"split_indices":[3,6,23,15,9,31,2,31,36,23,19,27,29,0,0,0,0,0,0,0,0,0,0,0,0,0,0],"split_type":[0,0,0,0,0,0,0,0,0,0,0,0,0,0,0,0,0,0,0,0,0,0,0,0,0,0,0],"sum_hessian":[2.456E3,2.395E3,6.1E1,1.862E3,5.33E2,5.4E1,7E0,2.8E1,1.834E3,1.87E2,3.46E2,1.2E1,4.2E1,1E0,6E0,1.1E1,1.7E1,9.91E2,8.43E2,4E0,1.83E2,3.1E1,3.15E2,9E0,3E0,2E0,4E1],"tree_param":{"num_deleted":"0","num_feature":"37","num_nodes":"27","size_leaf_vector":"1"}},{"base_weights":[9.0722775E-4,-1.1155071E-1,6.646932E-3,-1.8798932E-1,7.202797E-2,-5.3000646E-3,4.740667E-2,-2.1548036E-1,2.9496333E-1,1.8353511E-1,-1.41443135E-2,-1.2114317E-2,9.303179E-2,3.5871252E-2,2.5417507E-1,1.2937245E-2,-1.2173788E-2,2.2332005E-2,-7.793594E-3,1.3887114E-2,-1.5268316E-2,-1.4109115E-4,-5.113734E-3,5.519415E-3,-1.6065149E-2,3.7716944E-3,-1.2268451E-3,-7.952997E-3,1.5506282E-2],"categories":[],"categories_nodes":[],"categories_segments":[],"categories_sizes":[],"default_left":[0,0,0,0,0,0,0,0,0,0,0,0,0,0,0,0,0,0,0,0,0,0,0,0,0,0,0,0,0],"id":46,"left_children":[1,3,5,7,9,11,13,15,17,19,-1,21,23,25,27,-1,-1,-1,-1,-1,-1,-1,-1,-1,-1,-1,-1,-1,-1],"loss_changes":[1.5950655E0,1.6974404E0,1.1450858E0,1.1920924E0,1.4766365E0,1.2199626E0,1.2621726E0,1.1383646E0,4.1152483E-1,1.3744376E0,0E0,1.4256719E0,8.840538E-1,1.2111433E0,6.967095E-1,0E0,0E0,0E0,0E0,0E0,0E0,0E0,0E0,0E0,0E0,0E0,0E0,0E0,0E0],"parents":[2147483647,0,0,1,1,2,2,3,3,4,4,5,5,6,6,7,7,8,8,9,9,11,11,12,12,13,13,14,14],"right_children":[2,4,6,8,10,12,14,16,18,20,-1,22,24,26,28,-1,-1,-1,-1,-1,-1,-1,-1,-1,-1,-1,-1,-1,-1],"split_conditions":[-1.1063986E0,7.849003E-2,3.935185E-2,3.4785353E-2,-1.4433334E0,2.5610452E0,5.9333332E1,-2.7955448E-2,-3.1297302E1,-1.0990921E1,-1.41443135E-2,3.75E-1,1.6866667E2,1.8865407E0,-6.666667E-1,1.2937245E-2,-1.2173788E-2,2.2332005E-2,-7.793594E-3,1.3887114E-2,-1.5268316E-2,-1.4109115E-4,-5.113734E-3,5.519415E-3,-1.6065149E-2,3.7716944E-3,-1.2268451E-3,-7.952997E-3,1.5506282E-2],"split_indices":[34,27,20,16,9,30,5,17,1,7,0,28,5,30,12,0,0,0,0,0,0,0,0,0,0,0,0,0,0],"split_type":[0,0,0,0,0,0,0,0,0,0,0,0,0,0,0,0,0,0,0,0,0,0,0,0,0,0,0,0,0],"sum_hessian":[2.469E3,1.19E2,2.35E3,8.4E1,3.5E1,1.818E3,5.32E2,8E1,4E0,2.7E1,8E0,1.701E3,1.17E2,5.05E2,2.7E1,4E0,7.6E1,3E0,1E0,2.3E1,4E0,1.543E3,1.58E2,1.13E2,4E0,3.05E2,2E2,3E0,2.4E1],"tree_param":{"num_deleted":"0","num_feature":"37","num_nodes":"29","size_leaf_vector":"1"}},{"base_weights":[-4.605014E-3,-7.700864E-3,2.4548678E-1,-5.431878E-4,-7.368812E-2,-9.615934E-2,2.7332434E-1,4.0358696E-2,-1.2949931E-2,1.5589623E-1,-1.06446974E-1,-1.3053472E-2,5.841522E-3,1.4758264E-2,7.2023342E-3,-9.2182076E-4,5.559813E-3,-5.088472E-4,-1.7090622E-2,-1.1781807E-2,1.5449119E-2,6.90446E-3,-6.172877E-3],"categories":[],"categories_nodes":[],"categories_segments":[],"categories_sizes":[],"default_left":[0,0,0,0,0,0,0,0,0,0,0,0,0,0,0,0,0,0,0,0,0,0,0],"id":47,"left_children":[1,3,5,7,9,11,13,15,17,19,21,-1,-1,-1,-1,-1,-1,-1,-1,-1,-1,-1,-1],"loss_changes":[1.8995692E0,1.1439079E0,3.1160045E-1,1.1098285E0,1.799053E0,1.3587336E-1,3.65417E-2,2.1219854E0,1.5267429E0,1.8709528E0,8.822653E-1,0E0,0E0,0E0,0E0,0E0,0E0,0E0,0E0,0E0,0E0,0E0,0E0],"parents":[2147483647,0,0,1,1,2,2,3,3,4,4,5,5,6,6,7,7,8,8,9,9,10,10],"right_children":[2,4,6,8,10,12,14,16,18,20,22,-1,-1,-1,-1,-1,-1,-1,-1,-1,-1,-1,-1],"split_conditions":[5.284898E0,1.0666667E1,-6.653129E-2,-9.592159E-3,-7.6019764E-2,-1.1360494E1,1.02168846E2,0E0,4.738678E0,-9.370728E-3,-6.666667E-1,-1.3053472E-2,5.841522E-3,1.4758264E-2,7.2023342E-3,-9.2182076E-4,5.559813E-3,-5.088472E-4,-1.7090622E-2,-1.1781807E-2,1.5449119E-2,6.90446E-3,-6.172877E-3],"split_indices":[19,3,29,33,29,1,1,2,19,33,24,0,0,0,0,0,0,0,0,0,0,0,0],"split_type":[0,0,0,0,0,0,0,0,0,0,0,0,0,0,0,0,0,0,0,0,0,0,0],"sum_hessian":[2.45E3,2.421E3,2.9E1,2.185E3,2.36E2,2E0,2.7E1,5.08E2,1.677E3,2.9E1,2.07E2,1E0,1E0,2.2E1,5E0,2.78E2,2.3E2,1.664E3,1.3E1,8E0,2.1E1,1.3E1,1.94E2],"tree_param":{"num_deleted":"0","num_feature":"37","num_nodes":"23","size_leaf_vector":"1"}},{"base_weights":[2.9248088E-3,-9.5982915E-3,4.6146646E-2,1.1343715E-2,-5.3237215E-2,1.06557086E-1,1.4087321E-2,-7.304174E-2,2.3094872E-2,-2.9518504E-2,-1.7087196E-1,1.3331231E-1,-1.20203204E-1,-1.7753753E-1,3.482349E-2,6.229569E-3,-6.7810416E-3,-1.0379308E-2,1.4207548E-3,-1.9071065E-2,-1.0606565E-3,3.5862785E-3,-1.1439878E-2,8.911276E-3,3.0027562E-5,-1.9960321E-2,2.390658E-3,7.2679236E-3,-1.3749245E-2,-3.1690225E-3,3.236289E-3],"categories":[],"categories_nodes":[],"categories_segments":[],"categories_sizes":[],"default_left":[0,0,0,0,0,0,0,0,0,0,0,0,0,0,0,0,0,0,0,0,0,0,0,0,0,0,0,0,0,0,0],"id":48,"left_children":[1,3,5,7,9,11,13,15,17,19,21,23,25,27,29,-1,-1,-1,-1,-1,-1,-1,-1,-1,-1,-1,-1,-1,-1,-1,-1],"loss_changes":[1.3492912E0,1.7671466E0,1.0830611E0,1.297743E0,1.7443765E0,1.193027E0,1.4644809E0,1.9957296E0,1.41481E0,1.5204729E0,1.4919343E0,1.0370216E0,1.0035067E0,1.1727246E0,9.790278E-1,0E0,0E0,0E0,0E0,0E0,0E0,0E0,0E0,0E0,0E0,0E0,0E0,0E0,0E0,0E0,0E0],"parents":[2147483647,0,0,1,1,2,2,3,3,4,4,5,5,6,6,7,7,8,8,9,9,10,10,11,11,12,12,13,13,14,14],"right_children":[2,4,6,8,10,12,14,16,18,20,22,24,26,28,30,-1,-1,-1,-1,-1,-1,-1,-1,-1,-1,-1,-1,-1,-1,-1,-1],"split_conditions":[6.028561E0,3.3333334E-1,1.6702302E0,-1.32E0,1.609019E-2,1E0,-1.6666666E0,-5E-1,-4.971001E-1,-1.4687542E1,-8.6E-1,7.991971E-1,2.6666668E-1,-5.5829436E-2,8.723799E0,6.229569E-3,-6.7810416E-3,-1.0379308E-2,1.4207548E-3,-1.9071065E-2,-1.0606565E-3,3.5862785E-3,-1.1439878E-2,8.911276E-3,3.0027562E-5,-1.9960321E-2,2.390658E-3,7.2679236E-3,-1.3749245E-2,-3.1690225E-3,3.236289E-3],"split_indices":[7,23,30,9,16,24,2,11,31,7,10,6,26,21,7,0,0,0,0,0,0,0,0,0,0,0,0,0,0,0,0],"split_type":[0,0,0,0,0,0,0,0,0,0,0,0,0,0,0,0,0,0,0,0,0,0,0,0,0,0,0,0,0,0,0],"sum_hessian":[2.491E3,1.932E3,5.59E2,1.306E3,6.26E2,1.93E2,3.66E2,1.59E2,1.147E3,5.22E2,1.04E2,1.73E2,2E1,3.5E1,3.31E2,3.8E1,1.21E2,2.5E1,1.122E3,1.1E1,5.11E2,2E1,8.4E1,1.29E2,4.4E1,7E0,1.3E1,8E0,2.7E1,7.7E1,2.54E2],"tree_param":{"num_deleted":"0","num_feature":"37","num_nodes":"31","size_leaf_vector":"1"}},{"base_weights":[9.2508073E-4,-2.2302192E-1,3.5755045E-3,-3.5297358E-1,1.669775E-2,2.571243E-1,1.2775839E-3,-3.8339865E-1,8.670077E-3,-1.309739E-2,1.7643489E-2,-1.0531913E-2,4.1832685E-2,-2.0944007E-2,-3.614366E-4,1.9608809E-2,-6.3381804E-4,2.8255517E-3,-9.086576E-3],"categories":[],"categories_nodes":[],"categories_segments":[],"categories_sizes":[],"default_left":[0,0,0,0,0,0,0,0,0,0,0,0,0,0,0,0,0,0,0],"id":49,"left_children":[1,3,5,7,-1,9,11,13,-1,-1,-1,15,17,-1,-1,-1,-1,-1,-1],"loss_changes":[1.4716254E0,2.2168994E0,1.4271274E0,4.5084167E-1,0E0,1.1858071E0,1.1637745E0,3.039546E-1,0E0,0E0,0E0,1.6302404E0,1.8085611E0,0E0,0E0,0E0,0E0,0E0,0E0],"parents":[2147483647,0,0,1,1,2,2,3,3,5,5,6,6,7,7,11,11,12,12],"right_children":[2,4,6,8,-1,10,12,14,-1,-1,-1,16,18,-1,-1,-1,-1,-1,-1],"split_conditions":[-6.666667E-1,4.2222223E-1,-1.2132428E-1,1.6666666E0,1.669775E-2,1.3023168E0,6.028561E0,2.2507122E-1,8.670077E-3,-1.309739E-2,1.7643489E-2,-8.055556E-1,5.2380955E-1,-2.0944007E-2,-3.614366E-4,1.9608809E-2,-6.3381804E-4,2.8255517E-3,-9.086576E-3],"split_indices":[26,28,29,11,0,30,7,25,0,0,0,28,26,0,0,0,0,0,0],"split_type":[0,0,0,0,0,0,0,0,0,0,0,0,0,0,0,0,0,0,0],"sum_hessian":[2.477E3,2.8E1,2.449E3,2.3E1,5E0,2.1E1,2.428E3,2.2E1,1E0,3E0,1.8E1,1.881E3,5.47E2,2E1,2E0,9E0,1.872E3,5.14E2,3.3E1],"tree_param":{"num_deleted":"0","num_feature":"37","num_nodes":"19","size_leaf_vector":"1"}},{"base_weights":[2.1107423E-3,-6.077877E-2,1.2631068E-2,3.9945286E-2,-9.9645056E-2,-1.0268838E-1,1.7285362E-2,-1.1747977E-2,3.0883834E-1,3.110716E-1,-1.1249219E-1,-1.6891399E-1,1.6046332E-1,1.2513424E-1,1.1097518E-2,1.3103071E-2,-2.614531E-3,-8.341734E-3,1.9435419E-2,2.093687E-2,-1.1064719E-2,-4.5267697E-3,-1.7913643E-2,1.0649423E-2,-1.126312E-2,1.339637E-2,-2.1517245E-2,9.74421E-3,-1.1827049E-3,4.58478E-4,1.4660435E-2],"categories":[],"categories_nodes":[],"categories_segments":[],"categories_sizes":[],"default_left":[0,0,0,0,0,0,0,0,0,0,0,0,0,0,0,0,0,0,0,0,0,0,0,0,0,0,0,0,0,0,0],"id":50,"left_children":[1,3,5,7,9,11,13,15,17,19,21,23,25,27,29,-1,-1,-1,-1,-1,-1,-1,-1,-1,-1,-1,-1,-1,-1,-1,-1],"loss_changes":[1.6296716E0,1.3858941E0,1.1342767E0,1.3797241E0,1.3805084E0,1.4561499E0,1.3526689E0,9.461836E-1,6.727222E-1,5.51205E-1,1.3059094E0,1.4682717E0,1.1946425E0,1.1461878E0,1.0415963E0,0E0,0E0,0E0,0E0,0E0,0E0,0E0,0E0,0E0,0E0,0E0,0E0,0E0,0E0,0E0,0E0],"parents":[2147483647,0,0,1,1,2,2,3,3,4,4,5,5,6,6,7,7,8,8,9,9,10,10,11,11,12,12,13,13,14,14],"right_children":[2,4,6,8,10,12,14,16,18,20,22,24,26,28,30,-1,-1,-1,-1,-1,-1,-1,-1,-1,-1,-1,-1,-1,-1,-1,-1],"split_conditions":[-1.0733334E0,-1.3233333E2,-3.3333333E0,-2.749828E-2,-3.0219404E-2,-8.905123E-1,-7.4333336E1,-1.9166667E2,-1.3572209E2,-3.5E0,1.8566817E0,-9.1E-1,1.0324888E-2,-2.2222223E-2,8.85E0,1.3103071E-2,-2.614531E-3,-8.341734E-3,1.9435419E-2,2.093687E-2,-1.1064719E-2,-4.5267697E-3,-1.7913643E-2,1.0649423E-2,-1.126312E-2,1.339637E-2,-2.1517245E-2,9.74421E-3,-1.1827049E-3,4.58478E-4,1.4660435E-2],"split_indices":[9,4,23,25,33,7,4,4,1,2,30,9,29,25,14,0,0,0,0,0,0,0,0,0,0,0,0,0,0,0,0],"split_type":[0,0,0,0,0,0,0,0,0,0,0,0,0,0,0,0,0,0,0,0,0,0,0,0,0,0,0,0,0,0,0],"sum_hessian":[2.461E3,3.52E2,2.109E3,9.8E1,2.54E2,8.1E1,2.028E3,8.3E1,1.5E1,7E0,2.47E2,6.5E1,1.6E1,1.09E2,1.919E3,1E1,7.3E1,2E0,1.3E1,6E0,1E0,2.28E2,1.9E1,8E0,5.7E1,1.4E1,2E0,7.4E1,3.5E1,1.907E3,1.2E1],"tree_param":{"num_deleted":"0","num_feature":"37","num_nodes":"31","size_leaf_vector":"1"}},{"base_weights":[-2.1082386E-3,1.9586824E-1,-5.3311926E-3,2.7981925E-1,-2.2788197E-1,-1.5306373E-1,-1.4695153E-3,-1.2244311E-2,3.4045267E-1,-1.5852233E-2,7.6773553E-3,-1.7829056E-1,1.9704258E-2,3.1791824E-1,-3.9490275E-3,1.8415183E-2,-1.168065E-2,-1.3279729E-2,-9.6943154E-4,2.2413846E-2,-8.7559776E-4,-1.8114317E-5,-7.715989E-3],"categories":[],"categories_nodes":[],"categories_segments":[],"categories_sizes":[],"default_left":[0,0,0,0,0,0,0,0,0,0,0,0,0,0,0,0,0,0,0,0,0,0,0],"id":51,"left_children":[1,3,5,7,9,11,13,-1,15,-1,-1,17,-1,19,21,-1,-1,-1,-1,-1,-1,-1,-1],"loss_changes":[1.5534662E0,1.4511617E0,1.3661114E0,1.1332569E0,2.86746E-1,9.122343E-1,1.8504026E0,0E0,5.656891E-1,0E0,0E0,8.1334424E-1,0E0,7.9492235E-1,1.2501365E0,0E0,0E0,0E0,0E0,0E0,0E0,0E0,0E0],"parents":[2147483647,0,0,1,1,2,2,3,3,4,4,5,5,6,6,8,8,11,11,13,13,14,14],"right_children":[2,4,6,8,10,12,14,-1,16,-1,-1,18,-1,20,22,-1,-1,-1,-1,-1,-1,-1,-1],"split_conditions":[-1.05325036E-1,1.4966667E2,-2.2171956E2,-1E0,-6.3333335E0,1.0164158E-1,-1.78E2,-1.2244311E-2,5.222222E-1,-1.5852233E-2,7.6773553E-3,6.561E-1,1.9704258E-2,1.0831099E-2,1.65E1,1.8415183E-2,-1.168065E-2,-1.3279729E-2,-9.6943154E-4,2.2413846E-2,-8.7559776E-4,-1.8114317E-5,-7.715989E-3],"split_indices":[29,5,1,24,4,35,4,0,28,0,0,36,0,17,3,0,0,0,0,0,0,0,0],"split_type":[0,0,0,0,0,0,0,0,0,0,0,0,0,0,0,0,0,0,0,0,0,0,0],"sum_hessian":[2.432E3,3.8E1,2.394E3,3.2E1,6E0,6E1,2.334E3,3E0,2.9E1,5E0,1E0,5.8E1,2E0,1.7E1,2.317E3,2.8E1,1E0,3.7E1,2.1E1,1.2E1,5E0,2.264E3,5.3E1],"tree_param":{"num_deleted":"0","num_feature":"37","num_nodes":"23","size_leaf_vector":"1"}},{"base_weights":[-2.0284723E-3,-1.4520869E-2,3.7460946E-2,3.0052894E-1,-1.6528374E-2,-4.8887514E-2,5.535272E-2,4.2663378E-1,-1.099984E-2,-1.3856092E-1,-1.17919E-2,2.3678918E-1,-9.2782915E-2,6.0870066E-2,-2.8812438E-1,-4.8012002E-3,2.476881E-2,4.8809536E-3,-9.4554415E-3,1.0800648E-2,-7.231179E-4,-1.55287E-2,1.51392175E-2,-1.7141135E-2,-3.423093E-4,2.3297823E-3,8.294715E-3,-2.2566436E-2,6.716287E-3],"categories":[],"categories_nodes":[],"categories_segments":[],"categories_sizes":[],"default_left":[0,0,0,0,0,0,0,0,0,0,0,0,0,0,0,0,0,0,0,0,0,0,0,0,0,0,0,0,0],"id":52,"left_children":[1,3,5,7,9,11,13,15,-1,17,19,21,23,25,27,-1,-1,-1,-1,-1,-1,-1,-1,-1,-1,-1,-1,-1,-1],"loss_changes":[1.2254512E0,1.1984262E0,9.250276E-1,8.815478E-1,1.0827014E0,1.313579E0,9.556035E-1,4.0685558E-1,0E0,8.541491E-1,1.1024007E0,5.9976363E-1,1.9315372E0,7.2386E-1,6.1219066E-1,0E0,0E0,0E0,0E0,0E0,0E0,0E0,0E0,0E0,0E0,0E0,0E0,0E0,0E0],"parents":[2147483647,0,0,1,1,2,2,3,3,4,4,5,5,6,6,7,7,9,9,10,10,11,11,12,12,13,13,14,14],"right_children":[2,4,6,8,10,12,14,16,-1,18,20,22,24,26,28,-1,-1,-1,-1,-1,-1,-1,-1,-1,-1,-1,-1,-1,-1],"split_conditions":[7.736853E1,-2.4341026E1,-2.3333333E-1,6.666667E-2,-2.2171956E2,8.591588E1,8.333333E-1,-2.3401793E2,-1.099984E-2,-6.1354652E-2,-2.0981065E2,2.5418657E-1,1.0090428E2,6.0148094E-2,6E0,-4.8012002E-3,2.476881E-2,4.8809536E-3,-9.4554415E-3,1.0800648E-2,-7.231179E-4,-1.55287E-2,1.51392175E-2,-1.7141135E-2,-3.423093E-4,2.3297823E-3,8.294715E-3,-2.2566436E-2,6.716287E-3],"split_indices":[1,7,28,