{"learner":{"attributes":{"scikit_learn":"{\"_estimator_type\": \"regressor\"}"},"feature_names":[],"feature_types":[],"gradient_booster":{"model":{"gbtree_model_param":{"num_parallel_tree":"1","num_trees":"200"},"iteration_indptr":[0,1,2,3,4,5,6,7,8,9,10,11,12,13,14,15,16,17,18,19,20,21,22,23,24,25,26,27,28,29,30,31,32,33,34,35,36,37,38,39,40,41,42,43,44,45,46,47,48,49,50,51,52,53,54,55,56,57,58,59,60,61,62,63,64,65,66,67,68,69,70,71,72,73,74,75,76,77,78,79,80,81,82,83,84,85,86,87,88,89,90,91,92,93,94,95,96,97,98,99,100,101,102,103,104,105,106,107,108,109,110,111,112,113,114,115,116,117,118,119,120,121,122,123,124,125,126,127,128,129,130,131,132,133,134,135,136,137,138,139,140,141,142,143,144,145,146,147,148,149,150,151,152,153,154,155,156,157,158,159,160,161,162,163,164,165,166,167,168,169,170,171,172,173,174,175,176,177,178,179,180,181,182,183,184,185,186,187,188,189,190,191,192,193,194,195,196,197,198,199,200],"tree_info":[0,0,0,0,0,0,0,0,0,0,0,0,0,0,0,0,0,0,0,0,0,0,0,0,0,0,0,0,0,0,0,0,0,0,0,0,0,0,0,0,0,0,0,0,0,0,0,0,0,0,0,0,0,0,0,0,0,0,0,0,0,0,0,0,0,0,0,0,0,0,0,0,0,0,0,0,0,0,0,0,0,0,0,0,0,0,0,0,0,0,0,0,0,0,0,0,0,0,0,0,0,0,0,0,0,0,0,0,0,0,0,0,0,0,0,0,0,0,0,0,0,0,0,0,0,0,0,0,0,0,0,0,0,0,0,0,0,0,0,0,0,0,0,0,0,0,0,0,0,0,0,0,0,0,0,0,0,0,0,0,0,0,0,0,0,0,0,0,0,0,0,0,0,0,0,0,0,0,0,0,0,0,0,0,0,0,0,0,0,0,0,0,0,0,0,0,0,0,0,0],"trees":[{"base_weights":[1.15584455E-1,-4.074408E0,3.7531724E0,-7.0677376E0,-2.1075308E0,2.3766825E0,8.721402E0,-1.1573046E1,-5.4144144E0,-1.839014E0,-1.3354207E1,1.038862E0,4.947352E0,5.469669E-1,9.502298E0,-6.156812E-1,4.0355387E-1,-2.8344998E-1,6.235539E-1,1.22897856E-1,-1.2889872E-1,-8.3051485E-1,2.8331716E-2,6.037041E-2,-5.849402E-1,2.6685518E-1,-1.5464257E-1,7.033317E-1,-9.140304E-2,2.9614908E-1,5.774457E-1],"categories":[],"categories_nodes":[],"categories_segments":[],"categories_sizes":[],"default_left":[0,0,0,0,0,0,0,0,0,0,0,0,0,0,0,0,0,0,0,0,0,0,0,0,0,0,0,0,0,0,0],"id":0,"left_children":[1,3,5,7,9,11,13,15,17,19,21,23,25,27,29,-1,-1,-1,-1,-1,-1,-1,-1,-1,-1,-1,-1,-1,-1,-1,-1],"loss_changes":[3.7585504E4,6.7321934E3,9.006379E3,3.3190645E3,2.0682466E3,3.5543232E3,1.8204531E3,1.8596914E3,1.5915264E3,2.1591848E3,7.3465186E2,1.4783008E3,1.1258301E3,8.605639E2,1.8435469E3,0E0,0E0,0E0,0E0,0E0,0E0,0E0,0E0,0E0,0E0,0E0,0E0,0E0,0E0,0E0,0E0],"parents":[2147483647,0,0,1,1,2,2,3,3,4,4,5,5,6,6,7,7,8,8,9,9,10,10,11,11,12,12,13,13,14,14],"right_children":[2,4,6,8,10,12,14,16,18,20,22,24,26,28,30,-1,-1,-1,-1,-1,-1,-1,-1,-1,-1,-1,-1,-1,-1,-1,-1],"split_conditions":[-9.779507E0,-9.825549E1,1.3077148E2,-1.0733334E0,2.2943723E-1,3.728355E-1,-1.5012195E-2,-1.0628261E-1,1.1764102E0,-2.2026424E-1,1.3333334E0,2.621693E-1,4.2027418E-2,-5.3333335E-2,1.4E1,-6.156812E-1,4.0355387E-1,-2.8344998E-1,6.235539E-1,1.22897856E-1,-1.2889872E-1,-8.3051485E-1,2.8331716E-2,6.037041E-2,-5.849402E-1,2.6685518E-1,-1.5464257E-1,7.033317E-1,-9.140304E-2,2.9614908E-1,5.774457E-1],"split_indices":[1,1,1,9,27,6,17,31,34,21,11,27,31,9,4,0,0,0,0,0,0,0,0,0,0,0,0,0,0,0,0],"split_type":[0,0,0,0,0,0,0,0,0,0,0,0,0,0,0,0,0,0,0,0,0,0,0,0,0,0,0,0,0,0,0],"sum_hessian":[2.464E3,1.145E3,1.319E3,4.53E2,6.92E2,1.034E3,2.85E2,1.2E2,3.33E2,6.77E2,1.5E1,6.81E2,3.53E2,2.5E1,2.6E2,1.16E2,4E0,3.29E2,4E0,9.9E1,5.78E2,1.2E1,3E0,6.73E2,8E0,3.37E2,1.6E1,3E0,2.2E1,9.6E1,1.64E2],"tree_param":{"num_deleted":"0","num_feature":"37","num_nodes":"31","size_leaf_vector":"1"}},{"base_weights":[5.380532E-2,-1.4215554E0,5.3572526E0,-4.6284294E0,-3.2764893E-2,4.624029E0,1.1399186E1,-3.2793407E0,-8.998775E0,-6.777309E-1,3.6189969E0,7.7583957E0,3.1342382E0,2.5411114E1,8.592931E0,-3.3197606E-1,-6.627401E-2,-5.179112E-1,1.7938626E-1,-3.0855E-1,-1.831293E-2,2.5441587E-1,-2.0076863E-1,4.4104838E-1,-1.7107497E-1,2.4232201E-1,4.477884E-3,-2.9450238E-2,1.4367377E0,1.2940663E0,3.6532938E-1],"categories":[],"categories_nodes":[],"categories_segments":[],"categories_sizes":[],"default_left":[0,0,0,0,0,0,0,0,0,0,0,0,0,0,0,0,0,0,0,0,0,0,0,0,0,0,0,0,0,0,0],"id":1,"left_children":[1,3,5,7,9,11,13,15,17,19,21,23,25,27,29,-1,-1,-1,-1,-1,-1,-1,-1,-1,-1,-1,-1,-1,-1,-1,-1],"loss_changes":[1.9161984E4,8.533093E3,2.3085254E3,3.3842627E3,3.1537937E3,2.2030586E3,2.0229438E3,2.906204E3,2.3642197E3,1.9448589E3,2.275116E3,1.8477383E3,1.6938259E3,7.9466016E2,9.0059717E2,0E0,0E0,0E0,0E0,0E0,0E0,0E0,0E0,0E0,0E0,0E0,0E0,0E0,0E0,0E0,0E0],"parents":[2147483647,0,0,1,1,2,2,3,3,4,4,5,5,6,6,7,7,8,8,9,9,10,10,11,11,12,12,13,13,14,14],"right_children":[2,4,6,8,10,12,14,16,18,20,22,24,26,28,30,-1,-1,-1,-1,-1,-1,-1,-1,-1,-1,-1,-1,-1,-1,-1,-1],"split_conditions":[5.807304E-1,-6.30303E-1,2.7881926E-1,4.8666668E1,5.828775E0,-9.592159E-3,8.6333334E-1,-1.3220539E0,1.7904975E0,-1.5972222E-1,1.4587612E-1,5.2380955E-1,3.3E1,1.3333333E1,-6.538889E0,-3.3197606E-1,-6.627401E-2,-5.179112E-1,1.7938626E-1,-3.0855E-1,-1.831293E-2,2.5441587E-1,-2.0076863E-1,4.4104838E-1,-1.7107497E-1,2.4232201E-1,4.477884E-3,-2.9450238E-2,1.4367377E0,1.2940663E0,3.6532938E-1],"split_indices":[6,6,8,5,7,33,9,6,30,27,25,26,5,2,13,0,0,0,0,0,0,0,0,0,0,0,0,0,0,0,0],"split_type":[0,0,0,0,0,0,0,0,0,0,0,0,0,0,0,0,0,0,0,0,0,0,0,0,0,0,0,0,0,0,0],"sum_hessian":[2.447E3,1.915E3,5.32E2,5.78E2,1.337E3,4.76E2,5.6E1,4.43E2,1.35E2,1.137E3,2E2,1.52E2,3.24E2,8E0,4.8E1,1.62E2,2.81E2,1.22E2,1.3E1,6E1,1.077E3,1.68E2,3.2E1,1.39E2,1.3E1,2.07E2,1.17E2,1E0,7E0,2E0,4.6E1],"tree_param":{"num_deleted":"0","num_feature":"37","num_nodes":"31","size_leaf_vector":"1"}},{"base_weights":[1.7206077E-1,-2.725657E0,5.6324153E0,-5.9669228E0,-2.8105685E-1,3.7518106E0,8.677511E0,-8.770866E0,-4.480223E0,1.3230296E0,-2.3467696E0,-5.1152034E0,4.2231255E0,-3.6449248E-1,9.53697E0,-5.128483E-1,-1.5038548E-1,-8.35525E-2,-3.0475286E-1,5.6972124E-2,9.8921627E-1,-1.7979321E-1,6.38886E-2,-4.8539254E-1,1.2237716E-1,7.5129837E-1,1.9633456E-1,-2.8063843E-1,3.263338E-1,4.4224864E-1,9.0723544E-1],"categories":[],"categories_nodes":[],"categories_segments":[],"categories_sizes":[],"default_left":[0,0,0,0,0,0,0,0,0,0,0,0,0,0,0,0,0,0,0,0,0,0,0,0,0,0,0,0,0,0,0],"id":2,"left_children":[1,3,5,7,9,11,13,15,17,19,21,23,25,27,29,-1,-1,-1,-1,-1,-1,-1,-1,-1,-1,-1,-1,-1,-1,-1,-1],"loss_changes":[3.870153E4,1.266023E4,4.823617E3,2.8245488E3,3.0250918E3,2.2198384E3,2.513588E3,1.9989688E3,2.035708E3,1.7195356E3,1.8110251E3,9.61552E2,1.542166E3,1.0854686E3,1.5966895E3,0E0,0E0,0E0,0E0,0E0,0E0,0E0,0E0,0E0,0E0,0E0,0E0,0E0,0E0,0E0,0E0],"parents":[2147483647,0,0,1,1,2,2,3,3,4,4,5,5,6,6,7,7,8,8,9,9,10,10,11,11,12,12,13,13,14,14],"right_children":[2,4,6,8,10,12,14,16,18,20,22,24,26,28,30,-1,-1,-1,-1,-1,-1,-1,-1,-1,-1,-1,-1,-1,-1,-1,-1],"split_conditions":[4.1524376E1,-6.33938E1,1.2186753E2,-6.502727E0,5.31441E-1,-1.3030844E1,-1.5212108E-2,-1.9285715E-1,-2.2982804E-3,3.185847E0,5.115476E0,7.2494745E-3,-3.201101E-2,1.7568968E2,2.1239286E-2,-5.128483E-1,-1.5038548E-1,-8.35525E-2,-3.0475286E-1,5.6972124E-2,9.8921627E-1,-1.7979321E-1,6.38886E-2,-4.8539254E-1,1.2237716E-1,7.5129837E-1,1.9633456E-1,-2.8063843E-1,3.263338E-1,4.4224864E-1,9.0723544E-1],"split_indices":[1,1,1,7,36,7,17,31,33,30,7,8,33,1,33,0,0,0,0,0,0,0,0,0,0,0,0,0,0,0,0],"split_type":[0,0,0,0,0,0,0,0,0,0,0,0,0,0,0,0,0,0,0,0,0,0,0,0,0,0,0,0,0,0,0],"sum_hessian":[2.444E3,1.597E3,8.47E2,6.86E2,9.11E2,5.25E2,3.22E2,2.36E2,4.5E2,5.13E2,3.98E2,2.6E1,4.99E2,2.8E1,2.94E2,1.87E2,4.9E1,1.65E2,2.85E2,5.09E2,4E0,2.96E2,1.02E2,1.6E1,1E1,1.2E1,4.87E2,1.6E1,1.2E1,2.74E2,2E1],"tree_param":{"num_deleted":"0","num_feature":"37","num_nodes":"31","size_leaf_vector":"1"}},{"base_weights":[-3.3130222E-3,-5.9938016E0,2.3472168E0,-1.2710764E1,-5.321133E0,-4.975715E-2,4.8373876E0,-8.557456E0,-1.6722002E1,-5.7968845E0,2.6833645E-1,8.9791924E-1,-2.2299192E0,3.0757895E0,7.2560134E0,-6.988764E-1,-1.317002E-1,-1.5988816E-1,-9.3035793E-1,4.0557858E-1,-3.0013555E-1,-1.2738739E-1,7.861628E-1,1.8564159E-2,2.7953497E-1,-3.0654123E-1,-5.5897553E-2,1.928506E-1,-6.7355946E-2,3.02383E-1,5.987522E-1],"categories":[],"categories_nodes":[],"categories_segments":[],"categories_sizes":[],"default_left":[0,0,0,0,0,0,0,0,0,0,0,0,0,0,0,0,0,0,0,0,0,0,0,0,0,0,0,0,0,0,0],"id":3,"left_children":[1,3,5,7,9,11,13,15,17,19,21,23,25,27,29,-1,-1,-1,-1,-1,-1,-1,-1,-1,-1,-1,-1,-1,-1,-1,-1],"loss_changes":[3.4976754E4,3.095164E3,1.0648713E4,9.0647656E2,1.698123E3,1.8821426E3,3.705746E3,1.0226658E3,7.308535E2,1.7319746E3,2.259699E3,1.5672551E3,1.1903464E3,1.7604761E3,2.0260098E3,0E0,0E0,0E0,0E0,0E0,0E0,0E0,0E0,0E0,0E0,0E0,0E0,0E0,0E0,0E0,0E0],"parents":[2147483647,0,0,1,1,2,2,3,3,4,4,5,5,6,6,7,7,8,8,9,9,10,10,11,11,12,12,13,13,14,14],"right_children":[2,4,6,8,10,12,14,16,18,20,22,24,26,28,30,-1,-1,-1,-1,-1,-1,-1,-1,-1,-1,-1,-1,-1,-1,-1,-1],"split_conditions":[-6.33938E1,-2.2171956E2,4.1524376E1,-2.6041666E-2,6.788397E-1,6.561E-1,3.3100963E-1,-2.5133753E0,3.4867844E-1,-8.055556E-1,2.4151165E-2,6.75E-2,-8.358309E-2,1.229108E-2,1.3581523E-1,-6.988764E-1,-1.317002E-1,-1.5988816E-1,-9.3035793E-1,4.0557858E-1,-3.0013555E-1,-1.2738739E-1,7.861628E-1,1.8564159E-2,2.7953497E-1,-3.0654123E-1,-5.5897553E-2,1.928506E-1,-6.7355946E-2,3.02383E-1,5.987522E-1],"split_indices":[1,1,1,29,6,36,34,19,36,28,29,20,25,16,35,0,0,0,0,0,0,0,0,0,0,0,0,0,0,0,0],"split_type":[0,0,0,0,0,0,0,0,0,0,0,0,0,0,0,0,0,0,0,0,0,0,0,0,0,0,0,0,0,0,0],"sum_hessian":[2.482E3,6.99E2,1.783E3,6.2E1,6.37E2,9.09E2,8.74E2,3.2E1,3E1,5.87E2,5E1,6.34E2,2.75E2,5.07E2,3.67E2,1.6E1,1.6E1,4E0,2.6E1,8E0,5.79E2,4.3E1,7E0,5.71E2,6.3E1,6E1,2.15E2,4.31E2,7.6E1,2.94E2,7.3E1],"tree_param":{"num_deleted":"0","num_feature":"37","num_nodes":"31","size_leaf_vector":"1"}},{"base_weights":[2.1872088E-1,-3.8646443E0,3.2139876E0,-5.7973685E0,-2.3158185E0,1.9424472E0,7.6722903E0,-8.700544E0,-4.053512E0,1.1849195E0,-3.2237356E0,-2.9629096E-1,3.437617E0,7.0197134E0,1.5346676E1,-4.836336E-1,1.12442926E-1,-2.1624218E-1,8.3156866E-1,-1.6536021E-1,1.8518732E-1,5.338147E-1,-1.730004E-1,-8.39631E-2,9.94296E-2,4.0733125E-2,2.2783986E-1,2.666698E-1,5.3321546E-1,1.4440249E-1,9.2366296E-1],"categories":[],"categories_nodes":[],"categories_segments":[],"categories_sizes":[],"default_left":[0,0,0,0,0,0,0,0,0,0,0,0,0,0,0,0,0,0,0,0,0,0,0,0,0,0,0,0,0,0,0],"id":4,"left_children":[1,3,5,7,9,11,13,15,17,19,21,23,25,27,29,-1,-1,-1,-1,-1,-1,-1,-1,-1,-1,-1,-1,-1,-1,-1,-1],"loss_changes":[3.0320264E4,3.126706E3,8.0916387E3,2.323961E3,1.8599937E3,3.7299038E3,1.4798477E3,1.8738477E3,1.7163765E3,1.3813499E3,1.5608062E3,1.4158268E3,1.9572402E3,1.7500303E3,8.8151904E2,0E0,0E0,0E0,0E0,0E0,0E0,0E0,0E0,0E0,0E0,0E0,0E0,0E0,0E0,0E0,0E0],"parents":[2147483647,0,0,1,1,2,2,3,3,4,4,5,5,6,6,7,7,8,8,9,9,10,10,11,11,12,12,13,13,14,14],"right_children":[2,4,6,8,10,12,14,16,18,20,22,24,26,28,30,-1,-1,-1,-1,-1,-1,-1,-1,-1,-1,-1,-1,-1,-1,-1,-1],"split_conditions":[-2.33307E1,-1.000714E2,1.2186753E2,-6.502727E0,-1.656056E0,-3.144522E-1,2.1239286E-2,1.6876587E0,1.45E1,0E0,-2E0,8.467553E-3,1.668271E1,2.1764576E0,-4.888889E-1,-4.836336E-1,1.12442926E-1,-2.1624218E-1,8.3156866E-1,-1.6536021E-1,1.8518732E-1,5.338147E-1,-1.730004E-1,-8.39631E-2,9.94296E-2,4.0733125E-2,2.2783986E-1,2.666698E-1,5.3321546E-1,1.4440249E-1,9.2366296E-1],"split_indices":[1,1,1,7,22,7,33,30,2,24,11,16,1,30,26,0,0,0,0,0,0,0,0,0,0,0,0,0,0,0,0],"split_type":[0,0,0,0,0,0,0,0,0,0,0,0,0,0,0,0,0,0,0,0,0,0,0,0,0,0,0,0,0,0,0],"sum_hessian":[2.477E3,1.048E3,1.429E3,4.65E2,5.83E2,1.113E3,3.16E2,1.73E2,2.92E2,1.2E2,4.63E2,4.46E2,6.67E2,2.93E2,2.3E1,1.59E2,1.4E1,2.89E2,3E0,4.3E1,7.7E1,7E0,4.56E2,2.78E2,1.68E2,2E2,4.67E2,2.02E2,9.1E1,5E0,1.8E1],"tree_param":{"num_deleted":"0","num_feature":"37","num_nodes":"31","size_leaf_vector":"1"}},{"base_weights":[-1.5811399E-1,-4.1093574E0,2.8486204E0,-5.9259324E0,-2.6161504E0,1.6205988E0,7.0067105E0,-1.0050638E1,-4.500617E0,-3.0377302E0,5.138273E0,7.2247386E-1,5.276282E0,-3.932242E0,7.5896277E0,3.9551088E-1,-5.4358846E-1,-1.7387871E-1,-4.3295398E-1,-1.18791394E-1,-3.6282894E-1,5.277323E-1,-2.834597E-1,4.535201E-2,-5.38612E-1,4.3731117E-1,1.7032045E-1,-5.28162E-1,3.5248235E-1,3.958656E-1,-2.070031E-1],"categories":[],"categories_nodes":[],"categories_segments":[],"categories_sizes":[],"default_left":[0,0,0,0,0,0,0,0,0,0,0,0,0,0,0,0,0,0,0,0,0,0,0,0,0,0,0,0,0,0,0],"id":5,"left_children":[1,3,5,7,9,11,13,15,17,19,21,23,25,27,29,-1,-1,-1,-1,-1,-1,-1,-1,-1,-1,-1,-1,-1,-1,-1,-1],"loss_changes":[2.9665033E4,2.9113086E3,7.2292725E3,2.811963E3,1.9574583E3,3.5946409E3,2.089454E3,1.9147754E3,1.5141929E3,1.5577104E3,1.8744922E3,1.8788445E3,1.37169E3,1.3124222E3,1.2127734E3,0E0,0E0,0E0,0E0,0E0,0E0,0E0,0E0,0E0,0E0,0E0,0E0,0E0,0E0,0E0,0E0],"parents":[2147483647,0,0,1,1,2,2,3,3,4,4,5,5,6,6,7,7,8,8,9,9,10,10,11,11,12,12,13,13,14,14],"right_children":[2,4,6,8,10,12,14,16,18,20,22,24,26,28,30,-1,-1,-1,-1,-1,-1,-1,-1,-1,-1,-1,-1,-1,-1,-1,-1],"split_conditions":[-2.33307E1,-1.000714E2,1.2002306E2,-1.09E0,2E0,7.656566E-1,-2.0413818E-2,-8.055556E-1,8.3333336E1,-3.198433E1,2E0,2.621693E-1,-8.0353E-3,3.4027778E-2,1.1E1,3.9551088E-1,-5.4358846E-1,-1.7387871E-1,-4.3295398E-1,-1.18791394E-1,-3.6282894E-1,5.277323E-1,-2.834597E-1,4.535201E-2,-5.38612E-1,4.3731117E-1,1.7032045E-1,-5.28162E-1,3.5248235E-1,3.958656E-1,-2.070031E-1],"split_indices":[1,1,1,9,15,6,17,28,5,1,12,27,33,20,3,0,0,0,0,0,0,0,0,0,0,0,0,0,0,0,0],"split_type":[0,0,0,0,0,0,0,0,0,0,0,0,0,0,0,0,0,0,0,0,0,0,0,0,0,0,0,0,0,0,0],"sum_hessian":[2.495E3,1.078E3,1.417E3,4.85E2,5.93E2,1.095E3,3.22E2,1.23E2,3.62E2,5.63E2,3E1,8.8E2,2.15E2,1.6E1,3.06E2,5E0,1.18E2,2.92E2,7E1,4.88E2,7.5E1,2E1,1E1,8.67E2,1.3E1,7.4E1,1.41E2,1E1,6E0,2.98E2,8E0],"tree_param":{"num_deleted":"0","num_feature":"37","num_nodes":"31","size_leaf_vector":"1"}},{"base_weights":[1.6739045E-1,-1.9808354E0,4.2324924E0,-4.4287276E0,-4.7381617E-2,2.3806548E0,6.1993513E0,-4.5629334E0,1.0266796E0,-9.4108343E-1,3.1902492E0,2.6482625E0,-1.7506878E1,4.5819907E0,9.105836E0,-4.9176198E-1,-2.0040968E-1,-1.4511783E-1,3.1515878E-2,7.3636734E-1,1.310486E-1,1.7999564E-1,-3.1858478E-2,-1.3332008E-1,-9.9708474E-1,-5.433896E-2,2.896242E-1,3.3465776E-1,6.897301E-1],"categories":[],"categories_nodes":[],"categories_segments":[],"categories_sizes":[],"default_left":[0,0,0,0,0,0,0,0,0,0,0,0,0,0,0,0,0,0,0,0,0,0,0,0,0,0,0,0,0],"id":6,"left_children":[1,3,5,7,9,11,13,15,-1,17,19,21,23,25,27,-1,-1,-1,-1,-1,-1,-1,-1,-1,-1,-1,-1,-1,-1],"loss_changes":[2.159576E4,7.6576E3,3.0994102E3,2.485664E3,2.6215986E3,2.3987117E3,1.9044229E3,2.040083E3,0E0,2.1900115E3,1.2486903E3,1.3686104E3,1.6363037E2,1.845313E3,1.5706074E3,0E0,0E0,0E0,0E0,0E0,0E0,0E0,0E0,0E0,0E0,0E0,0E0,0E0,0E0],"parents":[2147483647,0,0,1,1,2,2,3,3,4,4,5,5,6,6,7,7,9,9,10,10,11,11,12,12,13,13,14,14],"right_children":[2,4,6,8,10,12,14,16,-1,18,20,22,24,26,28,-1,-1,-1,-1,-1,-1,-1,-1,-1,-1,-1,-1,-1,-1],"split_conditions":[4.1524376E1,-6.33938E1,3.3333333E0,1.6333334E1,3.564815E-2,6.8333334E-1,1.4581465E2,-2.2171956E2,1.0266796E0,-8.262286E-3,-1.6E1,1.9444445E-1,-6.6666665E0,1.3513999E0,4.7551454E-3,-4.9176198E-1,-2.0040968E-1,-1.4511783E-1,3.1515878E-2,7.3636734E-1,1.310486E-1,1.7999564E-1,-3.1858478E-2,-1.3332008E-1,-9.9708474E-1,-5.433896E-2,2.896242E-1,3.3465776E-1,6.897301E-1],"split_indices":[1,1,2,2,20,28,1,1,0,34,3,28,2,30,33,0,0,0,0,0,0,0,0,0,0,0,0,0,0],"split_type":[0,0,0,0,0,0,0,0,0,0,0,0,0,0,0,0,0,0,0,0,0,0,0,0,0,0,0,0,0],"sum_hessian":[2.471E3,1.617E3,8.54E2,7.13E2,9.04E2,4.41E2,4.13E2,7.1E2,3E0,7.09E2,1.95E2,4.36E2,5E0,2.67E2,1.46E2,6.6E1,6.44E2,3.15E2,3.94E2,8E0,1.87E2,3.38E2,9.8E1,1E0,4E0,4.7E1,2.2E2,9.8E1,4.8E1],"tree_param":{"num_deleted":"0","num_feature":"37","num_nodes":"29","size_leaf_vector":"1"}},{"base_weights":[-1.471033E-1,-2.284851E0,3.7930837E0,-4.431185E0,-6.5620416E-1,1.8110412E0,6.037232E0,-1.1910425E1,-4.0397696E0,-1.5075504E0,1.9805773E0,2.8387787E0,-1.968589E0,2.1227028E0,6.8955975E0,-2.393651E-3,-7.2253454E-1,-2.0660737E-1,8.799545E-1,-3.1765085E-2,-2.3170976E-1,8.11459E-1,7.230781E-2,5.429704E-2,2.968928E-1,7.6597244E-1,-1.3306014E-1,1.8632363E-1,-2.2704037E-1,3.0682054E-1,7.347363E-1],"categories":[],"categories_nodes":[],"categories_segments":[],"categories_sizes":[],"default_left":[0,0,0,0,0,0,0,0,0,0,0,0,0,0,0,0,0,0,0,0,0,0,0,0,0,0,0,0,0,0,0],"id":7,"left_children":[1,3,5,7,9,11,13,15,17,19,21,23,25,27,29,-1,-1,-1,-1,-1,-1,-1,-1,-1,-1,-1,-1,-1,-1,-1,-1],"loss_changes":[2.0906441E4,5.621545E3,3.872168E3,1.9835605E3,2.0592354E3,1.8118657E3,1.3596436E3,1.02386523E3,1.3940244E3,1.8870138E3,1.6822351E3,1.98173E3,1.2381617E3,8.184263E2,1.8933584E3,0E0,0E0,0E0,0E0,0E0,0E0,0E0,0E0,0E0,0E0,0E0,0E0,0E0,0E0,0E0,0E0],"parents":[2147483647,0,0,1,1,2,2,3,3,4,4,5,5,6,6,7,7,8,8,9,9,10,10,11,11,12,12,13,13,14,14],"right_children":[2,4,6,8,10,12,14,16,18,20,22,24,26,28,30,-1,-1,-1,-1,-1,-1,-1,-1,-1,-1,-1,-1,-1,-1,-1,-1],"split_conditions":[4.1524376E1,-6.576075E1,3.2330078E-1,-1.3295972E0,5.115476E0,1.6637883E0,-1E1,-1.9166667E2,1.6333334E1,4.5333332E1,-6.3E1,1.0968309E2,-1.2666667E1,-2.3E1,2.2847934E2,-2.393651E-3,-7.2253454E-1,-2.0660737E-1,8.799545E-1,-3.1765085E-2,-2.3170976E-1,8.11459E-1,7.230781E-2,5.429704E-2,2.968928E-1,7.6597244E-1,-1.3306014E-1,1.8632363E-1,-2.2704037E-1,3.0682054E-1,7.347363E-1],"split_indices":[1,1,6,34,7,30,3,4,2,5,4,1,2,5,1,0,0,0,0,0,0,0,0,0,0,0,0,0,0,0,0],"split_type":[0,0,0,0,0,0,0,0,0,0,0,0,0,0,0,0,0,0,0,0,0,0,0,0,0,0,0,0,0,0,0],"sum_hessian":[2.48E3,1.608E3,8.72E2,6.93E2,9.15E2,4.64E2,4.08E2,3.3E1,6.6E2,6.92E2,2.23E2,3.65E2,9.9E1,7.4E1,3.34E2,6E0,2.7E1,6.58E2,2E0,5.42E2,1.5E2,7E0,2.16E2,2.34E2,1.31E2,3E0,9.6E1,6E1,1.4E1,3.06E2,2.8E1],"tree_param":{"num_deleted":"0","num_feature":"37","num_nodes":"31","size_leaf_vector":"1"}},{"base_weights":[-5.3623196E-2,-2.1467206E0,3.909338E0,-4.4876266E0,-7.731507E-1,1.9385314E0,5.7119236E0,-7.5185213E0,-2.8113644E0,-1.2480583E0,4.9721847E0,2.2565937E0,-1.428642E1,1.6671272E1,5.29085E0,9.3273956E-1,-3.8654885E-1,-1.5563846E-1,5.909554E-1,1.0392624E0,-6.8208806E-2,-8.77194E-2,4.4945106E-1,3.6135435E-1,6.987683E-2,-8.9664316E-1,-1.11569665E-1,1.1560881E0,4.5425707E-1,1.7345944E-1,3.808651E-1],"categories":[],"categories_nodes":[],"categories_segments":[],"categories_sizes":[],"default_left":[0,0,0,0,0,0,0,0,0,0,0,0,0,0,0,0,0,0,0,0,0,0,0,0,0,0,0,0,0,0,0],"id":8,"left_children":[1,3,5,7,9,11,13,15,17,19,21,23,25,27,29,-1,-1,-1,-1,-1,-1,-1,-1,-1,-1,-1,-1,-1,-1,-1,-1],"loss_changes":[2.047182E4,5.189399E3,3.019251E3,3.0119658E3,2.786551E3,2.1429019E3,1.9653301E3,1.3230801E3,1.7389319E3,2.4384226E3,2.123295E3,1.706415E3,3.1164844E2,5.728833E2,1.795918E3,0E0,0E0,0E0,0E0,0E0,0E0,0E0,0E0,0E0,0E0,0E0,0E0,0E0,0E0,0E0,0E0],"parents":[2147483647,0,0,1,1,2,2,3,3,4,4,5,5,6,6,7,7,8,8,9,9,10,10,11,11,12,12,13,13,14,14],"right_children":[2,4,6,8,10,12,14,16,18,20,22,24,26,28,30,-1,-1,-1,-1,-1,-1,-1,-1,-1,-1,-1,-1,-1,-1,-1,-1],"split_conditions":[4.1524376E1,-7.968289E1,1.4854872E-1,-6.502727E0,2E0,7.5E-1,-3.0219404E-2,-3.0219404E-2,2.8241953E-2,-1.78E2,-1.6111112E-1,-7.7333336E1,9.666667E0,-2.684137E-2,1.24679146E2,9.3273956E-1,-3.8654885E-1,-1.5563846E-1,5.909554E-1,1.0392624E0,-6.8208806E-2,-8.77194E-2,4.4945106E-1,3.6135435E-1,6.987683E-2,-8.9664316E-1,-1.11569665E-1,1.1560881E0,4.5425707E-1,1.7345944E-1,3.808651E-1],"split_indices":[1,1,34,7,15,28,33,33,17,4,26,5,5,29,1,0,0,0,0,0,0,0,0,0,0,0,0,0,0,0,0],"split_type":[0,0,0,0,0,0,0,0,0,0,0,0,0,0,0,0,0,0,0,0,0,0,0,0,0,0,0,0,0,0,0],"sum_hessian":[2.466E3,1.614E3,8.52E2,5.96E2,1.018E3,4.08E2,4.44E2,2.11E2,3.85E2,9.41E2,7.7E1,4.01E2,7E0,1.5E1,4.29E2,1E0,2.1E2,3.78E2,7E0,4E0,9.37E2,2.9E1,4.8E1,5.8E1,3.43E2,5E0,2E0,7E0,8E0,2.42E2,1.87E2],"tree_param":{"num_deleted":"0","num_feature":"37","num_nodes":"31","size_leaf_vector":"1"}},{"base_weights":[1.0209405E-2,-3.219526E0,2.3936188E0,-2.2544596E0,-5.8897667E0,1.3406442E0,5.3553996E0,-4.339078E0,-9.9899167E-1,5.980482E-1,-6.683395E0,-7.575019E-1,2.7563407E0,-3.2187612E0,6.066789E0,-3.8346577E-1,-1.2075446E-1,-7.281917E-2,3.8760677E-1,-4.611102E-1,2.856756E-1,-3.824261E-1,-1.1108197E-2,-2.3346774E-1,1.1287726E-3,1.9102834E-2,1.9557025E-1,-2.776116E-1,3.325791E-1,2.5048622E-1,4.9806014E-1],"categories":[],"categories_nodes":[],"categories_segments":[],"categories_sizes":[],"default_left":[0,0,0,0,0,0,0,0,0,0,0,0,0,0,0,0,0,0,0,0,0,0,0,0,0,0,0,0,0,0,0],"id":9,"left_children":[1,3,5,7,9,11,13,15,17,19,21,23,25,27,29,-1,-1,-1,-1,-1,-1,-1,-1,-1,-1,-1,-1,-1,-1,-1,-1],"loss_changes":[1.8890365E4,2.671912E3,4.3963955E3,2.0030361E3,1.4250977E3,3.1001504E3,2.2763691E3,1.8267915E3,1.9325833E3,1.6099806E3,1.532335E3,1.2848071E3,1.7070522E3,7.048637E2,1.3579902E3,0E0,0E0,0E0,0E0,0E0,0E0,0E0,0E0,0E0,0E0,0E0,0E0,0E0,0E0,0E0,0E0],"parents":[2147483647,0,0,1,1,2,2,3,3,4,4,5,5,6,6,7,7,8,8,9,9,10,10,11,11,12,12,13,13,14,14],"right_children":[2,4,6,8,10,12,14,16,18,20,22,24,26,28,30,-1,-1,-1,-1,-1,-1,-1,-1,-1,-1,-1,-1,-1,-1,-1,-1],"split_conditions":[-2.33307E1,7.6666665E0,1.0968309E2,-4.837607E0,-8.1338733E-1,-3.144522E-1,-1.3261556E-2,-1.3043028E2,1.6666666E0,-1.0733334E0,9.2400675E0,-1.31E0,1.668271E1,3.4166667E-1,2.888889E-1,-3.8346577E-1,-1.2075446E-1,-7.281917E-2,3.8760677E-1,-4.611102E-1,2.856756E-1,-3.824261E-1,-1.1108197E-2,-2.3346774E-1,1.1287726E-3,1.9102834E-2,1.9557025E-1,-2.776116E-1,3.325791E-1,2.5048622E-1,4.9806014E-1],"split_indices":[1,3,1,7,22,7,17,1,12,9,7,9,1,26,26,0,0,0,0,0,0,0,0,0,0,0,0,0,0,0,0],"split_type":[0,0,0,0,0,0,0,0,0,0,0,0,0,0,0,0,0,0,0,0,0,0,0,0,0,0,0,0,0,0,0],"sum_hessian":[2.452E3,1.041E3,1.411E3,7.66E2,2.75E2,1.042E3,3.69E2,2.87E2,4.79E2,3E1,2.45E2,4.2E2,6.22E2,2.8E1,3.41E2,1.04E2,1.83E2,4.56E2,2.3E1,1E1,2E1,2.13E2,3.2E1,6.9E1,3.51E2,2.04E2,4.18E2,2.3E1,5E0,2.7E2,7.1E1],"tree_param":{"num_deleted":"0","num_feature":"37","num_nodes":"31","size_leaf_vector":"1"}},{"base_weights":[6.484244E-2,-9.8364955E-1,4.66461E0,-3.9460483E0,4.7418214E-2,5.6422315E0,-9.529668E-2,-8.197293E0,-3.0565057E0,1.1461747E0,-1.5202433E0,-2.247106E0,6.1402836E0,4.556048E0,-3.260142E0,3.899604E-2,-5.340291E-1,-2.0697854E-1,2.9981742E-2,1.4433372E-2,2.1725102E-1,-9.011961E-2,3.425474E-1,4.2188808E-1,-3.2572874E-1,4.5699206E-1,2.354187E-1,4.0557E-1,2.46867E-2,-4.66877E-3,-5.358997E-1],"categories":[],"categories_nodes":[],"categories_segments":[],"categories_sizes":[],"default_left":[0,0,0,0,0,0,0,0,0,0,0,0,0,0,0,0,0,0,0,0,0,0,0,0,0,0,0,0,0,0,0],"id":10,"left_children":[1,3,5,7,9,11,13,15,17,19,21,23,25,27,29,-1,-1,-1,-1,-1,-1,-1,-1,-1,-1,-1,-1,-1,-1,-1,-1],"loss_changes":[1.1743331E4,6.057129E3,2.1038682E3,1.9111562E3,2.5372302E3,1.4872861E3,1.1630748E3,1.9701157E3,1.6854133E3,2.3742126E3,1.446035E3,1.1037072E3,1.4731357E3,4.5816974E2,1.1090112E3,0E0,0E0,0E0,0E0,0E0,0E0,0E0,0E0,0E0,0E0,0E0,0E0,0E0,0E0,0E0,0E0],"parents":[2147483647,0,0,1,1,2,2,3,3,4,4,5,5,6,6,7,7,8,8,9,9,10,10,11,11,12,12,13,13,14,14],"right_children":[2,4,6,8,10,12,14,16,18,20,22,24,26,28,30,-1,-1,-1,-1,-1,-1,-1,-1,-1,-1,-1,-1,-1,-1,-1,-1],"split_conditions":[7.118687E-1,-5.002101E-1,7.3333335E0,-9.2929296E-2,3.3333334E-1,6.04073E-2,9.066667E-1,-1.656056E0,1.0578425E-2,3.0666666E1,3.3425007E-2,-2.1333334E-1,-8.771413E-3,5.9049E-1,1.8333334E-1,3.899604E-2,-5.340291E-1,-2.0697854E-1,2.9981742E-2,1.4433372E-2,2.1725102E-1,-9.011961E-2,3.425474E-1,4.2188808E-1,-3.2572874E-1,4.5699206E-1,2.354187E-1,4.0557E-1,2.46867E-2,-4.66877E-3,-5.358997E-1],"split_indices":[6,34,3,27,3,18,9,22,17,4,16,9,33,36,26,0,0,0,0,0,0,0,0,0,0,0,0,0,0,0,0],"split_type":[0,0,0,0,0,0,0,0,0,0,0,0,0,0,0,0,0,0,0,0,0,0,0,0,0,0,0,0,0,0,0],"sum_hessian":[2.433E3,1.982E3,4.51E2,5.11E2,1.471E3,3.74E2,7.7E1,8.7E1,4.24E2,8.65E2,6.06E2,2.2E1,3.52E2,3.1E1,4.6E1,1.9E1,6.8E1,3.27E2,9.7E1,6.83E2,1.82E2,5.87E2,1.9E1,6E0,1.6E1,1.12E2,2.4E2,1.6E1,1.5E1,3.3E1,1.3E1],"tree_param":{"num_deleted":"0","num_feature":"37","num_nodes":"31","size_leaf_vector":"1"}},{"base_weights":[-3.0908683E-1,-3.2725127E0,2.1078098E0,-9.556056E0,-2.838306E0,1.5577742E0,7.507697E0,-7.709992E0,-1.4563356E1,8.727572E0,-3.016949E0,7.663142E-1,4.255636E0,9.212571E0,2.4755454E0,-2.2460683E-1,-6.94807E-1,3.1150278E-1,-8.7759554E-1,-1.5601688E-3,8.745124E-1,-1.8674652E-1,1.0280195E-3,-1.8443836E-1,5.672971E-2,1.4020483E-1,4.544044E-1,3.7502623E-1,1.0071921E0,-8.199938E-2,6.052635E-1],"categories":[],"categories_nodes":[],"categories_segments":[],"categories_sizes":[],"default_left":[0,0,0,0,0,0,0,0,0,0,0,0,0,0,0,0,0,0,0,0,0,0,0,0,0,0,0,0,0,0,0],"id":11,"left_children":[1,3,5,7,9,11,13,15,17,19,21,23,25,27,29,-1,-1,-1,-1,-1,-1,-1,-1,-1,-1,-1,-1,-1,-1,-1,-1],"loss_changes":[1.7618979E4,2.987712E3,4.0128306E3,5.4402686E2,2.1648076E3,2.6252312E3,1.0495923E3,1.01250757E3,1.2279102E3,1.2285508E3,2.2245703E3,1.5677887E3,1.9315605E3,1.5893911E3,1.3276903E3,0E0,0E0,0E0,0E0,0E0,0E0,0E0,0E0,0E0,0E0,0E0,0E0,0E0,0E0,0E0,0E0],"parents":[2147483647,0,0,1,1,2,2,3,3,4,4,5,5,6,6,7,7,8,8,9,9,10,10,11,11,12,12,13,13,14,14],"right_children":[2,4,6,8,10,12,14,16,18,20,22,24,26,28,30,-1,-1,-1,-1,-1,-1,-1,-1,-1,-1,-1,-1,-1,-1,-1,-1],"split_conditions":[-1.5459258E1,-2.2171956E2,1.4766667E0,8.888889E-2,-1.78E2,1.2002306E2,1.75E1,3.3333334E-1,-3.1111112E-1,-1.03895515E2,6.340827E-2,-1.31E0,3.0555555E-1,1.7069268E-1,1.8213362E0,-2.2460683E-1,-6.94807E-1,3.1150278E-1,-8.7759554E-1,-1.5601688E-3,8.745124E-1,-1.8674652E-1,1.0280195E-3,-1.8443836E-1,5.672971E-2,1.4020483E-1,4.544044E-1,3.7502623E-1,1.0071921E0,-8.199938E-2,6.052635E-1],"split_indices":[1,1,9,32,4,1,2,23,28,1,25,9,26,35,34,0,0,0,0,0,0,0,0,0,0,0,0,0,0,0,0],"split_type":[0,0,0,0,0,0,0,0,0,0,0,0,0,0,0,0,0,0,0,0,0,0,0,0,0,0,0,0,0,0,0],"sum_hessian":[2.458E3,1.104E3,1.354E3,7E1,1.034E3,1.23E3,1.24E2,5.3E1,1.7E1,1.5E1,1.019E3,9.52E2,2.78E2,9.2E1,3.2E1,3.6E1,1.7E1,2E0,1.5E1,8E0,7E0,8.24E2,1.95E2,7.2E1,8.8E2,2.15E2,6.3E1,8.1E1,1.1E1,2.3E1,9E0],"tree_param":{"num_deleted":"0","num_feature":"37","num_nodes":"31","size_leaf_vector":"1"}},{"base_weights":[1.7404261E-1,-9.3525326E-1,2.3085103E0,-5.1926827E0,-4.287488E-1,3.0245755E0,-3.0635822E0,-6.109092E0,1.4471899E1,6.0449097E-2,-3.1338675E0,3.4369645E-1,3.9064598E0,-4.208195E0,6.5799403E0,-3.4435403E-1,1.09089985E-1,9.323036E-1,6.497937E-2,-1.203099E-2,1.8363199E-1,-1.9513959E-1,2.22415E-1,1.1369746E-1,-1.4437465E-1,-2.6368275E-1,2.075306E-1,2.5105292E-1,-2.584921E-1,-1.1281176E-1,5.975751E-1],"categories":[],"categories_nodes":[],"categories_segments":[],"categories_sizes":[],"default_left":[0,0,0,0,0,0,0,0,0,0,0,0,0,0,0,0,0,0,0,0,0,0,0,0,0,0,0,0,0,0,0],"id":12,"left_children":[1,3,5,7,9,11,13,15,17,19,21,23,25,27,29,-1,-1,-1,-1,-1,-1,-1,-1,-1,-1,-1,-1,-1,-1,-1,-1],"loss_changes":[5.85762E3,3.508404E3,3.2636323E3,3.2060107E3,1.9269698E3,1.7647334E3,1.1314998E3,1.0857632E3,4.15636E2,1.3428811E3,1.3174761E3,1.1666503E3,1.2815244E3,8.24734E2,5.4907007E2,0E0,0E0,0E0,0E0,0E0,0E0,0E0,0E0,0E0,0E0,0E0,0E0,0E0,0E0,0E0,0E0],"parents":[2147483647,0,0,1,1,2,2,3,3,4,4,5,5,6,6,7,7,8,8,9,9,10,10,11,11,12,12,13,13,14,14],"right_children":[2,4,6,8,10,12,14,16,18,20,22,24,26,28,30,-1,-1,-1,-1,-1,-1,-1,-1,-1,-1,-1,-1,-1,-1,-1,-1],"split_conditions":[1.4854872E-1,-9.888419E-1,1.0666667E1,2.4014551E-2,7.6666665E0,-6.380576E-2,1.7539683E-1,2E0,-1.1666667E1,4.722222E-1,5.3666668E1,-9.9509485E-2,-1.4101353E-1,-4.0314686E-1,-1.3795649E-1,-3.4435403E-1,1.09089985E-1,9.323036E-1,6.497937E-2,-1.203099E-2,1.8363199E-1,-1.9513959E-1,2.22415E-1,1.1369746E-1,-1.4437465E-1,-2.6368275E-1,2.075306E-1,2.5105292E-1,-2.584921E-1,-1.1281176E-1,5.975751E-1],"split_indices":[34,34,3,17,3,35,25,11,3,26,4,35,18,31,31,0,0,0,0,0,0,0,0,0,0,0,0,0,0,0,0],"split_type":[0,0,0,0,0,0,0,0,0,0,0,0,0,0,0,0,0,0,0,0,0,0,0,0,0,0,0,0,0,0,0],"sum_hessian":[2.472E3,1.627E3,8.45E2,1.72E2,1.455E3,7.46E2,9.9E1,1.65E2,7E0,1.233E3,2.22E2,1.85E2,5.61E2,8.9E1,1E1,1.51E2,1.4E1,5E0,2E0,1.139E3,9.4E1,2.02E2,2E1,1.16E2,6.9E1,1.4E1,5.47E2,8E0,8.1E1,4E0,6E0],"tree_param":{"num_deleted":"0","num_feature":"37","num_nodes":"31","size_leaf_vector":"1"}},{"base_weights":[-2.9774293E-1,-2.1628642E0,3.1697862E0,-4.603102E0,-1.1690935E0,2.5007327E0,7.0739913E0,-7.3272977E0,-2.9936986E0,-1.5692533E0,3.5920064E0,2.66151E0,-1.0853696E1,5.0763535E0,1.3580699E1,-3.9635703E-1,1.0864357E-1,-1.1338589E-1,-3.380355E-1,7.7486366E-1,-8.4076785E-2,6.555421E-1,1.1105653E-1,6.382912E-2,2.0406325E-1,-8.340022E-1,2.9962484E-2,1.591117E-1,6.152154E-1,9.6333677E-1,1.9599605E-1],"categories":[],"categories_nodes":[],"categories_segments":[],"categories_sizes":[],"default_left":[0,0,0,0,0,0,0,0,0,0,0,0,0,0,0,0,0,0,0,0,0,0,0,0,0,0,0,0,0,0,0],"id":13,"left_children":[1,3,5,7,9,11,13,15,17,19,21,23,25,27,29,-1,-1,-1,-1,-1,-1,-1,-1,-1,-1,-1,-1,-1,-1,-1,-1],"loss_changes":[1.5994176E4,3.8940786E3,2.241796E3,2.0167773E3,2.185187E3,1.6177344E3,1.568813E3,9.9738574E2,7.8869336E2,2.049639E3,1.1322528E3,1.4340908E3,6.105552E2,1.3025249E3,1.5174902E3,0E0,0E0,0E0,0E0,0E0,0E0,0E0,0E0,0E0,0E0,0E0,0E0,0E0,0E0,0E0,0E0],"parents":[2147483647,0,0,1,1,2,2,3,3,4,4,5,5,6,6,7,7,8,8,9,9,10,10,11,11,12,12,13,13,14,14],"right_children":[2,4,6,8,10,12,14,16,18,20,22,24,26,28,30,-1,-1,-1,-1,-1,-1,-1,-1,-1,-1,-1,-1,-1,-1,-1,-1],"split_conditions":[4.1524376E1,-9.825549E1,1.7827632E2,-6.502727E0,2E0,2.6666667E0,2.383116E0,1.8214453E-2,4.285897E-2,-1.78E2,-8.6896695E-2,2.642748E-2,1.3411997E-1,1.9053062E0,1.05333336E2,-3.9635703E-1,1.0864357E-1,-1.1338589E-1,-3.380355E-1,7.7486366E-1,-8.4076785E-2,6.555421E-1,1.1105653E-1,6.382912E-2,2.0406325E-1,-8.340022E-1,2.9962484E-2,1.591117E-1,6.152154E-1,9.6333677E-1,1.9599605E-1],"split_indices":[1,1,1,7,15,12,30,17,20,4,8,8,35,19,4,0,0,0,0,0,0,0,0,0,0,0,0,0,0,0,0],"split_type":[0,0,0,0,0,0,0,0,0,0,0,0,0,0,0,0,0,0,0,0,0,0,0,0,0,0,0,0,0,0,0],"sum_hessian":[2.471E3,1.607E3,8.64E2,4.64E2,1.143E3,7.39E2,1.25E2,1.71E2,2.93E2,1.055E3,8.8E1,7.31E2,8E0,9.7E1,2.8E1,1.61E2,1E1,2.47E2,4.6E1,6E0,1.049E3,1E1,7.8E1,3.71E2,3.6E2,5E0,3E0,7.8E1,1.9E1,1.7E1,1.1E1],"tree_param":{"num_deleted":"0","num_feature":"37","num_nodes":"31","size_leaf_vector":"1"}},{"base_weights":[-3.9971042E-2,-2.648654E0,1.8329573E0,-4.5142393E0,-1.1970121E0,9.8923457E-1,4.664469E0,-8.076853E0,-3.161881E0,-1.6809568E0,6.0029545E0,-8.709209E-1,1.777703E0,-2.2934866E0,5.4168034E0,-5.166547E-1,-1.6286573E-1,-1.700487E-1,6.529668E-1,6.497976E-1,-9.4744176E-2,8.672496E-1,1.1380068E-1,1.9874739E-2,-2.0920761E-1,9.797802E-2,-3.5255933E-1,-4.4660488E-1,9.626716E-2,2.9531047E-1,-2.1215157E-1],"categories":[],"categories_nodes":[],"categories_segments":[],"categories_sizes":[],"default_left":[0,0,0,0,0,0,0,0,0,0,0,0,0,0,0,0,0,0,0,0,0,0,0,0,0,0,0,0,0,0,0],"id":14,"left_children":[1,3,5,7,9,11,13,15,17,19,21,23,25,27,29,-1,-1,-1,-1,-1,-1,-1,-1,-1,-1,-1,-1,-1,-1,-1,-1],"loss_changes":[1.2112056E4,2.800253E3,3.4427275E3,2.1569844E3,2.0449722E3,1.6339564E3,1.7451133E3,1.3147227E3,1.3242778E3,1.7452263E3,1.5245531E3,1.3969111E3,1.2693948E3,9.414339E2,1.4386074E3,0E0,0E0,0E0,0E0,0E0,0E0,0E0,0E0,0E0,0E0,0E0,0E0,0E0,0E0,0E0,0E0],"parents":[2147483647,0,0,1,1,2,2,3,3,4,4,5,5,6,6,7,7,8,8,9,9,10,10,11,11,12,12,13,13,14,14],"right_children":[2,4,6,8,10,12,14,16,18,20,22,24,26,28,30,-1,-1,-1,-1,-1,-1,-1,-1,-1,-1,-1,-1,-1,-1,-1,-1],"split_conditions":[-2.33307E1,-1.000714E2,1.2002306E2,-7.9E1,2E0,-3.2019E0,-1.3261556E-2,-2.5E-1,1.1764102E0,-1.78E2,-5.1E1,6.666667E-1,1.58E2,4.707792E-2,2.5462455E-1,-5.166547E-1,-1.6286573E-1,-1.700487E-1,6.529668E-1,6.497976E-1,-9.4744176E-2,8.672496E-1,1.1380068E-1,1.9874739E-2,-2.0920761E-1,9.797802E-2,-3.5255933E-1,-4.4660488E-1,9.626716E-2,2.9531047E-1,-2.1215157E-1],"split_indices":[1,1,1,4,15,7,17,31,34,4,5,23,4,25,25,0,0,0,0,0,0,0,0,0,0,0,0,0,0,0,0],"split_type":[0,0,0,0,0,0,0,0,0,0,0,0,0,0,0,0,0,0,0,0,0,0,0,0,0,0,0,0,0,0,0],"sum_hessian":[2.477E3,1.035E3,1.442E3,4.52E2,5.83E2,1.112E3,3.3E2,1.23E2,3.29E2,5.47E2,3.6E1,3.31E2,7.81E2,3.2E1,2.98E2,8.3E1,4E1,3.25E2,4E0,7E0,5.4E2,8E0,2.8E1,2.4E2,9.1E1,7.66E2,1.5E1,1.2E1,2E1,2.84E2,1.4E1],"tree_param":{"num_deleted":"0","num_feature":"37","num_nodes":"31","size_leaf_vector":"1"}},{"base_weights":[9.9881925E-2,-2.5892086E0,2.0587401E0,-1.1932393E1,-2.3400831E0,1.1516023E0,4.498082E0,-1.45478115E1,-3.5379255E-1,-2.6113837E0,4.392409E0,-1.1849825E0,2.1852994E0,-2.7738404E0,5.2681527E0,-9.787987E-1,-4.7804663E-1,2.5007722E-1,-3.6881554E-1,8.472268E-1,-1.3442302E-1,4.0369424E-1,-5.3167284E-2,-6.6699093E-4,-2.1568249E-1,1.0258764E-1,7.83329E-1,5.814536E-1,-2.6542482E-1,2.896994E-1,-2.9323606E-2],"categories":[],"categories_nodes":[],"categories_segments":[],"categories_sizes":[],"default_left":[0,0,0,0,0,0,0,0,0,0,0,0,0,0,0,0,0,0,0,0,0,0,0,0,0,0,0,0,0,0,0],"id":15,"left_children":[1,3,5,7,9,11,13,15,17,19,21,23,25,27,29,-1,-1,-1,-1,-1,-1,-1,-1,-1,-1,-1,-1,-1,-1,-1,-1],"loss_changes":[1.3110987E4,2.4137544E3,3.1812793E3,8.124912E2,1.8800083E3,2.5410923E3,2.1985728E3,3.6448193E2,2.6254068E2,1.5287446E3,8.1199426E2,1.183957E3,1.2803335E3,1.4489769E3,1.0901318E3,0E0,0E0,0E0,0E0,0E0,0E0,0E0,0E0,0E0,0E0,0E0,0E0,0E0,0E0,0E0,0E0],"parents":[2147483647,0,0,1,1,2,2,3,3,4,4,5,5,6,6,7,7,8,8,9,9,10,10,11,11,12,12,13,13,14,14],"right_children":[2,4,6,8,10,12,14,16,18,20,22,24,26,28,30,-1,-1,-1,-1,-1,-1,-1,-1,-1,-1,-1,-1,-1,-1,-1,-1],"split_conditions":[-2.33307E1,-2.5582773E2,1.0968309E2,-9.605848E-2,1.0396345E0,-3.2019E0,-1.2240537E-2,-5E-1,1.6687252E-2,-1.7666666E1,6.666667E-2,6.666667E-1,3.6006127E-2,-6.605563E-2,2.4057844E-1,-9.787987E-1,-4.7804663E-1,2.5007722E-1,-3.6881554E-1,8.472268E-1,-1.3442302E-1,4.0369424E-1,-5.3167284E-2,-6.6699093E-4,-2.1568249E-1,1.0258764E-1,7.83329E-1,5.814536E-1,-2.6542482E-1,2.896994E-1,-2.9323606E-2],"split_indices":[1,1,1,8,6,7,17,12,8,3,32,23,17,34,21,0,0,0,0,0,0,0,0,0,0,0,0,0,0,0,0],"split_type":[0,0,0,0,0,0,0,0,0,0,0,0,0,0,0,0,0,0,0,0,0,0,0,0,0,0,0,0,0,0,0],"sum_hessian":[2.487E3,1.048E3,1.439E3,2.6E1,1.022E3,1.05E3,3.89E2,2.1E1,5E0,9.83E2,3.9E1,3.22E2,7.28E2,3.7E1,3.52E2,9E0,1.2E1,3E0,2E0,3E0,9.8E2,2.3E1,1.6E1,2.35E2,8.7E1,7.22E2,6E0,5E0,3.2E1,3.23E2,2.9E1],"tree_param":{"num_deleted":"0","num_feature":"37","num_nodes":"31","size_leaf_vector":"1"}},{"base_weights":[7.5150676E-2,-1.3957393E0,2.817605E0,-3.4776447E0,-5.134634E-1,1.5592496E0,4.3157988E0,-4.356196E0,1.4514955E0,-8.2063335E-1,3.410241E0,2.3434124E0,-2.662215E0,7.365258E-1,5.4295497E0,-3.4403342E-1,-1.4069949E-1,4.0230467E-3,4.971932E-1,-7.42201E-2,4.0689167E-2,7.2056556E-1,1.0874259E-1,-1.4949039E-1,1.446334E-1,-2.0353512E-1,5.5996686E-1,-8.4352694E-2,3.071645E-1,5.126513E-1,1.8986335E-1],"categories":[],"categories_nodes":[],"categories_segments":[],"categories_sizes":[],"default_left":[0,0,0,0,0,0,0,0,0,0,0,0,0,0,0,0,0,0,0,0,0,0,0,0,0,0,0,0,0,0,0],"id":16,"left_children":[1,3,5,7,9,11,13,15,17,19,21,23,25,27,29,-1,-1,-1,-1,-1,-1,-1,-1,-1,-1,-1,-1,-1,-1,-1,-1],"loss_changes":[9.810218E3,2.9058926E3,1.5938564E3,2.0459893E3,1.3442352E3,1.5389148E3,1.5387461E3,1.53794E3,8.375197E2,1.1218833E3,1.0694965E3,1.1540054E3,1.4708279E3,1.2290103E3,2.2836836E3,0E0,0E0,0E0,0E0,0E0,0E0,0E0,0E0,0E0,0E0,0E0,0E0,0E0,0E0,0E0,0E0],"parents":[2147483647,0,0,1,1,2,2,3,3,4,4,5,5,6,6,7,7,8,8,9,9,10,10,11,11,12,12,13,13,14,14],"right_children":[2,4,6,8,10,12,14,16,18,20,22,24,26,28,30,-1,-1,-1,-1,-1,-1,-1,-1,-1,-1,-1,-1,-1,-1,-1,-1],"split_conditions":[4.2721657E1,-9.825549E1,2.8E1,1.5741353E0,2E0,1.0107866E-2,-4.866667E0,-1E-1,4.884005E-2,4.179894E-2,-3.3402148E-1,-1.5212108E-2,4.6161616E-1,1.3411997E-1,-6.5E0,-3.4403342E-1,-1.4069949E-1,4.0230467E-3,4.971932E-1,-7.42201E-2,4.0689167E-2,7.2056556E-1,1.0874259E-1,-1.4949039E-1,1.446334E-1,-2.0353512E-1,5.5996686E-1,-8.4352694E-2,3.071645E-1,5.126513E-1,1.8986335E-1],"split_indices":[1,1,4,19,15,16,14,32,27,25,18,17,6,35,3,0,0,0,0,0,0,0,0,0,0,0,0,0,0,0,0],"split_type":[0,0,0,0,0,0,0,0,0,0,0,0,0,0,0,0,0,0,0,0,0,0,0,0,0,0,0,0,0,0,0],"sum_hessian":[2.43E3,1.582E3,8.48E2,4.7E2,1.112E3,4.62E2,3.86E2,3.99E2,7.1E1,1.032E3,8E1,3.9E2,7.2E1,9.2E1,2.94E2,1.5E2,2.49E2,6.2E1,9E0,7.34E2,2.98E2,7E0,7.3E1,3.6E1,3.54E2,6.6E1,6E0,6.4E1,2.8E1,7.3E1,2.21E2],"tree_param":{"num_deleted":"0","num_feature":"37","num_nodes":"31","size_leaf_vector":"1"}},{"base_weights":[8.241286E-2,-2.0857496E0,1.63387E0,-2.8011825E0,7.003842E-1,6.917007E-1,3.6983318E0,-3.0792851E0,4.804183E0,6.9644475E0,-7.7763295E-1,-4.3466444E0,1.0666083E0,2.077245E1,3.4576447E0,-1.416018E-1,-5.958022E-1,7.4996036E-1,-1.1296993E-1,8.297717E-1,1.8165092E-1,7.369742E-2,-1.9313784E-1,1.8822424E-1,-3.5620838E-1,2.8340926E-2,1.9448745E-1,1.1794864E0,1.671514E-1,1.7708845E-2,2.5525662E-1],"categories":[],"categories_nodes":[],"categories_segments":[],"categories_sizes":[],"default_left":[0,0,0,0,0,0,0,0,0,0,0,0,0,0,0,0,0,0,0,0,0,0,0,0,0,0,0,0,0,0,0],"id":17,"left_children":[1,3,5,7,9,11,13,15,17,19,21,23,25,27,29,-1,-1,-1,-1,-1,-1,-1,-1,-1,-1,-1,-1,-1,-1,-1,-1],"loss_changes":[8.217834E3,2.0331265E3,2.767225E3,1.7301177E3,1.9404198E3,1.8538828E3,1.7610225E3,1.6770156E3,2.1222773E3,1.2231063E3,1.1865828E3,1.5587806E3,1.2846062E3,2.1576001E2,2.2529912E3,0E0,0E0,0E0,0E0,0E0,0E0,0E0,0E0,0E0,0E0,0E0,0E0,0E0,0E0,0E0,0E0],"parents":[2147483647,0,0,1,1,2,2,3,3,4,4,5,5,6,6,7,7,8,8,9,9,10,10,11,11,12,12,13,13,14,14],"right_children":[2,4,6,8,10,12,14,16,18,20,22,24,26,28,30,-1,-1,-1,-1,-1,-1,-1,-1,-1,-1,-1,-1,-1,-1,-1,-1],"split_conditions":[-2.33307E1,1.1980422E0,3.4027778E-2,2.5E0,-1.0706409E0,-2.0978853E-2,-3.3402346E-2,1.65E1,-1.8666666E1,-4.38523E-3,1.1666667E-1,-2.9114861E-2,6.915084E-1,9.3191734E1,1.0414423E-3,-1.416018E-1,-5.958022E-1,7.4996036E-1,-1.1296993E-1,8.297717E-1,1.8165092E-1,7.369742E-2,-1.9313784E-1,1.8822424E-1,-3.5620838E-1,2.8340926E-2,1.9448745E-1,1.1794864E0,1.671514E-1,1.7708845E-2,2.5525662E-1],"split_indices":[1,19,20,23,22,17,33,3,4,16,32,33,34,1,17,0,0,0,0,0,0,0,0,0,0,0,0,0,0,0,0],"split_type":[0,0,0,0,0,0,0,0,0,0,0,0,0,0,0,0,0,0,0,0,0,0,0,0,0,0,0,0,0,0,0],"sum_hessian":[2.441E3,1.018E3,1.423E3,8.1E2,2.08E2,9.78E2,4.45E2,7.82E2,2.8E1,3.9E1,1.69E2,6.7E1,9.11E2,5E0,4.4E2,7.62E2,2E1,1.1E1,1.7E1,9E0,3E1,9.8E1,7.1E1,1.7E1,5E1,7.75E2,1.36E2,4E0,1E0,1.53E2,2.87E2],"tree_param":{"num_deleted":"0","num_feature":"37","num_nodes":"31","size_leaf_vector":"1"}},{"base_weights":[-9.1085896E-2,-1.4708889E0,2.594798E0,-3.8207958E0,-7.2544324E-1,-4.082792E0,2.915883E0,3.6980257E0,-4.1905746E0,-9.6987927E-1,4.5764527E0,9.85842E-1,-1.1430568E1,2.146471E0,4.9837584E0,3.109781E-1,-3.6563128E-1,-3.632227E-1,-1.6060196E-1,-5.4145128E-2,3.9779055E-1,6.6946507E-1,7.649368E-2,4.6895385E-1,-1.898484E-1,-6.77964E-1,1.1568033E-1,6.7040555E-2,2.833624E-1,1.597442E-1,4.5589104E-1],"categories":[],"categories_nodes":[],"categories_segments":[],"categories_sizes":[],"default_left":[0,0,0,0,0,0,0,0,0,0,0,0,0,0,0,0,0,0,0,0,0,0,0,0,0,0,0,0,0,0,0],"id":18,"left_children":[1,3,5,7,9,11,13,15,17,19,21,23,25,27,29,-1,-1,-1,-1,-1,-1,-1,-1,-1,-1,-1,-1,-1,-1,-1,-1],"loss_changes":[9.183556E3,2.8648062E3,1.8150698E3,1.1109355E3,1.6166306E3,1.4637529E3,1.266915E3,5.729927E2,1.1076367E3,1.2091012E3,1.4562135E3,9.990499E2,4.99489E2,1.6574551E3,1.5756533E3,0E0,0E0,0E0,0E0,0E0,0E0,0E0,0E0,0E0,0E0,0E0,0E0,0E0,0E0,0E0,0E0],"parents":[2147483647,0,0,1,1,2,2,3,3,4,4,5,5,6,6,7,7,8,8,9,9,10,10,11,11,12,12,13,13,14,14],"right_children":[2,4,6,8,10,12,14,16,18,20,22,24,26,28,30,-1,-1,-1,-1,-1,-1,-1,-1,-1,-1,-1,-1,-1,-1,-1,-1],"split_conditions":[4.1524376E1,-1.1261763E2,-1.31E0,-6.111111E-1,2.603496E0,1E0,1.8009565E0,1E0,-8.9962584E-1,1.4333333E-1,-6.666667E-1,-1.67E0,-5.902778E-1,3.1111112E-1,7.29E-1,3.109781E-1,-3.6563128E-1,-3.632227E-1,-1.6060196E-1,-5.4145128E-2,3.9779055E-1,6.6946507E-1,7.649368E-2,4.6895385E-1,-1.898484E-1,-6.77964E-1,1.1568033E-1,6.7040555E-2,2.833624E-1,1.597442E-1,4.5589104E-1],"split_indices":[1,1,9,32,30,11,19,15,34,20,11,9,6,26,36,0,0,0,0,0,0,0,0,0,0,0,0,0,0,0,0],"split_type":[0,0,0,0,0,0,0,0,0,0,0,0,0,0,0,0,0,0,0,0,0,0,0,0,0,0,0,0,0,0,0],"sum_hessian":[2.476E3,1.636E3,8.4E2,3.93E2,1.243E3,3.8E1,8.02E2,1.8E1,3.75E2,1.189E3,5.4E1,2.3E1,1.5E1,5.86E2,2.16E2,1.5E1,3E0,8.9E1,2.86E2,1.175E3,1.4E1,1.3E1,4.1E1,8E0,1.5E1,1.3E1,2E0,4.78E2,1.08E2,1.52E2,6.4E1],"tree_param":{"num_deleted":"0","num_feature":"37","num_nodes":"31","size_leaf_vector":"1"}},{"base_weights":[3.0690797E-2,-1.1470051E0,2.240908E0,-1.6284788E0,2.9638119E0,-1.1081336E1,2.3643837E0,-7.5821695E0,-1.3123183E0,4.6889343E0,-1.8557215E0,2.1127406E-1,-6.9358325E-1,1.8658044E0,5.0433326E0,-1.1888861E-1,-4.636468E-1,-5.4615077E-2,-3.1181398E-1,3.3214664E-1,-3.3939727E-2,-1.9416296E-1,4.003524E-1,1.04784004E-1,-2.7300438E-1,4.3834712E-2,3.8703442E-1],"categories":[],"categories_nodes":[],"categories_segments":[],"categories_sizes":[],"default_left":[0,0,0,0,0,0,0,0,0,0,0,0,0,0,0,0,0,0,0,0,0,0,0,0,0,0,0],"id":19,"left_children":[1,3,5,7,9,11,13,15,17,19,21,-1,-1,23,25,-1,-1,-1,-1,-1,-1,-1,-1,-1,-1,-1,-1],"loss_changes":[6.379831E3,3.1696477E3,1.4277192E3,2.6855327E3,1.4055012E3,4.003028E2,1.1192295E3,6.1150977E2,1.467634E3,1.3050874E3,9.3096454E2,0E0,0E0,1.2138501E3,1.4767493E3,0E0,0E0,0E0,0E0,0E0,0E0,0E0,0E0,0E0,0E0,0E0,0E0],"parents":[2147483647,0,0,1,1,2,2,3,3,4,4,5,5,6,6,7,7,8,8,9,9,10,10,13,13,14,14],"right_children":[2,4,6,8,10,12,14,16,18,20,22,-1,-1,24,26,-1,-1,-1,-1,-1,-1,-1,-1,-1,-1,-1,-1],"split_conditions":[4.1524376E1,7.118687E-1,-2.0733333E0,-2.2171956E2,2.1111111E-1,-1.4666667E1,1.7827632E2,-3.0555555E-1,1.45E1,2.7808205E-3,6.666667E-1,2.1127406E-1,-6.9358325E-1,1.29E2,-6.4E-1,-1.1888861E-1,-4.636468E-1,-5.4615077E-2,-3.1181398E-1,3.3214664E-1,-3.3939727E-2,-1.9416296E-1,4.003524E-1,1.04784004E-1,-2.7300438E-1,4.3834712E-2,3.8703442E-1],"split_indices":[1,6,9,1,32,2,1,28,3,33,11,0,0,5,10,0,0,0,0,0,0,0,0,0,0,0,0],"split_type":[0,0,0,0,0,0,0,0,0,0,0,0,0,0,0,0,0,0,0,0,0,0,0,0,0,0,0],"sum_hessian":[2.449E3,1.598E3,8.51E2,1.431E3,1.67E2,7E0,8.44E2,7.1E1,1.36E3,1.23E2,4.4E1,1E0,6E0,7.13E2,1.31E2,1.8E1,5.3E1,1.303E3,5.7E1,9E1,3.3E1,3.7E1,7E0,6.92E2,2.1E1,5.2E1,7.9E1],"tree_param":{"num_deleted":"0","num_feature":"37","num_nodes":"27","size_leaf_vector":"1"}},{"base_weights":[5.283289E-2,-1.9438522E0,1.5534977E0,-2.3585293E0,3.6077073E0,7.194791E-1,3.3526914E0,-4.174714E0,-1.5543741E0,9.850494E0,7.7709574E-1,2.1763587E-1,4.38625E0,3.6651027E-1,4.352948E0,-1.20320104E-1,-3.6418423E-1,-5.4647364E-2,-4.2090836E-1,2.0912531E-1,8.4003145E-1,-1.2882619E-1,3.368705E-1,5.35446E-2,-9.213518E-2,5.4684156E-1,8.250166E-2,7.789454E-1,-2.4100829E-2,1.2337329E-1,3.4118012E-1],"categories":[],"categories_nodes":[],"categories_segments":[],"categories_sizes":[],"default_left":[0,0,0,0,0,0,0,0,0,0,0,0,0,0,0,0,0,0,0,0,0,0,0,0,0,0,0,0,0,0,0],"id":20,"left_children":[1,3,5,7,9,11,13,15,17,19,21,23,25,27,29,-1,-1,-1,-1,-1,-1,-1,-1,-1,-1,-1,-1,-1,-1,-1,-1],"loss_changes":[7.395028E3,2.4464375E3,2.1118782E3,1.4335586E3,1.2999922E3,1.7729442E3,1.3305835E3,1.6427563E3,2.1602893E3,8.357766E2,1.0567677E3,1.494513E3,2.0611155E3,1.4661277E3,1.53906E3,0E0,0E0,0E0,0E0,0E0,0E0,0E0,0E0,0E0,0E0,0E0,0E0,0E0,0E0,0E0,0E0],"parents":[2147483647,0,0,1,1,2,2,3,3,4,4,5,5,6,6,7,7,8,8,9,9,10,10,11,11,12,12,13,13,14,14],"right_children":[2,4,6,8,10,12,14,16,18,20,22,24,26,28,30,-1,-1,-1,-1,-1,-1,-1,-1,-1,-1,-1,-1,-1,-1,-1,-1],"split_conditions":[-2.33307E1,1.3866134E-1,5.1414144E-1,-8.888889E-2,1.5125152E-1,6.028561E0,-5.5241734E-2,1.3517665E-2,1.45E1,-5.685707E1,8.1742424E-1,5.529079E-2,-6E0,-2.6333332E-1,-6.5273466E-3,-1.20320104E-1,-3.6418423E-1,-5.4647364E-2,-4.2090836E-1,2.0912531E-1,8.4003145E-1,-1.2882619E-1,3.368705E-1,5.35446E-2,-9.213518E-2,5.4684156E-1,8.250166E-2,7.789454E-1,-2.4100829E-2,1.2337329E-1,3.4118012E-1],"split_indices":[1,25,6,26,25,7,35,29,3,1,6,35,3,9,16,0,0,0,0,0,0,0,0,0,0,0,0,0,0,0,0],"split_type":[0,0,0,0,0,0,0,0,0,0,0,0,0,0,0,0,0,0,0,0,0,0,0,0,0,0,0,0,0,0,0],"sum_hessian":[2.466E3,1.058E3,1.408E3,9.85E2,7.3E1,9.63E2,4.45E2,3.01E2,6.84E2,2.2E1,5.1E1,8.48E2,1.15E2,1.12E2,3.33E2,1.93E2,1.08E2,6.42E2,4.2E1,1.3E1,9E0,3.3E1,1.8E1,6E2,2.48E2,3.3E1,8.2E1,5E0,1.07E2,1.9E2,1.43E2],"tree_param":{"num_deleted":"0","num_feature":"37","num_nodes":"31","size_leaf_vector":"1"}},{"base_weights":[-1.2824593E-1,-2.5362787E0,8.8728076E-1,-2.7023323E0,7.5829453E0,2.9946896E-1,3.4852805E0,9.078774E0,-2.8314528E0,2.2640934E0,8.8273126E-1,4.2305335E-1,-1.4102469E1,4.147185E0,-4.10792E0,6.0225064E-1,-2.9212236E-1,-1.6120474E-1,2.6533395E-2,-2.7835876E-1,2.6484546E-1,-5.0116074E-1,2.7955053E-2,-8.2349396E-1,-7.551404E-2,1.4295483E-1,3.8001224E-1,7.3952997E-1,-3.149536E-1],"categories":[],"categories_nodes":[],"categories_segments":[],"categories_sizes":[],"default_left":[0,0,0,0,0,0,0,0,0,0,0,0,0,0,0,0,0,0,0,0,0,0,0,0,0,0,0,0,0],"id":21,"left_children":[1,3,5,7,9,11,13,15,17,19,-1,21,23,25,27,-1,-1,-1,-1,-1,-1,-1,-1,-1,-1,-1,-1,-1,-1],"loss_changes":[5.9935327E3,1.2420942E3,2.6317366E3,1.114874E3,6.028656E2,2.5102217E3,1.6152952E3,4.244516E2,9.3766846E2,2.4324597E2,0E0,1.9895859E3,3.3285596E2,1.2814893E3,1.1698145E3,0E0,0E0,0E0,0E0,0E0,0E0,0E0,0E0,0E0,0E0,0E0,0E0,0E0,0E0],"parents":[2147483647,0,0,1,1,2,2,3,3,4,4,5,5,6,6,7,7,8,8,9,9,11,11,12,12,13,13,14,14],"right_children":[2,4,6,8,10,12,14,16,18,20,-1,22,24,26,28,-1,-1,-1,-1,-1,-1,-1,-1,-1,-1,-1,-1,-1,-1],"split_conditions":[-5.773669E1,1.0231254E0,1.2002306E2,-8.055556E-1,1.6333334E1,2.621693E-1,2.4057844E-1,2.391893E0,1.4609194E-2,-1.8658009E-1,8.8273126E-1,-6.666667E-1,-7.5E0,1.8174714E0,-2.3579709E-1,6.0225064E-1,-2.9212236E-1,-1.6120474E-1,2.6533395E-2,-2.7835876E-1,2.6484546E-1,-5.0116074E-1,2.7955053E-2,-8.2349396E-1,-7.551404E-2,1.4295483E-1,3.8001224E-1,7.3952997E-1,-3.149536E-1],"split_indices":[1,34,1,28,2,27,21,22,17,27,0,26,3,19,19,0,0,0,0,0,0,0,0,0,0,0,0,0,0],"split_type":[0,0,0,0,0,0,0,0,0,0,0,0,0,0,0,0,0,0,0,0,0,0,0,0,0,0,0,0,0],"sum_hessian":[2.449E3,7.26E2,1.723E3,7.15E2,1.1E1,1.406E3,3.17E2,7E0,7.08E2,8E0,3E0,1.395E3,1.1E1,2.92E2,2.5E1,6E0,1E0,6.34E2,7.4E1,2E0,6E0,1.7E1,1.378E3,9E0,2E0,2.14E2,7.8E1,2E0,2.3E1],"tree_param":{"num_deleted":"0","num_feature":"37","num_nodes":"29","size_leaf_vector":"1"}},{"base_weights":[-8.490003E-2,-1.5247469E0,1.5969166E0,-2.1907332E0,3.669834E-1,8.082483E0,1.3379357E0,1.1176119E1,-2.2853267E0,3.2861145E0,-1.0252507E0,6.2649865E0,1.2118415E0,-2.3741394E-1,1.970013E0,8.593816E-1,1.1852882E-1,-7.624429E-2,-1.8765174E-1,1.1589684E-1,9.92145E-1,-2.8009699E-3,-2.781362E-1,-2.2807602E-2,5.1579577E-1,1.6288247E-2,-6.5861326E-1,-2.3419102E-1,1.108557E-1],"categories":[],"categories_nodes":[],"categories_segments":[],"categories_sizes":[],"default_left":[0,0,0,0,0,0,0,0,0,0,0,0,0,0,0,0,0,0,0,0,0,0,0,0,0,0,0,0,0],"id":22,"left_children":[1,3,5,7,9,11,13,15,17,19,21,23,-1,25,27,-1,-1,-1,-1,-1,-1,-1,-1,-1,-1,-1,-1,-1,-1],"loss_changes":[5.9061934E3,1.6562688E3,1.8787783E3,1.2545537E3,1.3973602E3,1.110657E3,1.0788572E3,3.2979785E2,1.0724346E3,1.7333254E3,1.0243899E3,1.0937798E3,0E0,2.2698127E3,1.2813269E3,0E0,0E0,0E0,0E0,0E0,0E0,0E0,0E0,0E0,0E0,0E0,0E0,0E0,0E0],"parents":[2147483647,0,0,1,1,2,2,3,3,4,4,5,5,6,6,7,7,8,8,9,9,10,10,11,11,13,13,14,14],"right_children":[2,4,6,8,10,12,14,16,18,20,22,24,-1,26,28,-1,-1,-1,-1,-1,-1,-1,-1,-1,-1,-1,-1,-1,-1],"split_conditions":[8.678144E0,1.6876587E0,-2.6916718E-2,-1.8E1,-2.749828E-2,4.2944446E0,-9.333333E0,-6.433333E-1,2.2666666E1,-3.139083E-2,1.3166667E0,1E-1,1.2118415E0,-1.1E1,-4.361111E0,8.593816E-1,1.1852882E-1,-7.624429E-2,-1.8765174E-1,1.1589684E-1,9.92145E-1,-2.8009699E-3,-2.781362E-1,-2.2807602E-2,5.1579577E-1,1.6288247E-2,-6.5861326E-1,-2.3419102E-1,1.108557E-1],"split_indices":[1,30,33,3,25,13,4,9,5,25,10,9,0,4,13,0,0,0,0,0,0,0,0,0,0,0,0,0,0],"split_type":[0,0,0,0,0,0,0,0,0,0,0,0,0,0,0,0,0,0,0,0,0,0,0,0,0,0,0,0,0],"sum_hessian":[2.437E3,1.313E3,1.124E3,9.71E2,3.42E2,4.2E1,1.082E3,6E0,9.65E2,1.1E2,2.32E2,3.9E1,3E0,3.1E2,7.72E2,3E0,3E0,6.37E2,3.28E2,1.05E2,5E0,1.92E2,4E1,1.5E1,2.4E1,2.98E2,1.2E1,2.7E1,7.45E2],"tree_param":{"num_deleted":"0","num_feature":"37","num_nodes":"29","size_leaf_vector":"1"}},{"base_weights":[-1.2653667E-1,-8.728556E-1,2.2080896E0,6.4174743E0,-1.0548372E0,1.8125467E0,7.3079963E0,1.0293328E1,-3.1768587E0,-1.7580503E0,1.0494632E0,2.5074446E0,-1.8442256E0,5.4620206E-1,1.3164069E1,1.9660579E-2,6.4718103E-1,-3.8143238E-1,2.0151506E-1,-6.727311E-2,-2.2309756E-1,1.5478623E-1,-1.7918566E-2,5.8626857E-2,2.3491028E-1,7.040935E-2,-3.4976968E-1,8.649854E-1,-1.0639179E-1,9.94372E-1,3.2312214E-1],"categories":[],"categories_nodes":[],"categories_segments":[],"categories_sizes":[],"default_left":[0,0,0,0,0,0,0,0,0,0,0,0,0,0,0,0,0,0,0,0,0,0,0,0,0,0,0,0,0,0,0],"id":23,"left_children":[1,3,5,7,9,11,13,15,17,19,21,23,25,27,29,-1,-1,-1,-1,-1,-1,-1,-1,-1,-1,-1,-1,-1,-1,-1,-1],"loss_changes":[4.3299893E3,2.5049575E3,1.2011274E3,1.7432672E3,2.7216655E3,1.4276312E3,1.6955049E3,8.60771E2,4.799323E2,1.5312896E3,1.329157E3,1.3719133E3,1.517686E3,9.776005E2,9.0780176E2,0E0,0E0,0E0,0E0,0E0,0E0,0E0,0E0,0E0,0E0,0E0,0E0,0E0,0E0,0E0,0E0],"parents":[2147483647,0,0,1,1,2,2,3,3,4,4,5,5,6,6,7,7,8,8,9,9,10,10,11,11,12,12,13,13,14,14],"right_children":[2,4,6,8,10,12,14,16,18,20,22,24,26,28,30,-1,-1,-1,-1,-1,-1,-1,-1,-1,-1,-1,-1,-1,-1,-1,-1],"split_conditions":[7.461587E1,-1.6666666E0,2.9255188E0,1.9102429E0,1.7904975E0,2E0,7.5413126E-1,-3.3333334E-1,4E0,2.727621E-1,5.31441E-1,3.564815E-2,8.794214E-1,-1.3723777E-2,0E0,1.9660579E-2,6.4718103E-1,-3.8143238E-1,2.0151506E-1,-6.727311E-2,-2.2309756E-1,1.5478623E-1,-1.7918566E-2,5.8626857E-2,2.3491028E-1,7.040935E-2,-3.4976968E-1,8.649854E-1,-1.0639179E-1,9.94372E-1,3.2312214E-1],"split_indices":[1,11,30,30,30,15,22,24,3,21,36,20,22,25,24,0,0,0,0,0,0,0,0,0,0,0,0,0,0,0,0],"split_type":[0,0,0,0,0,0,0,0,0,0,0,0,0,0,0,0,0,0,0,0,0,0,0,0,0,0,0,0,0,0,0],"sum_hessian":[2.483E3,1.882E3,6.01E2,4.5E1,1.837E3,5.59E2,4.2E1,3.2E1,1.3E1,1.377E3,4.6E2,4.7E2,8.9E1,2E1,2.2E1,7E0,2.5E1,8E0,5E0,1.196E3,1.81E2,1.87E2,2.73E2,2.93E2,1.77E2,5.5E1,3.4E1,2E0,1.8E1,1E1,1.2E1],"tree_param":{"num_deleted":"0","num_feature":"37","num_nodes":"31","size_leaf_vector":"1"}},{"base_weights":[1.9977832E-1,-1.9047884E0,1.1980919E0,2.8530545E0,-2.3581028E0,2.7959094E0,1.3647904E-1,-8.143424E-1,7.3748426E0,-1.620978E0,-4.7892947E0,3.0772758E0,-7.4573455E0,4.319335E-1,-5.2525077E0,-2.54188E-1,1.747896E-1,5.01642E-1,-7.605023E-2,-1.106748E-1,1.01163976E-1,-4.9964485E-1,-1.5628761E-1,4.869929E-1,1.3854639E-1,-5.3227943E-1,3.1814513E-1,-5.069298E-1,2.8342372E-2,-5.323492E-1,-3.0349588E-2],"categories":[],"categories_nodes":[],"categories_segments":[],"categories_sizes":[],"default_left":[0,0,0,0,0,0,0,0,0,0,0,0,0,0,0,0,0,0,0,0,0,0,0,0,0,0,0,0,0,0,0],"id":24,"left_children":[1,3,5,7,9,11,13,15,17,19,21,23,25,27,29,-1,-1,-1,-1,-1,-1,-1,-1,-1,-1,-1,-1,-1,-1,-1,-1],"loss_changes":[5.1455723E3,1.7062852E3,2.8171128E3,1.150246E3,1.2825425E3,1.9356509E3,1.5928766E3,7.354405E2,7.4825916E2,1.2007241E3,1.414386E3,1.291543E3,8.6085834E2,1.3577013E3,1.2966641E3,0E0,0E0,0E0,0E0,0E0,0E0,0E0,0E0,0E0,0E0,0E0,0E0,0E0,0E0,0E0,0E0],"parents":[2147483647,0,0,1,1,2,2,3,3,4,4,5,5,6,6,7,7,8,8,9,9,10,10,11,11,12,12,13,13,14,14],"right_children":[2,4,6,8,10,12,14,16,18,20,22,24,26,28,30,-1,-1,-1,-1,-1,-1,-1,-1,-1,-1,-1,-1,-1,-1,-1,-1],"split_conditions":[-5.0472622E1,-4.4444445E-1,-8.5555553E-1,-1.0800519E2,2.5246435E-1,2.621693E-1,1.29E2,1.8603125E-1,1.0433429E-2,1.4339527E-2,1.4910522E-1,-2.6916718E-2,2.1929429E0,-1.5192268E-2,-4.0555553E0,-2.54188E-1,1.747896E-1,5.01642E-1,-7.605023E-2,-1.106748E-1,1.01163976E-1,-4.9964485E-1,-1.5628761E-1,4.869929E-1,1.3854639E-1,-5.3227943E-1,3.1814513E-1,-5.069298E-1,2.8342372E-2,-5.323492E-1,-3.0349588E-2],"split_indices":[1,32,14,1,21,27,5,21,33,17,22,33,30,30,13,0,0,0,0,0,0,0,0,0,0,0,0,0,0,0,0],"split_type":[0,0,0,0,0,0,0,0,0,0,0,0,0,0,0,0,0,0,0,0,0,0,0,0,0,0,0,0,0,0,0],"sum_hessian":[2.447E3,7.87E2,1.66E3,6.8E1,7.19E2,6.62E2,9.98E2,3.8E1,3E1,5.53E2,1.66E2,6.45E2,1.7E1,9.47E2,5.1E1,1.9E1,1.9E1,2.3E1,7E0,4.76E2,7.7E1,3.9E1,1.27E2,2.7E1,6.18E2,1.4E1,3E0,1.1E1,9.36E2,2.3E1,2.8E1],"tree_param":{"num_deleted":"0","num_feature":"37","num_nodes":"31","size_leaf_vector":"1"}},{"base_weights":[5.4046266E-2,-2.1224322E0,9.354097E-1,-2.4314504E0,5.045436E0,6.85388E-1,6.43348E0,-2.1615775E0,-9.230073E0,-3.24371E0,1.0015137E1,-9.247508E0,7.85432E-1,9.12598E0,1.3956759E0,2.1588469E-1,-1.16924725E-1,-6.6210496E-1,-9.022861E-3,-3.4093446E-1,2.8054595E-1,7.3590493E-1,2.1553306E-1,-7.132274E-1,2.823147E-1,1.9709082E-2,1.4909838E-1,8.658435E-2,5.9767187E-1,-2.6929274E-1,3.05027E-1],"categories":[],"categories_nodes":[],"categories_segments":[],"categories_sizes":[],"default_left":[0,0,0,0,0,0,0,0,0,0,0,0,0,0,0,0,0,0,0,0,0,0,0,0,0,0,0,0,0,0,0],"id":25,"left_children":[1,3,5,7,9,11,13,15,17,19,21,23,25,27,29,-1,-1,-1,-1,-1,-1,-1,-1,-1,-1,-1,-1,-1,-1,-1,-1],"loss_changes":[4.7784736E3,1.6026399E3,2.4328218E3,1.2442012E3,1.2683235E3,1.6936162E3,1.0317131E3,7.712356E2,9.4159985E2,4.181204E2,4.462859E2,1.350829E3,1.443468E3,1.0246523E3,9.262296E2,0E0,0E0,0E0,0E0,0E0,0E0,0E0,0E0,0E0,0E0,0E0,0E0,0E0,0E0,0E0,0E0],"parents":[2147483647,0,0,1,1,2,2,3,3,4,4,5,5,6,6,7,7,8,8,9,9,10,10,11,11,12,12,13,13,14,14],"right_children":[2,4,6,8,10,12,14,16,18,20,22,24,26,28,30,-1,-1,-1,-1,-1,-1,-1,-1,-1,-1,-1,-1,-1,-1,-1,-1],"split_conditions":[-6.33938E1,3.3731157E-1,2.0767018E2,1.7333334E1,2.05E0,0E0,1.1904762E-1,-2.6758277E-1,-1.5E0,1.0893098E1,5E-1,2.6722221E0,6.7310035E-1,-1.5896785E0,2.3333333E-1,2.1588469E-1,-1.16924725E-1,-6.6210496E-1,-9.022861E-3,-3.4093446E-1,2.8054595E-1,7.3590493E-1,2.1553306E-1,-7.132274E-1,2.823147E-1,1.9709082E-2,1.4909838E-1,8.658435E-2,5.9767187E-1,-2.6929274E-1,3.05027E-1],"split_indices":[1,18,1,3,14,30,26,35,15,7,15,14,34,22,26,0,0,0,0,0,0,0,0,0,0,0,0,0,0,0,0],"split_type":[0,0,0,0,0,0,0,0,0,0,0,0,0,0,0,0,0,0,0,0,0,0,0,0,0,0,0,0,0,0,0],"sum_hessian":[2.489E3,7.17E2,1.772E3,6.88E2,2.9E1,1.696E3,7.6E1,6.63E2,2.5E1,1.1E1,1.8E1,1.6E1,1.68E3,4.9E1,2.7E1,1.7E1,6.46E2,1.7E1,8E0,8E0,3E0,9E0,9E0,1.2E1,4E0,1.427E3,2.53E2,1.4E1,3.5E1,1.1E1,1.6E1],"tree_param":{"num_deleted":"0","num_feature":"37","num_nodes":"31","size_leaf_vector":"1"}},{"base_weights":[-2.0982678E-1,-1.0887578E0,1.435836E0,-8.36248E-1,-5.111959E0,-9.248352E0,1.5608728E0,4.2164154E0,-1.0603857E0,-5.9253025E0,1.05506115E1,-8.765971E-1,-8.0396825E-1,1.263017E0,6.361577E0,-1.7160323E-1,3.7610206E-1,-6.659704E-2,1.4420918E-1,-5.296494E-1,-1.7662917E-1,1.00210525E-1,6.0930794E-1,-1.9371165E-1,3.636839E-1,7.048416E-2,-3.5097772E-1,-3.1059865E-2,5.599353E-1],"categories":[],"categories_nodes":[],"categories_segments":[],"categories_sizes":[],"default_left":[0,0,0,0,0,0,0,0,0,0,0,0,0,0,0,0,0,0,0,0,0,0,0,0,0,0,0,0,0],"id":26,"left_children":[1,3,5,7,9,11,13,15,17,19,21,-1,23,25,27,-1,-1,-1,-1,-1,-1,-1,-1,-1,-1,-1,-1,-1,-1],"loss_changes":[3.5395164E3,1.6160817E3,1.1526371E3,1.7054747E3,1.2599861E3,6.854031E2,1.1973857E3,1.6439291E3,1.5452513E3,9.677405E2,4.5466553E1,0E0,1.7698299E2,9.7564014E2,1.6620084E3,0E0,0E0,0E0,0E0,0E0,0E0,0E0,0E0,0E0,0E0,0E0,0E0,0E0,0E0],"parents":[2147483647,0,0,1,1,2,2,3,3,4,4,5,5,6,6,7,7,8,8,9,9,10,10,12,12,13,13,14,14],"right_children":[2,4,6,8,10,12,14,16,18,20,22,-1,24,26,28,-1,-1,-1,-1,-1,-1,-1,-1,-1,-1,-1,-1,-1,-1],"split_conditions":[4.1524376E1,1.4333333E1,-2.6666667E0,-6.866667E0,1.7215008E-1,-4.3666668E1,2.2847934E2,-1.2783305E2,2.2551553E-2,-1.6514052E-2,-1.6372363E2,-8.765971E-1,7.6666665E0,1.4033333E2,-6.4E-1,-1.7160323E-1,3.7610206E-1,-6.659704E-2,1.4420918E-1,-5.296494E-1,-1.7662917E-1,1.00210525E-1,6.0930794E-1,-1.9371165E-1,3.636839E-1,7.048416E-2,-3.5097772E-1,-3.1059865E-2,5.599353E-1],"split_indices":[1,3,15,13,25,5,1,1,17,17,1,0,3,5,10,0,0,0,0,0,0,0,0,0,0,0,0,0,0],"split_type":[0,0,0,0,0,0,0,0,0,0,0,0,0,0,0,0,0,0,0,0,0,0,0,0,0,0,0,0,0],"sum_hessian":[2.445E3,1.594E3,8.51E2,1.501E3,9.3E1,9E0,8.42E2,6.3E1,1.438E3,8.9E1,4E0,4E0,5E0,7.94E2,4.8E1,1.9E1,4.4E1,1.346E3,9.2E1,2.9E1,6E1,1E0,3E0,4E0,1E0,7.81E2,1.3E1,2E1,2.8E1],"tree_param":{"num_deleted":"0","num_feature":"37","num_nodes":"29","size_leaf_vector":"1"}},{"base_weights":[6.282803E-2,-2.8594902E0,7.618953E-1,-8.274097E0,-2.325051E0,2.5387937E-1,3.2966993E0,-1.13078944E-1,-1.0743708E1,-4.5676913E0,-1.1650473E0,2.0675128E0,-2.89287E-1,-3.4514728E0,3.801984E0,4.3795338E-1,-2.2675088E-1,-7.812804E-1,-3.1620586E-1,-3.0415452E-1,-3.2767415E-2,7.847162E-3,-2.3053443E-1,7.9906845E-1,8.6626664E-2,1.669427E-1,-3.0101253E-2,1.3732906E-1,-4.9392042E-1,2.4543166E-1,2.5183866E-2],"categories":[],"categories_nodes":[],"categories_segments":[],"categories_sizes":[],"default_left":[0,0,0,0,0,0,0,0,0,0,0,0,0,0,0,0,0,0,0,0,0,0,0,0,0,0,0,0,0,0,0],"id":27,"left_children":[1,3,5,7,9,11,13,15,17,19,21,23,25,27,29,-1,-1,-1,-1,-1,-1,-1,-1,-1,-1,-1,-1,-1,-1,-1,-1],"loss_changes":[5.111464E3,1.3784578E3,2.5990713E3,8.654297E2,1.141927E3,1.6585293E3,1.1622078E3,4.7127548E2,6.1318994E2,8.8532764E2,1.3308143E3,1.7807241E3,1.4725266E3,9.8315967E2,1.1436494E3,0E0,0E0,0E0,0E0,0E0,0E0,0E0,0E0,0E0,0E0,0E0,0E0,0E0,0E0,0E0,0E0],"parents":[2147483647,0,0,1,1,2,2,3,3,4,4,5,5,6,6,7,7,8,8,9,9,10,10,11,11,12,12,13,13,14,14],"right_children":[2,4,6,8,10,12,14,16,18,20,22,24,26,28,30,-1,-1,-1,-1,-1,-1,-1,-1,-1,-1,-1,-1,-1,-1,-1,-1],"split_conditions":[-9.825549E1,-4.2225194E-1,1.2002306E2,5.3432263E-3,-8.888889E-2,-1.7993997E-1,-1.5212108E-2,-1.2837619E-1,-6.666667E-1,7.29E-1,2.777778E-1,-1.6133333E2,-3.8492063E-1,5.9049E-1,1.663681E-2,4.3795338E-1,-2.2675088E-1,-7.812804E-1,-3.1620586E-1,-3.0415452E-1,-3.2767415E-2,7.847162E-3,-2.3053443E-1,7.9906845E-1,8.6626664E-2,1.669427E-1,-3.0101253E-2,1.3732906E-1,-4.9392042E-1,2.4543166E-1,2.5183866E-2],"split_indices":[1,31,1,21,26,21,17,35,15,36,32,4,31,36,17,0,0,0,0,0,0,0,0,0,0,0,0,0,0,0,0],"split_type":[0,0,0,0,0,0,0,0,0,0,0,0,0,0,0,0,0,0,0,0,0,0,0,0,0,0,0,0,0,0,0],"sum_hessian":[2.5E3,4.82E2,2.018E3,4.2E1,4.4E2,1.682E3,3.36E2,1E1,3.2E1,1.49E2,2.91E2,3.87E2,1.295E3,2.3E1,3.13E2,3E0,7E0,1.4E1,1.8E1,1.07E2,4.2E1,2.11E2,8E1,8E0,3.79E2,1.02E2,1.193E3,1.2E1,1.1E1,2.34E2,7.9E1],"tree_param":{"num_deleted":"0","num_feature":"37","num_nodes":"31","size_leaf_vector":"1"}},{"base_weights":[-4.414951E-2,-2.198185E0,8.270743E-1,-2.2999208E0,8.153868E-1,1.18042715E-1,2.5406826E0,-2.077121E0,-1.0246566E1,-9.104411E0,2.3830473E-1,4.80703E0,1.4132996E0,-9.044361E-2,-4.055236E-1,-4.648237E-2,-6.7538166E-1,-7.70621E-1,1.9888358E-1,1.6937556E-2,-4.2408395E-1,2.0449285E-1,7.936408E-1,3.565193E-2,4.2303377E-1],"categories":[],"categories_nodes":[],"categories_segments":[],"categories_sizes":[],"default_left":[0,0,0,0,0,0,0,0,0,0,0,0,0,0,0,0,0,0,0,0,0,0,0,0,0],"id":28,"left_children":[1,3,5,7,-1,9,11,13,15,17,19,21,23,-1,-1,-1,-1,-1,-1,-1,-1,-1,-1,-1,-1],"loss_changes":[4.620246E3,1.3723518E3,2.129599E3,1.2286965E3,0E0,1.3785763E3,1.3039429E3,1.0988162E3,5.647217E2,1.3816556E3,1.0767153E3,1.2842163E3,1.6916078E3,0E0,0E0,0E0,0E0,0E0,0E0,0E0,0E0,0E0,0E0,0E0,0E0],"parents":[2147483647,0,0,1,1,2,2,3,3,5,5,6,6,7,7,8,8,9,9,10,10,11,11,12,12],"right_children":[2,4,6,8,-1,10,12,14,16,18,20,22,24,-1,-1,-1,-1,-1,-1,-1,-1,-1,-1,-1,-1],"split_conditions":[-6.33938E1,1.6E1,5.1414144E-1,-6.670391E1,8.153868E-1,0E0,4.8666668E-1,4.6666667E-1,-8.17877E-3,2.6722221E0,2.621693E-1,2.564858E-1,1.8991491E-1,-9.044361E-2,-4.055236E-1,-4.648237E-2,-6.7538166E-1,-7.70621E-1,1.9888358E-1,1.6937556E-2,-4.2408395E-1,2.0449285E-1,7.936408E-1,3.565193E-2,4.2303377E-1],"split_indices":[1,2,6,1,0,30,9,28,17,14,27,8,35,0,0,0,0,0,0,0,0,0,0,0,0],"split_type":[0,0,0,0,0,0,0,0,0,0,0,0,0,0,0,0,0,0,0,0,0,0,0,0,0],"sum_hessian":[2.46E3,7.08E2,1.752E3,7.05E2,3E0,1.24E3,5.12E2,6.87E2,1.8E1,1.5E1,1.225E3,1.69E2,3.43E2,6.59E2,2.8E1,5E0,1.3E1,1E1,5E0,1.212E3,1.3E1,1.6E2,9E0,3.13E2,3E1],"tree_param":{"num_deleted":"0","num_feature":"37","num_nodes":"25","size_leaf_vector":"1"}},{"base_weights":[-1.2529893E-1,-9.851747E-1,1.4639827E0,-3.307963E0,-5.4430205E-1,6.57416E-1,3.9143887E0,-6.170709E0,-4.8583385E-1,-6.53749E-1,6.41847E0,-1.8979408E-1,4.1811695E0,1.5195787E1,3.347746E0,-3.5525241E-1,4.307855E-1,-1.9887505E-1,1.1910707E-1,-2.9426286E-2,-5.0844693E-1,-4.1253563E-2,5.959941E-1,-4.1651623E-5,-7.140385E-1,9.635865E-2,4.805889E-1,1.0053314E0,-1.4825219E-1,3.2650626E-1,8.661487E-2],"categories":[],"categories_nodes":[],"categories_segments":[],"categories_sizes":[],"default_left":[0,0,0,0,0,0,0,0,0,0,0,0,0,0,0,0,0,0,0,0,0,0,0,0,0,0,0,0,0,0,0],"id":29,"left_children":[1,3,5,7,9,11,13,15,17,19,21,23,25,27,29,-1,-1,-1,-1,-1,-1,-1,-1,-1,-1,-1,-1,-1,-1,-1,-1],"loss_changes":[3.382373E3,1.6428298E3,1.714932E3,2.0652366E3,1.0337312E3,1.956204E3,1.3235205E3,1.8157861E3,1.311297E3,8.2005023E2,8.466785E2,1.4085276E3,1.536029E3,9.514663E2,1.047728E3,0E0,0E0,0E0,0E0,0E0,0E0,0E0,0E0,0E0,0E0,0E0,0E0,0E0,0E0,0E0,0E0],"parents":[2147483647,0,0,1,1,2,2,3,3,4,4,5,5,6,6,7,7,8,8,9,9,10,10,11,11,12,12,13,13,14,14],"right_children":[2,4,6,8,10,12,14,16,18,20,22,24,26,28,30,-1,-1,-1,-1,-1,-1,-1,-1,-1,-1,-1,-1,-1,-1,-1,-1],"split_conditions":[4.1524376E1,-1.0673789E1,1.8009565E0,6.1892215E-3,3.278839E-2,3.1111112E-1,1.8599207E0,9.612554E-2,-9.739858E1,2E0,-1.0624212E-2,2.7638888E-1,1.4581465E2,1.5489551E2,6.5E0,-3.5525241E-1,4.307855E-1,-1.9887505E-1,1.1910707E-1,-2.9426286E-2,-5.0844693E-1,-4.1253563E-2,5.959941E-1,-4.1651623E-5,-7.140385E-1,9.635865E-2,4.805889E-1,1.0053314E0,-1.4825219E-1,3.2650626E-1,8.661487E-2],"split_indices":[1,7,19,33,17,26,19,29,1,12,16,27,1,1,2,0,0,0,0,0,0,0,0,0,0,0,0,0,0,0,0],"split_type":[0,0,0,0,0,0,0,0,0,0,0,0,0,0,0,0,0,0,0,0,0,0,0,0,0,0,0,0,0,0,0],"sum_hessian":[2.473E3,1.605E3,8.68E2,2.55E2,1.35E3,6.54E2,2.14E2,1.26E2,1.29E2,1.33E3,2E1,5.28E2,1.26E2,9E0,2.05E2,1.19E2,7E0,5.8E1,7.1E1,1.322E3,8E0,9E0,1.1E1,5.22E2,6E0,9E1,3.6E1,7E0,2E0,6.8E1,1.37E2],"tree_param":{"num_deleted":"0","num_feature":"37","num_nodes":"31","size_leaf_vector":"1"}},{"base_weights":[-6.57783E-2,-8.8966095E-1,1.3577751E0,-7.3612624E-1,-6.2117524E0,1.1835303E0,8.345047E0,7.3991833E0,-8.269276E-1,-2.2712579E0,-1.1277074E1,-2.6175425E0,1.5314432E0,-1.6799332E0,1.5414644E1,6.92677E-2,9.096823E-1,-5.5752516E-2,9.515125E-2,-5.0845504E-1,3.0327493E-2,-7.5435966E-1,-2.5364239E-2,-1.8579446E-1,5.3163785E-1,9.016248E-2,-1.8251702E-1,6.53807E-1,-3.5017344E-1,-1.3137016E-1,9.4669354E-1],"categories":[],"categories_nodes":[],"categories_segments":[],"categories_sizes":[],"default_left":[0,0,0,0,0,0,0,0,0,0,0,0,0,0,0,0,0,0,0,0,0,0,0,0,0,0,0,0,0,0,0],"id":30,"left_children":[1,3,5,7,9,11,13,15,17,19,21,23,25,27,29,-1,-1,-1,-1,-1,-1,-1,-1,-1,-1,-1,-1,-1,-1,-1,-1],"loss_changes":[2.9145447E3,1.2815837E3,1.0992612E3,1.1370645E3,8.526212E2,1.1809823E3,1.5850922E3,1.0783683E3,1.1937623E3,5.971083E2,7.7199585E2,1.1310167E3,1.1558705E3,8.771231E2,8.751697E2,0E0,0E0,0E0,0E0,0E0,0E0,0E0,0E0,0E0,0E0,0E0,0E0,0E0,0E0,0E0,0E0],"parents":[2147483647,0,0,1,1,2,2,3,3,4,4,5,5,6,6,7,7,8,8,9,9,10,10,11,11,12,12,13,13,14,14],"right_children":[2,4,6,8,10,12,14,16,18,20,22,24,26,28,30,-1,-1,-1,-1,-1,-1,-1,-1,-1,-1,-1,-1,-1,-1,-1,-1],"split_conditions":[3.6421486E1,1.7333334E1,2.991353E-2,-1.78E2,5.31441E-1,-1.3333334E0,7.354609E1,-7.841099E1,1.5E0,-1.7548189E-2,-5E-1,2.5610452E0,1.1666667E-1,3.138106E-1,-1.6070732E-1,6.92677E-2,9.096823E-1,-5.5752516E-2,9.515125E-2,-5.0845504E-1,3.0327493E-2,-7.5435966E-1,-2.5364239E-2,-1.8579446E-1,5.3163785E-1,9.016248E-2,-1.8251702E-1,6.53807E-1,-3.5017344E-1,-1.3137016E-1,9.4669354E-1],"split_indices":[1,3,33,4,36,15,1,1,15,33,15,30,20,36,25,0,0,0,0,0,0,0,0,0,0,0,0,0,0,0,0],"split_type":[0,0,0,0,0,0,0,0,0,0,0,0,0,0,0,0,0,0,0,0,0,0,0,0,0,0,0,0,0,0,0],"sum_hessian":[2.483E3,1.573E3,9.1E2,1.53E3,4.3E1,8.89E2,2.1E1,1.6E1,1.514E3,2.5E1,1.8E1,7.4E1,8.15E2,9E0,1.2E1,1.1E1,5E0,1.37E3,1.44E2,6E0,1.9E1,1.3E1,5E0,6.9E1,5E0,7.75E2,4E1,2E0,7E0,2E0,1E1],"tree_param":{"num_deleted":"0","num_feature":"37","num_nodes":"31","size_leaf_vector":"1"}},{"base_weights":[4.747094E-2,-1.8161578E0,7.885059E-1,-1.5995215E0,-9.199305E0,4.9359697E-1,4.300329E0,8.691806E0,-1.7636466E0,-2.7977148E-1,-1.2153831E1,-9.0955105E0,5.9330326E-1,5.3135276E-1,6.7914414E0,5.323752E-1,-2.716293E-1,-7.122933E-2,-3.1499133E-1,-4.3287832E-1,1.5636504E-1,-5.656573E-2,-6.881289E-1,2.1464553E-1,-7.5158805E-1,-4.95828E-1,3.419654E-2,-6.46747E-2,4.0571126E-1,4.166936E-1,-2.0310442E-1],"categories":[],"categories_nodes":[],"categories_segments":[],"categories_sizes":[],"default_left":[0,0,0,0,0,0,0,0,0,0,0,0,0,0,0,0,0,0,0,0,0,0,0,0,0,0,0,0,0,0,0],"id":31,"left_children":[1,3,5,7,9,11,13,15,17,19,21,23,25,27,29,-1,-1,-1,-1,-1,-1,-1,-1,-1,-1,-1,-1,-1,-1,-1,-1],"loss_changes":[3.441538E3,1.1193013E3,1.8444734E3,1.1807844E3,5.2365967E2,1.5791274E3,1.2920657E3,3.6169702E2,1.0368911E3,1.9833731E2,2.5041675E2,1.4156395E3,1.5593303E3,7.854002E2,1.4233401E3,0E0,0E0,0E0,0E0,0E0,0E0,0E0,0E0,0E0,0E0,0E0,0E0,0E0,0E0,0E0,0E0],"parents":[2147483647,0,0,1,1,2,2,3,3,4,4,5,5,6,6,7,7,8,8,9,9,10,10,11,11,12,12,13,13,14,14],"right_children":[2,4,6,8,10,12,14,16,18,20,22,24,26,28,30,-1,-1,-1,-1,-1,-1,-1,-1,-1,-1,-1,-1,-1,-1,-1,-1],"split_conditions":[-6.33938E1,1.9333334E1,1.7827632E2,-7.5E-1,4.782969E-1,-4.3333335E0,-6.4E-1,1.2033334E0,-7.088167E1,-1.6666666E1,-8.338889E0,-7.952028E-3,-1.5192268E-2,2.1115121E-1,9.59596E-2,5.323752E-1,-2.716293E-1,-7.122933E-2,-3.1499133E-1,-4.3287832E-1,1.5636504E-1,-5.656573E-2,-6.881289E-1,2.1464553E-1,-7.5158805E-1,-4.95828E-1,3.419654E-2,-6.46747E-2,4.0571126E-1,4.166936E-1,-2.0310442E-1],"split_indices":[1,3,1,28,36,23,10,10,1,2,13,17,30,8,27,0,0,0,0,0,0,0,0,0,0,0,0,0,0,0,0],"split_type":[0,0,0,0,0,0,0,0,0,0,0,0,0,0,0,0,0,0,0,0,0,0,0,0,0,0,0,0,0,0,0],"sum_hessian":[2.49E3,7.08E2,1.782E3,6.89E2,1.9E1,1.645E3,1.37E2,1E1,6.79E2,5E0,1.4E1,1.6E1,1.629E3,5.5E1,8.2E1,9E0,1E0,6.33E2,4.6E1,1E0,4E0,2E0,1.2E1,5E0,1.1E1,1.3E1,1.616E3,4.5E1,1E1,7.2E1,1E1],"tree_param":{"num_deleted":"0","num_feature":"37","num_nodes":"31","size_leaf_vector":"1"}},{"base_weights":[-1.2179024E-1,-1.6463491E0,5.8653474E-1,-1.9964093E0,2.9150805E0,1.3926868E0,-5.6529295E-1,5.303999E0,-2.200392E0,1.1126813E1,4.2263508E-1,2.8706188E0,5.916976E-1,-9.4488007E-1,7.5589643E0,5.3234667E-1,-2.0206343E-1,-6.5244013E-1,-1.0286802E-1,2.3918642E-2,7.1367544E-1,-1.9231635E-1,3.1210646E-1,-2.6893502E-1,1.6428137E-1,1.7424771E-1,-2.986167E-3,-9.864885E-2,5.648142E-2,1.7743699E-1,7.2638345E-1],"categories":[],"categories_nodes":[],"categories_segments":[],"categories_sizes":[],"default_left":[0,0,0,0,0,0,0,0,0,0,0,0,0,0,0,0,0,0,0,0,0,0,0,0,0,0,0,0,0,0,0],"id":32,"left_children":[1,3,5,7,9,11,13,15,17,19,21,23,25,27,29,-1,-1,-1,-1,-1,-1,-1,-1,-1,-1,-1,-1,-1,-1,-1,-1],"loss_changes":[2.655318E3,1.2513044E3,1.55982E3,1.0913096E3,1.1414661E3,1.1679034E3,2.1411758E3,1.0416499E3,1.0686299E3,4.2876807E2,1.11711E3,1.2056399E3,1.2102032E3,1.4141398E3,8.147733E2,0E0,0E0,0E0,0E0,0E0,0E0,0E0,0E0,0E0,0E0,0E0,0E0,0E0,0E0,0E0,0E0],"parents":[2147483647,0,0,1,1,2,2,3,3,4,4,5,5,6,6,7,7,8,8,9,9,10,10,11,11,12,12,13,13,14,14],"right_children":[2,4,6,8,10,12,14,16,18,20,22,24,26,28,30,-1,-1,-1,-1,-1,-1,-1,-1,-1,-1,-1,-1,-1,-1,-1,-1],"split_conditions":[-3.8680134E0,1.0755648E2,5.9049E-1,-2.9114861E-2,-1.5E0,0E0,1.6666666E0,-6.3E1,-3.1345457E-1,-1.9102792E-1,1.3021874E-2,-5.5E-1,-3.9469045E-2,5.631102E-2,2.5E0,5.3234667E-1,-2.0206343E-1,-6.5244013E-1,-1.0286802E-1,2.3918642E-2,7.1367544E-1,-1.9231635E-1,3.1210646E-1,-2.6893502E-1,1.6428137E-1,1.7424771E-1,-2.986167E-3,-9.864885E-2,5.648142E-2,1.7743699E-1,7.2638345E-1],"split_indices":[7,1,36,33,23,21,12,4,25,25,29,32,29,8,15,0,0,0,0,0,0,0,0,0,0,0,0,0,0,0,0],"split_type":[0,0,0,0,0,0,0,0,0,0,0,0,0,0,0,0,0,0,0,0,0,0,0,0,0,0,0,0,0,0,0],"sum_hessian":[2.457E3,7.79E2,1.678E3,7.24E2,5.5E1,9.87E2,6.91E2,1.9E1,7.05E2,1.2E1,4.3E1,3.46E2,6.41E2,6.61E2,3E1,1.2E1,7E0,8E0,6.97E2,3E0,9E0,2.5E1,1.8E1,1.6E1,3.3E2,1.17E2,5.24E2,4.42E2,2.19E2,2E1,1E1],"tree_param":{"num_deleted":"0","num_feature":"37","num_nodes":"31","size_leaf_vector":"1"}},{"base_weights":[-6.0116354E-2,-4.2717347E-1,2.6425126E0,-5.6883645E0,-2.562189E-1,8.249571E0,1.3394762E0,-4.382534E0,-1.2175241E1,-1.6014996E0,3.3336735E-1,6.255752E0,9.7152585E-1,2.3521906E-1,8.613321E0,-3.9541978E-1,-9.822961E-3,-7.2196966E-1,-2.3015642E-1,-6.7958646E-2,-6.239175E-1,-9.742511E-3,1.0585344E-1,3.8193864E-1,-2.4645105E-1,1.9154866E-1,-5.88209E-2,1.0402412E0,3.3173618E-1],"categories":[],"categories_nodes":[],"categories_segments":[],"categories_sizes":[],"default_left":[0,0,0,0,0,0,0,0,0,0,0,0,0,0,0,0,0,0,0,0,0,0,0,0,0,0,0,0,0],"id":33,"left_children":[1,3,5,7,9,11,13,15,17,19,21,23,-1,25,27,-1,-1,-1,-1,-1,-1,-1,-1,-1,-1,-1,-1,-1,-1],"loss_changes":[2.4722485E3,1.9718802E3,2.1661978E3,5.311238E2,1.6867899E3,1.1268435E3,1.9497976E3,8.6925806E2,1.2212207E2,1.6910059E3,1.3939004E3,7.9562134E2,0E0,1.0805977E3,6.338723E2,0E0,0E0,0E0,0E0,0E0,0E0,0E0,0E0,0E0,0E0,0E0,0E0,0E0,0E0],"parents":[2147483647,0,0,1,1,2,2,3,3,4,4,5,5,6,6,7,7,8,8,9,9,10,10,11,11,13,13,14,14],"right_children":[2,4,6,8,10,12,14,16,18,20,22,24,-1,26,28,-1,-1,-1,-1,-1,-1,-1,-1,-1,-1,-1,-1,-1,-1],"split_conditions":[1.0100529E0,-2.2171956E2,4.2666668E-1,1.5266666E0,-1.1666667E-1,2.6285654E-1,1.6579627E-1,3.6333334E-1,4.7777778E-1,1.7333334E1,3.2191439E0,1.5384243E-1,9.7152585E-1,-1.9444445E-1,1.4990258E-1,-3.9541978E-1,-9.822961E-3,-7.2196966E-1,-2.3015642E-1,-6.7958646E-2,-6.239175E-1,-9.742511E-3,1.0585344E-1,3.8193864E-1,-2.4645105E-1,1.9154866E-1,-5.88209E-2,1.0402412E0,3.3173618E-1],"split_indices":[6,1,9,10,26,8,35,10,13,3,7,35,0,26,8,0,0,0,0,0,0,0,0,0,0,0,0,0,0],"split_type":[0,0,0,0,0,0,0,0,0,0,0,0,0,0,0,0,0,0,0,0,0,0,0,0,0,0,0,0,0],"sum_hessian":[2.49E3,2.193E3,2.97E2,6.8E1,2.125E3,5.5E1,2.42E2,5.8E1,1E1,6.47E2,1.478E3,4.8E1,7E0,2.11E2,3.1E1,3.1E1,2.7E1,7E0,3E0,6.34E2,1.3E1,1.141E3,3.37E2,4.3E1,5E0,5.9E1,1.52E2,3E0,2.8E1],"tree_param":{"num_deleted":"0","num_feature":"37","num_nodes":"29","size_leaf_vector":"1"}},{"base_weights":[1.6683951E-2,-1.0256388E1,1.1300029E-1,-6.700344E0,-9.60756E-1,-4.485244E-1,1.2504504E0,-8.1602545E0,4.494068E-1,-6.2440366E-1,6.996492E0,6.1562914E-1,5.6570444E0,-1.2331908E-2,-5.0590533E-1,-2.1852808E-1,1.7564584E-1,-2.1647021E-2,-2.3196004E-1,-2.4932341E-1,5.179082E-1,6.375321E-2,-1.9706562E-1,3.4985E-1,-3.0320656E-1],"categories":[],"categories_nodes":[],"categories_segments":[],"categories_sizes":[],"default_left":[0,0,0,0,0,0,0,0,0,0,0,0,0,0,0,0,0,0,0,0,0,0,0,0,0],"id":34,"left_children":[1,3,5,7,-1,9,11,13,15,17,19,21,23,-1,-1,-1,-1,-1,-1,-1,-1,-1,-1,-1,-1],"loss_changes":[2.4500837E3,6.03978E2,1.5673074E3,1.9155127E2,0E0,2.1557522E3,2.2652083E3,2.2990967E2,7.44175E1,1.2325011E3,1.582396E3,2.13858E3,1.6444277E3,0E0,0E0,0E0,0E0,0E0,0E0,0E0,0E0,0E0,0E0,0E0,0E0],"parents":[2147483647,0,0,1,1,2,2,3,3,5,5,6,6,7,7,8,8,9,9,10,10,11,11,12,12],"right_children":[2,4,6,8,-1,10,12,14,16,18,20,22,24,-1,-1,-1,-1,-1,-1,-1,-1,-1,-1,-1,-1],"split_conditions":[0E0,3.222725E-3,2.8857143E0,1.3581523E-1,-9.60756E-1,6.422968E-1,1.440602E-1,4.0391837E-3,-2.2E1,6.9E-1,-8.9896694E-2,3.5555556E-1,1.125E0,-1.2331908E-2,-5.0590533E-1,-2.1852808E-1,1.7564584E-1,-2.1647021E-2,-2.3196004E-1,-2.4932341E-1,5.179082E-1,6.375321E-2,-1.9706562E-1,3.4985E-1,-3.0320656E-1],"split_indices":[30,29,7,35,0,34,35,33,2,9,35,32,14,0,0,0,0,0,0,0,0,0,0,0,0],"split_type":[0,0,0,0,0,0,0,0,0,0,0,0,0,0,0,0,0,0,0,0,0,0,0,0,0],"sum_hessian":[2.474E3,2.2E1,2.452E3,1.7E1,5E0,1.642E3,8.1E2,1.4E1,3E0,1.605E3,3.7E1,7.09E2,1.01E2,3E0,1.1E1,1E0,2E0,1.533E3,7.2E1,8E0,2.9E1,6.2E2,8.9E1,9.1E1,1E1],"tree_param":{"num_deleted":"0","num_feature":"37","num_nodes":"25","size_leaf_vector":"1"}},{"base_weights":[1.5962532E-1,-1.0559812E0,9.9616987E-1,-2.6355948E0,-3.4970027E-1,-2.505609E0,1.398257E0,-2.1628091E0,-1.8469997E1,2.8326454E0,-9.931517E-1,-3.0508578E0,9.302559E0,-1.1997961E1,1.4578639E0,-1.6730383E-1,1.0628509E-1,-1.0342448E0,-1.8770555E-2,6.954358E-2,4.563168E-1,1.932606E-2,-1.4300078E-1,-3.4021658E-1,-5.8113065E-2,8.0865806E-1,5.3159446E-3,-8.5650556E-2,-8.3560914E-1,5.8354754E-2,2.1077605E-1],"categories":[],"categories_nodes":[],"categories_segments":[],"categories_sizes":[],"default_left":[0,0,0,0,0,0,0,0,0,0,0,0,0,0,0,0,0,0,0,0,0,0,0,0,0,0,0,0,0,0,0],"id":35,"left_children":[1,3,5,7,9,11,13,15,17,19,21,23,25,27,29,-1,-1,-1,-1,-1,-1,-1,-1,-1,-1,-1,-1,-1,-1,-1,-1],"loss_changes":[2.5443413E3,1.1370422E3,2.0901897E3,2.318231E3,1.4484789E3,1.01345435E3,1.0795046E3,1.5649703E3,3.529336E2,1.067122E3,1.5155944E3,1.0341449E3,4.4056635E2,2.622851E2,1.0575188E3,0E0,0E0,0E0,0E0,0E0,0E0,0E0,0E0,0E0,0E0,0E0,0E0,0E0,0E0,0E0,0E0],"parents":[2147483647,0,0,1,1,2,2,3,3,4,4,5,5,6,6,7,7,8,8,9,9,10,10,11,11,12,12,13,13,14,14],"right_children":[2,4,6,8,10,12,14,16,18,20,22,24,26,28,30,-1,-1,-1,-1,-1,-1,-1,-1,-1,-1,-1,-1,-1,-1,-1,-1],"split_conditions":[-2.6695759E1,-8.888889E-2,-2.5133753E0,5E-1,-1.6760546E0,3.2117898E0,-1.5192268E-2,1.0789176E0,5E0,1.5068225E0,5.9049E-1,-1.1810412E-2,1.6666668E-2,-3.2189544E-2,1.9170439E-2,-1.6730383E-1,1.0628509E-1,-1.0342448E0,-1.8770555E-2,6.954358E-2,4.563168E-1,1.932606E-2,-1.4300078E-1,-3.4021658E-1,-5.8113065E-2,8.0865806E-1,5.3159446E-3,-8.5650556E-2,-8.3560914E-1,5.8354754E-2,2.1077605E-1],"split_indices":[1,26,19,24,22,22,30,19,2,30,36,27,26,27,33,0,0,0,0,0,0,0,0,0,0,0,0,0,0,0,0],"split_type":[0,0,0,0,0,0,0,0,0,0,0,0,0,0,0,0,0,0,0,0,0,0,0,0,0,0,0,0,0,0,0],"sum_hessian":[2.5E3,1.019E3,1.481E3,3.14E2,7.05E2,1.52E2,1.329E3,3.06E2,8E0,1.18E2,5.87E2,1.46E2,6E0,5E0,1.324E3,2.4E2,6.6E1,7E0,1E0,9.7E1,2.1E1,3.38E2,2.49E2,4.8E1,9.8E1,3E0,3E0,2E0,3E0,1.199E3,1.25E2],"tree_param":{"num_deleted":"0","num_feature":"37","num_nodes":"31","size_leaf_vector":"1"}},{"base_weights":[-3.0652704E-2,-2.0034797E0,6.1032003E-1,-4.0053616E0,-1.0222579E0,1.5298958E-1,2.620002E0,-4.978551E0,1.1986386E0,-9.89639E-2,-3.773066E0,3.0313396E-1,-9.1748495E0,-4.315769E0,3.2243605E0,-2.2809766E-1,-8.781969E-1,1.6565312E-1,-1.0172573E0,-4.2971426E-1,2.3189446E-2,5.9988804E-2,-2.6180214E-1,9.6405946E-2,-1.2255746E-2,-5.8094734E-1,1.2182553E-1,-4.5200172E-1,1.368294E-1,5.0861377E-1,1.3736187E-1],"categories":[],"categories_nodes":[],"categories_segments":[],"categories_sizes":[],"default_left":[0,0,0,0,0,0,0,0,0,0,0,0,0,0,0,0,0,0,0,0,0,0,0,0,0,0,0,0,0,0,0],"id":36,"left_children":[1,3,5,7,9,11,13,15,17,19,21,23,25,27,29,-1,-1,-1,-1,-1,-1,-1,-1,-1,-1,-1,-1,-1,-1,-1,-1],"loss_changes":[3.109433E3,1.1803728E3,1.7054281E3,1.0087344E3,1.0307874E3,2.121772E3,1.4558574E3,7.954629E2,1.5250911E3,1.4621195E3,7.4834766E2,1.327908E3,7.094127E2,9.5762067E2,1.02291235E3,0E0,0E0,0E0,0E0,0E0,0E0,0E0,0E0,0E0,0E0,0E0,0E0,0E0,0E0,0E0,0E0],"parents":[2147483647,0,0,1,1,2,2,3,3,4,4,5,5,6,6,7,7,8,8,9,9,10,10,11,11,12,12,13,13,14,14],"right_children":[2,4,6,8,10,12,14,16,18,20,22,24,26,28,30,-1,-1,-1,-1,-1,-1,-1,-1,-1,-1,-1,-1,-1,-1,-1,-1],"split_conditions":[-7.968289E1,-9.52381E-2,1.1547276E2,1.0578425E-2,5.360624E-3,2.5224775E-1,-1.5012195E-2,5E-1,5.6574073E-2,-1.3295972E0,-8.6E-1,-1.8666667E0,-2.8E-1,5.551115E-17,-1.785582E-2,-2.2809766E-1,-8.781969E-1,1.6565312E-1,-1.0172573E0,-4.2971426E-1,2.3189446E-2,5.9988804E-2,-2.6180214E-1,9.6405946E-2,-1.2255746E-2,-5.8094734E-1,1.2182553E-1,-4.5200172E-1,1.368294E-1,5.0861377E-1,1.3736187E-1],"split_indices":[1,26,1,17,17,27,17,24,20,34,10,14,10,28,33,0,0,0,0,0,0,0,0,0,0,0,0,0,0,0,0],"split_type":[0,0,0,0,0,0,0,0,0,0,0,0,0,0,0,0,0,0,0,0,0,0,0,0,0,0,0,0,0,0,0],"sum_hessian":[2.457E3,6.02E2,1.855E3,1.97E2,4.05E2,1.512E3,3.43E2,1.66E2,3.1E1,3.04E2,1.01E2,1.489E3,2.3E1,2.7E1,3.16E2,1.62E2,4E0,2.9E1,2E0,1.8E1,2.86E2,2.3E1,7.8E1,3.75E2,1.114E3,1.9E1,4E0,1.6E1,1.1E1,1.9E1,2.97E2],"tree_param":{"num_deleted":"0","num_feature":"37","num_nodes":"31","size_leaf_vector":"1"}},{"base_weights":[1.0193734E-1,-1.2686491E0,6.157557E-1,3.921147E0,-1.6361684E0,2.9295674E-1,2.5741863E0,7.3387723E0,-1.1418542E0,-1.8706844E0,6.0285172E0,5.859927E-1,-1.9112529E0,-7.231416E-1,4.004621E0,4.3628556E-1,-3.3326548E-1,2.2083174E-1,-3.2930788E-1,-2.97907E-1,-7.003962E-2,3.7457982E-1,-5.076725E-1,4.3944937E-1,2.473424E-2,5.1039558E-2,-1.9421403E-1,-1.447555E-1,4.7063252E-1,1.026433E-1,3.18493E-1],"categories":[],"categories_nodes":[],"categories_segments":[],"categories_sizes":[],"default_left":[0,0,0,0,0,0,0,0,0,0,0,0,0,0,0,0,0,0,0,0,0,0,0,0,0,0,0,0,0,0,0],"id":37,"left_children":[1,3,5,7,9,11,13,15,17,19,21,23,25,27,29,-1,-1,-1,-1,-1,-1,-1,-1,-1,-1,-1,-1,-1,-1,-1,-1],"loss_changes":[1.7458693E3,1.2957843E3,1.1390652E3,7.8703467E2,1.1472922E3,1.00163873E3,1.2056321E3,5.825753E2,6.040686E2,1.1709409E3,5.2589984E2,1.02028186E3,1.0568357E3,1.744391E3,8.0863696E2,0E0,0E0,0E0,0E0,0E0,0E0,0E0,0E0,0E0,0E0,0E0,0E0,0E0,0E0,0E0,0E0],"parents":[2147483647,0,0,1,1,2,2,3,3,4,4,5,5,6,6,7,7,8,8,9,9,10,10,11,11,12,12,13,13,14,14],"right_children":[2,4,6,8,10,12,14,16,18,20,22,24,26,28,30,-1,-1,-1,-1,-1,-1,-1,-1,-1,-1,-1,-1,-1,-1,-1,-1],"split_conditions":[-6.576075E1,-5.5E-1,1.6504502E-2,4.5134228E-1,5.2777777E0,1.229108E-2,-1.2698413E-1,2.4222221E0,-7.5200363E-3,-3.6666667E-1,1E0,-1.575E2,-4.1666668E-2,1.1128549E2,-3.253692E-3,4.3628556E-1,-3.3326548E-1,2.2083174E-1,-3.2930788E-1,-2.97907E-1,-7.003962E-2,3.7457982E-1,-5.076725E-1,4.3944937E-1,2.473424E-2,5.1039558E-2,-1.9421403E-1,-1.447555E-1,4.7063252E-1,1.026433E-1,3.18493E-1],"split_indices":[1,32,33,22,13,16,28,13,33,28,36,4,27,1,21,0,0,0,0,0,0,0,0,0,0,0,0,0,0,0,0],"split_type":[0,0,0,0,0,0,0,0,0,0,0,0,0,0,0,0,0,0,0,0,0,0,0,0,0,0,0,0,0,0,0],"sum_hessian":[2.477E3,6.75E2,1.802E3,4.4E1,6.31E2,1.548E3,2.54E2,2.6E1,1.8E1,6.13E2,1.8E1,1.367E3,1.81E2,7.7E1,1.77E2,2.4E1,2E0,9E0,9E0,6.2E1,5.51E2,1.7E1,1E0,1.4E1,1.353E3,7.3E1,1.08E2,6.4E1,1.3E1,9.8E1,7.9E1],"tree_param":{"num_deleted":"0","num_feature":"37","num_nodes":"31","size_leaf_vector":"1"}},{"base_weights":[-8.2639806E-2,-1.2171836E0,7.274678E-1,9.4069386E-1,-1.2746798E0,-8.166862E0,7.9551977E-1,-9.324683E-1,-4.6904473E0,-1.3712152E0,-5.2719134E-1,8.783331E-1,-6.5624766E0,-3.4527326E-1,-3.6307707E-2,-3.3693563E-2,-4.3036133E-1,-6.9716545E-3,-8.6766586E-2,4.0221214E-2,4.3850884E-1,-5.619238E-1,2.9862088E-1],"categories":[],"categories_nodes":[],"categories_segments":[],"categories_sizes":[],"default_left":[0,0,0,0,0,0,0,0,0,0,0,0,0,0,0,0,0,0,0,0,0,0,0],"id":38,"left_children":[1,3,5,-1,7,9,11,13,15,17,-1,19,21,-1,-1,-1,-1,-1,-1,-1,-1,-1,-1],"loss_changes":[2.263716E3,1.2056338E3,8.762793E2,0E0,1.1925951E3,1.6322534E2,8.752925E2,1.143502E3,1.4572795E3,1.5520854E0,0E0,8.165316E2,1.0049314E3,0E0,0E0,0E0,0E0,0E0,0E0,0E0,0E0,0E0,0E0],"parents":[2147483647,0,0,1,1,2,2,4,4,5,5,6,6,7,7,8,8,9,9,11,11,12,12],"right_children":[2,4,6,-1,8,10,12,14,16,18,-1,20,22,-1,-1,-1,-1,-1,-1,-1,-1,-1,-1],"split_conditions":[-2.33307E1,-1.7666666E1,-2.653846E-1,9.4069386E-1,5.6574073E-2,1.9028448E1,2.7638888E-1,-2.5582773E2,-2.178439E-3,-1.2158433E1,-5.2719134E-1,3.659198E-2,1.7333334E1,-3.4527326E-1,-3.6307707E-2,-3.3693563E-2,-4.3036133E-1,-6.9716545E-3,-8.6766586E-2,4.0221214E-2,4.3850884E-1,-5.619238E-1,2.9862088E-1],"split_indices":[1,3,25,0,20,1,27,1,33,1,0,16,2,0,0,0,0,0,0,0,0,0,0],"split_type":[0,0,0,0,0,0,0,0,0,0,0,0,0,0,0,0,0,0,0,0,0,0,0],"sum_hessian":[2.461E3,1.025E3,1.436E3,2E0,1.023E3,1E1,1.426E3,9.31E2,9.2E1,3E0,7E0,1.411E3,1.5E1,3E1,9.01E2,4.6E1,4.6E1,1E0,2E0,1.399E3,1.2E1,1.1E1,4E0],"tree_param":{"num_deleted":"0","num_feature":"37","num_nodes":"23","size_leaf_vector":"1"}},{"base_weights":[3.872501E-2,-2.2713363E0,3.315315E-1,7.9129367E0,-2.9869313E0,2.0956845E0,-1.2769908E-1,1.6623064E0,1.5518436E1,-8.642926E0,-1.5860163E0,6.796823E-2,3.9467824E0,-7.9713097E0,-9.991837E-3,2.7770898E-1,-3.268508E-1,9.94246E-1,8.063281E-2,3.035942E-1,-4.8556796E-1,-1.6531767E-1,1.3489853E-1,1.3050541E-1,-1.2863E-1,-3.451588E-1,2.209936E-1,-2.664066E-1,-7.7266765E-1,1.0781558E-1,-1.9685624E-2],"categories":[],"categories_nodes":[],"categories_segments":[],"categories_sizes":[],"default_left":[0,0,0,0,0,0,0,0,0,0,0,0,0,0,0,0,0,0,0,0,0,0,0,0,0,0,0,0,0,0,0],"id":39,"left_children":[1,3,5,7,9,11,13,15,17,19,21,23,25,27,29,-1,-1,-1,-1,-1,-1,-1,-1,-1,-1,-1,-1,-1,-1,-1,-1],"loss_changes":[1.6234387E3,1.991346E3,1.7258936E3,8.299087E2,1.9909551E3,1.6512725E3,1.5611357E3,3.8732565E2,4.5368738E2,8.450554E2,1.5123802E3,1.423093E3,1.2111016E3,4.1207166E2,1.3865518E3,0E0,0E0,0E0,0E0,0E0,0E0,0E0,0E0,0E0,0E0,0E0,0E0,0E0,0E0,0E0,0E0],"parents":[2147483647,0,0,1,1,2,2,3,3,4,4,5,5,6,6,7,7,8,8,9,9,10,10,11,11,12,12,13,13,14,14],"right_children":[2,4,6,8,10,12,14,16,18,20,22,24,26,28,30,-1,-1,-1,-1,-1,-1,-1,-1,-1,-1,-1,-1,-1,-1,-1,-1],"split_conditions":[-1.2566667E0,-1.78E2,-1.8948759E-1,-2.113694E1,-3.1722221E0,-3.1731278E-1,-4.971001E-1,6.666667E-2,-7.868965E-1,-6.111111E-1,1.1E-1,5.31441E-1,-2.1082208E-1,-1.4138177E-1,-1.2990922E0,2.7770898E-1,-3.268508E-1,9.94246E-1,8.063281E-2,3.035942E-1,-4.8556796E-1,-1.6531767E-1,1.3489853E-1,1.3050541E-1,-1.2863E-1,-3.451588E-1,2.209936E-1,-2.664066E-1,-7.7266765E-1,1.0781558E-1,-1.9685624E-2],"split_indices":[9,4,21,7,13,21,31,26,22,32,10,36,8,27,19,0,0,0,0,0,0,0,0,0,0,0,0,0,0,0,0],"split_type":[0,0,0,0,0,0,0,0,0,0,0,0,0,0,0,0,0,0,0,0,0,0,0,0,0,0,0,0,0,0,0],"sum_hessian":[2.398E3,2.69E2,2.129E3,1.7E1,2.52E2,4.39E2,1.69E3,1E1,7E0,4.9E1,2.03E2,2.1E2,2.29E2,2.4E1,1.666E3,7E0,3E0,5E0,2E0,3E0,4.6E1,1.45E2,5.8E1,1.07E2,1.03E2,9E0,2.2E2,1.9E1,5E0,2.5E2,1.416E3],"tree_param":{"num_deleted":"0","num_feature":"37","num_nodes":"31","size_leaf_vector":"1"}},{"base_weights":[4.559851E-2,-6.5861484E-3,9.792594E0,2.270956E-1,-2.263431E0,-1.7763202E-1,1.2541967E1,3.4998944E-1,-4.5765963E0,-2.6561723E0,8.868973E0,5.9644904E-2,6.778793E-1,9.994281E-3,1.6056584E-1,-3.085645E-1,6.302299E-1,8.025277E-2,-1.8472935E-1,8.8027194E-2,6.390961E-1],"categories":[],"categories_nodes":[],"categories_segments":[],"categories_sizes":[],"default_left":[0,0,0,0,0,0,0,0,0,0,0,0,0,0,0,0,0,0,0,0,0],"id":40,"left_children":[1,3,5,7,9,-1,11,13,15,17,19,-1,-1,-1,-1,-1,-1,-1,-1,-1,-1],"loss_changes":[1.2416636E3,1.2815284E3,5.215405E2,1.3015396E3,1.0204087E3,0E0,1.106167E2,9.2191565E2,1.5847172E3,9.838379E2,2.0001624E2,0E0,0E0,0E0,0E0,0E0,0E0,0E0,0E0,0E0,0E0],"parents":[2147483647,0,0,1,1,2,2,3,3,4,4,6,6,7,7,8,8,9,9,10,10],"right_children":[2,4,6,8,10,-1,12,14,16,18,20,-1,-1,-1,-1,-1,-1,-1,-1,-1,-1],"split_conditions":[2.7766666E0,1.0666667E1,-1.3641329E-2,2.4475524E-1,1.6895636E1,-1.7763202E-1,-1.3333334E0,2.6849754E0,5.3333336E-1,-3.3333334E-1,1.4333333E1,5.9644904E-2,6.778793E-1,9.994281E-3,1.6056584E-1,-3.085645E-1,6.302299E-1,8.025277E-2,-1.8472935E-1,8.8027194E-2,6.390961E-1],"split_indices":[9,3,33,27,7,0,12,30,32,32,3,0,0,0,0,0,0,0,0,0,0],"split_type":[0,0,0,0,0,0,0,0,0,0,0,0,0,0,0,0,0,0,0,0,0],"sum_hessian":[2.44E3,2.428E3,1.2E1,2.201E3,2.27E2,2E0,1E1,2.147E3,5.4E1,2.2E2,7E0,1E0,9E0,2.041E3,1.06E2,5E1,4E0,4.3E1,1.77E2,3E0,4E0],"tree_param":{"num_deleted":"0","num_feature":"37","num_nodes":"21","size_leaf_vector":"1"}},{"base_weights":[-8.171965E-2,-8.286539E-1,1.0311892E0,-1.1238996E0,3.5517979E0,1.5091459E0,-1.5608182E0,-9.4266176E-1,-7.1582074E0,1.3012111E0,1.0344836E1,6.3095224E-1,2.8729901E0,-2.7654088E0,5.792426E0,-4.2976912E-2,-5.446121E-1,-4.0217778E-1,3.221133E-1,-3.0019197E-1,1.6825663E-1,-6.490203E-2,6.432143E-1,-9.544368E-1,3.929492E-2,3.68277E-1,9.26334E-2,-1.2504682E-2,-3.6072013E-1,1.9659661E-1,8.132456E-1],"categories":[],"categories_nodes":[],"categories_segments":[],"categories_sizes":[],"default_left":[0,0,0,0,0,0,0,0,0,0,0,0,0,0,0,0,0,0,0,0,0,0,0,0,0,0,0,0,0,0,0],"id":41,"left_children":[1,3,5,7,9,11,13,15,17,19,21,23,25,27,29,-1,-1,-1,-1,-1,-1,-1,-1,-1,-1,-1,-1,-1,-1,-1,-1],"loss_changes":[2.0407902E3,1.903864E3,1.2238787E3,1.499201E3,1.408353E3,9.958873E2,1.3800966E3,1.0972228E3,5.334646E2,1.0906741E3,6.913721E2,1.5671904E3,1.4806887E3,1.4865482E3,3.6469537E2,0E0,0E0,0E0,0E0,0E0,0E0,0E0,0E0,0E0,0E0,0E0,0E0,0E0,0E0,0E0,0E0],"parents":[2147483647,0,0,1,1,2,2,3,3,4,4,5,5,6,6,7,7,8,8,9,9,10,10,11,11,12,12,13,13,14,14],"right_children":[2,4,6,8,10,12,14,16,18,20,22,24,26,28,30,-1,-1,-1,-1,-1,-1,-1,-1,-1,-1,-1,-1,-1,-1,-1,-1],"split_conditions":[4.8849724E-2,2.1216417E-2,3.0426535E-1,6.388889E-1,1.8333334E-1,1.7741369E0,1.7956349E-1,1.5966667E2,3.2E1,3.138106E-1,-1.6630591E-1,-5.315398E0,-6.5E0,7.5E0,1.5706653E-2,-4.2976912E-2,-5.446121E-1,-4.0217778E-1,3.221133E-1,-3.0019197E-1,1.6825663E-1,-6.490203E-2,6.432143E-1,-9.544368E-1,3.929492E-2,3.68277E-1,9.26334E-2,-1.2504682E-2,-3.6072013E-1,1.9659661E-1,8.132456E-1],"split_indices":[34,17,21,28,26,19,25,5,4,36,25,22,3,2,17,0,0,0,0,0,0,0,0,0,0,0,0,0,0,0,0],"split_type":[0,0,0,0,0,0,0,0,0,0,0,0,0,0,0,0,0,0,0,0,0,0,0,0,0,0,0,0,0,0,0],"sum_hessian":[2.453E3,1.468E3,9.85E2,1.376E3,9.2E1,8.32E2,1.53E2,1.337E3,3.9E1,7E1,2.2E1,5.07E2,3.25E2,1.32E2,2.1E1,1.327E3,1E1,3.7E1,2E0,1.5E1,5.5E1,4E0,1.8E1,3E0,5.04E2,5.9E1,2.66E2,8.5E1,4.7E1,1.9E1,2E0],"tree_param":{"num_deleted":"0","num_feature":"37","num_nodes":"31","size_leaf_vector":"1"}},{"base_weights":[2.3190781E-1,-3.860551E-1,1.2080082E0,-4.4324195E-1,1.4041718E1,3.0794046E0,4.1767493E-1,-3.1314522E-1,-6.0702815E0,8.562835E-1,-3.4451224E-2,1.5528921E0,6.100015E0,1.2324959E0,-1.8254032E0,-4.2186517E-2,5.7169598E-2,-2.2710267E-2,-4.9894124E-1,4.4679937E-1,3.8786624E-2,3.657584E-1,-1.9221728E-1,-2.2451233E-2,1.3527636E-1,3.1991586E-1,-1.4178227E-1],"categories":[],"categories_nodes":[],"categories_segments":[],"categories_sizes":[],"default_left":[0,0,0,0,0,0,0,0,0,0,0,0,0,0,0,0,0,0,0,0,0,0,0,0,0,0,0],"id":42,"left_children":[1,3,5,7,9,11,13,15,17,-1,-1,19,21,23,25,-1,-1,-1,-1,-1,-1,-1,-1,-1,-1,-1,-1],"loss_changes":[1.4891489E3,1.253743E3,1.4141423E3,1.1013127E3,2.843734E2,1.3000513E3,1.2341244E3,1.140097E3,7.417904E2,0E0,0E0,1.0832582E3,1.1760935E3,1.2272965E3,1.5135745E3,0E0,0E0,0E0,0E0,0E0,0E0,0E0,0E0,0E0,0E0,0E0,0E0],"parents":[2147483647,0,0,1,1,2,2,3,3,4,4,5,5,6,6,7,7,8,8,11,11,12,12,13,13,14,14],"right_children":[2,4,6,8,10,12,14,16,18,-1,-1,20,22,24,26,-1,-1,-1,-1,-1,-1,-1,-1,-1,-1,-1,-1],"split_conditions":[8.3626E-1,2.05E1,-3.4333332E1,2.4475524E-1,1.3333334E0,-6.8589896E-1,5E-1,-7.913614E-2,-1.1466666E0,8.562835E-1,-3.4451224E-2,-3.75E-1,2.6400478E0,5.0565686E-2,-1.6406623E-1,-4.2186517E-2,5.7169598E-2,-2.2710267E-2,-4.9894124E-1,4.4679937E-1,3.8786624E-2,3.657584E-1,-1.9221728E-1,-2.2451233E-2,1.3527636E-1,3.1991586E-1,-1.4178227E-1],"split_indices":[7,2,5,27,3,22,24,31,10,0,0,28,30,8,21,0,0,0,0,0,0,0,0,0,0,0,0],"split_type":[0,0,0,0,0,0,0,0,0,0,0,0,0,0,0,0,0,0,0,0,0,0,0,0,0,0,0],"sum_hessian":[2.467E3,1.511E3,9.56E2,1.506E3,5E0,2.83E2,6.73E2,1.473E3,3.3E1,4E0,1E0,1.89E2,9.4E1,4.94E2,1.79E2,1.08E3,3.93E2,1.4E1,1.9E1,1.7E1,1.72E2,8.4E1,1E1,2.31E2,2.63E2,1.9E1,1.6E2],"tree_param":{"num_deleted":"0","num_feature":"37","num_nodes":"27","size_leaf_vector":"1"}},{"base_weights":[1.871866E-1,3.12742E-1,-4.7804666E0,-3.5248673E-1,1.3976597E0,8.748545E0,-5.6310797E0,-1.2847629E0,5.4242283E-1,5.8628387E0,1.0670117E0,6.0282654E-1,1.8135196E-1,-1.1814845E0,-4.5663137E0,-2.0233946E-1,-3.129291E-2,1.5181772E-2,4.291134E-1,4.0174603E-1,-6.875349E-4,5.241476E-1,4.5459248E-2,-2.9181266E-1,1.8914282E-1],"categories":[],"categories_nodes":[],"categories_segments":[],"categories_sizes":[],"default_left":[0,0,0,0,0,0,0,0,0,0,0,0,0,0,0,0,0,0,0,0,0,0,0,0,0],"id":43,"left_children":[1,3,5,7,9,11,13,15,17,19,21,-1,-1,-1,23,-1,-1,-1,-1,-1,-1,-1,-1,-1,-1],"loss_changes":[1.5433202E3,1.7412773E3,7.5124915E2,1.248814E3,1.3476046E3,2.4037964E1,1.0036295E3,1.3314628E3,1.4641316E3,8.0427E2,1.2610742E3,0E0,0E0,0E0,6.158424E2,0E0,0E0,0E0,0E0,0E0,0E0,0E0,0E0,0E0,0E0],"parents":[2147483647,0,0,1,1,2,2,3,3,4,4,5,5,6,6,7,7,8,8,9,9,10,10,14,14],"right_children":[2,4,6,8,10,12,14,16,18,20,22,-1,-1,-1,24,-1,-1,-1,-1,-1,-1,-1,-1,-1,-1],"split_conditions":[1.4033333E2,8.3626E-1,-2.7260678E-2,-2.259085E1,-4.4666666E-1,-5.685707E1,-2.3905162E-2,-1.1246056E-1,6.915084E-1,8.1E-1,-3E0,6.0282654E-1,1.8135196E-1,-1.1814845E0,4.9796037E-2,-2.0233946E-1,-3.129291E-2,1.5181772E-2,4.291134E-1,4.0174603E-1,-6.875349E-4,5.241476E-1,4.5459248E-2,-2.9181266E-1,1.8914282E-1],"split_indices":[5,7,16,1,9,1,16,35,34,36,23,0,0,0,27,0,0,0,0,0,0,0,0,0,0],"split_type":[0,0,0,0,0,0,0,0,0,0,0,0,0,0,0,0,0,0,0,0,0,0,0,0,0],"sum_hessian":[2.471E3,2.411E3,6E1,1.495E3,9.16E2,3E0,5.7E1,7.32E2,7.63E2,6.2E1,8.54E2,1E0,2E0,2E0,5.5E1,1.4E2,5.92E2,7.42E2,2.1E1,4.5E1,1.7E1,1.3E1,8.41E2,4.8E1,7E0],"tree_param":{"num_deleted":"0","num_feature":"37","num_nodes":"25","size_leaf_vector":"1"}},{"base_weights":[-1.3193753E-1,-1.4340023E0,4.0125024E-1,-7.6921315E0,-1.1142852E0,1.9376893E0,-8.066204E-2,6.783902E0,-9.311873E0,-6.953471E-1,-5.7861333E0,8.1952505E0,1.4042338E0,4.251514E0,-3.9663172E-1,1.0363575E-1,3.8316965E-1,-6.51695E-1,-9.611421E-3,3.3153874E-1,-5.017763E-2,-4.6577272E-1,-1.150346E-1,6.186732E-1,1.6218483E-1,-2.9896293E-2,1.562352E-1,2.574924E-1,-1.2933302E-1,-1.4962517E-2,-5.536263E-1],"categories":[],"categories_nodes":[],"categories_segments":[],"categories_sizes":[],"default_left":[0,0,0,0,0,0,0,0,0,0,0,0,0,0,0,0,0,0,0,0,0,0,0,0,0,0,0,0,0,0,0],"id":44,"left_children":[1,3,5,7,9,11,13,15,17,19,21,23,25,27,29,-1,-1,-1,-1,-1,-1,-1,-1,-1,-1,-1,-1,-1,-1,-1,-1],"loss_changes":[1.6799542E3,1.3980123E3,1.2714728E3,8.603838E2,1.3073112E3,1.3571254E3,1.7921239E3,6.897583E-1,1.0497451E3,1.3975522E3,6.5513635E2,6.219009E2,1.307393E3,5.600448E2,1.2650391E3,0E0,0E0,0E0,0E0,0E0,0E0,0E0,0E0,0E0,0E0,0E0,0E0,0E0,0E0,0E0,0E0],"parents":[2147483647,0,0,1,1,2,2,3,3,4,4,5,5,6,6,7,7,8,8,9,9,10,10,11,11,12,12,13,13,14,14],"right_children":[2,4,6,8,10,12,14,16,18,20,22,24,26,28,30,-1,-1,-1,-1,-1,-1,-1,-1,-1,-1,-1,-1,-1,-1,-1,-1],"split_conditions":[-4.5723424E0,-4.506101E-1,-4.6666665E0,-1.6133333E2,-5.188889E0,-1.250282E-1,-2E0,-1.9134138E2,-8.130135E0,-4.5277777E0,0E0,-9.3333334E-1,2.4E1,8.7777776E-1,1.0563736E-1,1.0363575E-1,3.8316965E-1,-6.51695E-1,-9.611421E-3,3.3153874E-1,-5.017763E-2,-4.6577272E-1,-1.150346E-1,6.186732E-1,1.6218483E-1,-2.9896293E-2,1.562352E-1,2.574924E-1,-1.2933302E-1,-1.4962517E-2,-5.536263E-1],"split_indices":[7,31,3,4,7,35,23,1,7,14,23,14,4,13,29,0,0,0,0,0,0,0,0,0,0,0,0,0,0,0,0],"split_type":[0,0,0,0,0,0,0,0,0,0,0,0,0,0,0,0,0,0,0,0,0,0,0,0,0,0,0,0,0,0,0],"sum_hessian":[2.418E3,7.02E2,1.716E3,3.3E1,6.69E2,4.09E2,1.307E3,3E0,3E1,6.15E2,5.4E1,3.1E1,3.78E2,8.8E1,1.219E3,1E0,2E0,2.1E1,9E0,2.4E1,5.91E2,2.6E1,2.8E1,1.6E1,1.5E1,1.75E2,2.03E2,7.8E1,1E1,1.209E3,1E1],"tree_param":{"num_deleted":"0","num_feature":"37","num_nodes":"31","size_leaf_vector":"1"}},{"base_weights":[1.4987627E-1,-7.18777E0,2.4047738E-1,-1.3307598E1,-2.9443114E0,-3.11578E0,3.995752E-1,1.9383456E0,-1.6550621E1,-4.478124E0,3.364366E-1,-5.4183445E0,5.9794474E-1,4.91408E-1,-4.590774E0,2.052975E-1,-5.9921574E-2,2.2125363E-2,-9.2439574E-1,-3.8612653E-2,-3.843213E-1,-3.0395678E-1,5.462581E-1,-3.5057658E-1,2.0645511E-1,1.9772495E-1,1.858569E-2,-3.1396025E-1,3.2931727E-1],"categories":[],"categories_nodes":[],"categories_segments":[],"categories_sizes":[],"default_left":[0,0,0,0,0,0,0,0,0,0,0,0,0,0,0,0,0,0,0,0,0,0,0,0,0,0,0,0,0],"id":45,"left_children":[1,3,5,7,9,11,13,15,17,19,-1,21,23,25,27,-1,-1,-1,-1,-1,-1,-1,-1,-1,-1,-1,-1,-1,-1],"loss_changes":[1.6351395E3,7.398955E2,1.2977322E3,6.2539624E2,3.120282E2,9.4385986E2,1.065002E3,2.5318573E1,3.3738745E2,1.9618652E2,0E0,8.007905E2,1.1843724E3,9.427881E2,8.3397217E2,0E0,0E0,0E0,0E0,0E0,0E0,0E0,0E0,0E0,0E0,0E0,0E0,0E0,0E0],"parents":[2147483647,0,0,1,1,2,2,3,3,4,4,5,5,6,6,7,7,8,8,9,9,11,11,12,12,13,13,14,14],"right_children":[2,4,6,8,10,12,14,16,18,20,-1,22,24,26,28,-1,-1,-1,-1,-1,-1,-1,-1,-1,-1,-1,-1,-1,-1],"split_conditions":[-4.971001E-1,-8.130135E0,-1.1063986E0,1.4888889E0,1.7914472E-2,9.002245E-1,1.7333334E1,-1.3666667E1,-9.283334E0,1.4910522E-1,3.364366E-1,2.3333333E0,-2.8450716E-1,-6.866667E0,3E0,2.052975E-1,-5.9921574E-2,2.2125363E-2,-9.2439574E-1,-3.8612653E-2,-3.843213E-1,-3.0395678E-1,5.462581E-1,-3.5057658E-1,2.0645511E-1,1.9772495E-1,1.858569E-2,-3.1396025E-1,3.2931727E-1],"split_indices":[31,7,34,14,33,30,3,2,13,22,0,11,31,13,23,0,0,0,0,0,0,0,0,0,0,0,0,0,0],"split_type":[0,0,0,0,0,0,0,0,0,0,0,0,0,0,0,0,0,0,0,0,0,0,0,0,0,0,0,0,0],"sum_hessian":[2.456E3,2.9E1,2.427E3,1.1E1,1.8E1,1.09E2,2.318E3,2E0,9E0,1.6E1,2E0,6.7E1,4.2E1,2.277E3,4.1E1,1E0,1E0,1E0,8E0,8E0,8E0,6.5E1,2E0,1.3E1,2.9E1,7.5E1,2.202E3,3.6E1,5E0],"tree_param":{"num_deleted":"0","num_feature":"37","num_nodes":"29","size_leaf_vector":"1"}},{"base_weights":[5.129378E-2,3.913806E0,-1.0824161E-1,3.1201293E0,1.0892587E0,-1.8830702E0,1.6433084E-1,3.9736426E0,-6.658532E0,-2.4486103E0,3.7982595E0,8.389743E0,9.57724E-2,9.6688434E-2,4.3817908E-1,7.662024E-2,-5.939788E-1,1.8445344E-1,-1.4725828E-1,9.25414E-1,6.9454625E-2,-1.775532E-1,6.830501E-1,-6.943293E-1,6.5014767E-3],"categories":[],"categories_nodes":[],"categories_segments":[],"categories_sizes":[],"default_left":[0,0,0,0,0,0,0,0,0,0,0,0,0,0,0,0,0,0,0,0,0,0,0,0,0],"id":46,"left_children":[1,3,5,7,-1,9,11,13,15,17,19,21,23,-1,-1,-1,-1,-1,-1,-1,-1,-1,-1,-1,-1],"loss_changes":[1.5224559E3,1.3220677E3,1.1482943E3,8.193492E2,0E0,1.0246144E3,1.1597468E3,8.4289E2,3.6032623E2,8.8860205E2,1.0020183E3,1.1185433E3,9.799143E2,0E0,0E0,0E0,0E0,0E0,0E0,0E0,0E0,0E0,0E0,0E0,0E0],"parents":[2147483647,0,0,1,1,2,2,3,3,5,5,6,6,7,7,8,8,9,9,10,10,11,11,12,12],"right_children":[2,4,6,8,-1,10,12,14,16,18,20,22,24,-1,-1,-1,-1,-1,-1,-1,-1,-1,-1,-1,-1],"split_conditions":[-2.7960526E-2,6.838889E0,-1.1333333E0,6.25E-1,1.0892587E0,2E0,-3.976062E0,1.0138916E-1,-2E0,-1.78E2,4.6205044E-1,3.138106E-1,-3.7254264E0,9.6688434E-2,4.3817908E-1,7.662024E-2,-5.939788E-1,1.8445344E-1,-1.4725828E-1,9.25414E-1,6.9454625E-2,-1.775532E-1,6.830501E-1,-6.943293E-1,6.5014767E-3],"split_indices":[33,13,9,28,0,23,19,18,2,4,30,36,19,0,0,0,0,0,0,0,0,0,0,0,0],"split_type":[0,0,0,0,0,0,0,0,0,0,0,0,0,0,0,0,0,0,0,0,0,0,0,0,0],"sum_hessian":[2.469E3,9.7E1,2.372E3,9.4E1,3E0,3.15E2,2.057E3,8.7E1,7E0,2.87E2,2.8E1,1.6E1,2.041E3,6.2E1,2.5E1,3E0,4E0,2.1E1,2.66E2,3E0,2.5E1,5E0,1.1E1,4E0,2.037E3],"tree_param":{"num_deleted":"0","num_feature":"37","num_nodes":"25","size_leaf_vector":"1"}},{"base_weights":[-1.4243644E-1,-4.70998E-1,1.1120578E0,-3.9881134E-1,-1.1157262E1,1.6265253E0,-3.3449929E0,-6.22399E-1,2.8928049E0,2.4862628E-1,-1.2915789E1,9.499116E-2,3.2615798E0,-5.443566E0,5.1626086E0,3.8779458E-1,-3.578317E-2,2.35985E-1,-1.5958016E-1,-1.6045815E-1,-7.897379E-1,1.9095077E-1,-7.765915E-2,2.12862E-1,-9.866313E-2,-1.8398498E-1,-7.853728E-1,-2.532894E-1,5.865545E-1],"categories":[],"categories_nodes":[],"categories_segments":[],"categories_sizes":[],"default_left":[0,0,0,0,0,0,0,0,0,0,0,0,0,0,0,0,0,0,0,0,0,0,0,0,0,0,0,0,0],"id":47,"left_children":[1,3,5,7,9,11,13,15,17,-1,19,21,23,25,27,-1,-1,-1,-1,-1,-1,-1,-1,-1,-1,-1,-1,-1,-1],"loss_changes":[1.0107735E3,1.4943916E3,1.1725815E3,1.4229482E3,4.3296436E2,1.1440828E3,9.7435547E2,1.4190977E3,1.382279E3,0E0,2.846526E2,1.4605999E3,1.1602798E3,7.2067883E2,7.9846265E2,0E0,0E0,0E0,0E0,0E0,0E0,0E0,0E0,0E0,0E0,0E0,0E0,0E0,0E0],"parents":[2147483647,0,0,1,1,2,2,3,3,4,4,5,5,6,6,7,7,8,8,10,10,11,11,12,12,13,13,14,14],"right_children":[2,4,6,8,10,12,14,16,18,-1,20,22,24,26,28,-1,-1,-1,-1,-1,-1,-1,-1,-1,-1,-1,-1,-1,-1],"split_conditions":[1.606678E0,2.7638888E-1,1.29E2,1.0100529E0,-5.685707E1,4.3685036E1,1.6230769E0,-2E0,1.5333333E1,2.4862628E-1,-4E0,4.2E1,1.7333334E1,-1.9051088E-1,-6.89715E-2,3.8779458E-1,-3.578317E-2,2.35985E-1,-1.5958016E-1,-1.6045815E-1,-7.897379E-1,1.9095077E-1,-7.765915E-2,2.12862E-1,-9.866313E-2,-1.8398498E-1,-7.853728E-1,-2.532894E-1,5.865545E-1],"split_indices":[19,27,5,6,1,1,6,11,2,0,2,4,2,31,29,0,0,0,0,0,0,0,0,0,0,0,0,0,0],"split_type":[0,0,0,0,0,0,0,0,0,0,0,0,0,0,0,0,0,0,0,0,0,0,0,0,0,0,0,0,0],"sum_hessian":[2.45E3,1.942E3,5.08E2,1.93E3,1.2E1,4.56E2,5.2E1,1.808E3,1.22E2,1E0,1.1E1,2.36E2,2.2E2,4.2E1,1E1,1.9E1,1.789E3,9.4E1,2.8E1,3E0,8E0,7.2E1,1.64E2,1.85E2,3.5E1,3.7E1,5E0,4E0,6E0],"tree_param":{"num_deleted":"0","num_feature":"37","num_nodes":"29","size_leaf_vector":"1"}},{"base_weights":[4.8437517E-2,-2.9657269E0,2.4138512E-1,3.8941114E0,-3.9306602E0,-6.606035E0,3.0020913E-1,-9.077972E-1,6.12782E-1,8.8629013E-1,-5.545263E0,-1.5024833E1,-2.7981138E0,-6.7378483E0,3.5191917E-1,2.4181484E-1,-1.9990472E-1,4.857296E-1,-4.8540838E-2,-4.7429204E-1,-1.6210216E-1,-8.79951E-1,-5.38475E-2,-7.121272E-3,-4.0405026E-1,-7.045455E-1,-7.230478E-2,7.6371074E-1,1.596915E-2],"categories":[],"categories_nodes":[],"categories_segments":[],"categories_sizes":[],"default_left":[0,0,0,0,0,0,0,0,0,0,0,0,0,0,0,0,0,0,0,0,0,0,0,0,0,0,0,0,0],"id":48,"left_children":[1,3,5,7,9,11,13,15,-1,17,19,21,23,25,27,-1,-1,-1,-1,-1,-1,-1,-1,-1,-1,-1,-1,-1,-1],"loss_changes":[1.4500028E3,1.0081996E3,9.457268E2,7.7400037E2,1.0315392E3,5.991212E2,8.4816364E2,2.500984E2,0E0,5.668645E2,8.677722E2,1.9647351E2,2.0929477E2,6.4110315E2,1.1156897E3,0E0,0E0,0E0,0E0,0E0,0E0,0E0,0E0,0E0,0E0,0E0,0E0,0E0,0E0],"parents":[2147483647,0,0,1,1,2,2,3,3,4,4,5,5,6,6,7,7,9,9,10,10,11,11,12,12,13,13,14,14],"right_children":[2,4,6,8,10,12,14,16,-1,18,20,22,24,26,28,-1,-1,-1,-1,-1,-1,-1,-1,-1,-1,-1,-1,-1,-1],"split_conditions":[-1.4687542E1,-3.7777779E-1,-5.1401377E-1,-1.09E0,-1.5366667E2,-1.0070707E1,-3.4455365E-1,-1E0,6.12782E-1,-4.1174707E-1,-1.1460192E-3,-1.3E1,5E-1,-8.3333336E1,-1.78E2,2.4181484E-1,-1.9990472E-1,4.857296E-1,-4.8540838E-2,-4.7429204E-1,-1.6210216E-1,-8.79951E-1,-5.38475E-2,-7.121272E-3,-4.0405026E-1,-7.045455E-1,-7.230478E-2,7.6371074E-1,1.596915E-2],"split_indices":[7,32,31,9,4,7,8,15,0,31,17,2,11,4,4,0,0,0,0,0,0,0,0,0,0,0,0,0,0],"split_type":[0,0,0,0,0,0,0,0,0,0,0,0,0,0,0,0,0,0,0,0,0,0,0,0,0,0,0,0,0],"sum_hessian":[2.491E3,1.49E2,2.342E3,1.8E1,1.31E2,1.9E1,2.323E3,1.2E1,6E0,3.3E1,9.8E1,5E0,1.4E1,1.6E1,2.307E3,4E0,8E0,5E0,2.8E1,3.5E1,6.3E1,4E0,1E0,1E1,4E0,6E0,1E1,4E0,2.303E3],"tree_param":{"num_deleted":"0","num_feature":"37","num_nodes":"29","size_leaf_vector":"1"}},{"base_weights":[5.5211756E-2,-7.7952085E0,1.2870705E-1,4.967092E0,-1.0743435E1,-7.508586E-1,5.814251E-1,-1.2745886E-1,4.202973E-1,-1.3850725E1,-1.7025166E0,-2.3202865E0,1.566807E-1,2.8006737E0,2.0900321E-1,-4.0804837E-2,3.1245423E-2,-1.862119E-1,-7.6140606E-1,1.4343321E-1,-2.3526366E-1,-2.3169056E-1,-4.217665E-2,1.12550996E-1,-8.749412E-2,-2.1547733E-2,2.437341E-1,6.489858E-3,5.5632293E-1],"categories":[],"categories_nodes":[],"categories_segments":[],"categories_sizes":[],"default_left":[0,0,0,0,0,0,0,0,0,0,0,0,0,0,0,0,0,0,0,0,0,0,0,0,0,0,0,0,0],"id":49,"left_children":[1,3,5,7,9,11,13,15,-1,17,19,21,23,25,27,-1,-1,-1,-1,-1,-1,-1,-1,-1,-1,-1,-1,-1,-1],"loss_changes":[1.4307325E3,9.18765E2,9.78404E2,8.866848E1,5.101814E2,1.1896687E3,1.3399924E3,2.0643115E0,0E0,1.3856128E2,9.5854706E1,1.0415417E3,2.1202236E3,1.5637653E3,1.2005283E3,0E0,0E0,0E0,0E0,0E0,0E0,0E0,0E0,0E0,0E0,0E0,0E0,0E0,0E0],"parents":[2147483647,0,0,1,1,2,2,3,3,4,4,5,5,6,6,7,7,9,9,10,10,11,11,12,12,13,13,14,14],"right_children":[2,4,6,8,10,12,14,16,-1,18,20,22,24,26,28,-1,-1,-1,-1,-1,-1,-1,-1,-1,-1,-1,-1,-1,-1],"split_conditions":[0E0,-1.210609E-3,-3.2019E0,-1.7333334E1,-2.0771264E-1,-4.9935598E-2,-8.9389974E-1,-2.0333334E1,4.202973E-1,-1.6E1,-5E-1,-4.047905E-4,1.2222222E-1,-2.0663164E0,4.0561676E-2,-4.0804837E-2,3.1245423E-2,-1.862119E-1,-7.6140606E-1,1.4343321E-1,-2.3526366E-1,-2.3169056E-1,-4.217665E-2,1.12550996E-1,-8.749412E-2,-2.1547733E-2,2.437341E-1,6.489858E-3,5.5632293E-1],"split_indices":[30,33,7,2,31,35,19,2,0,3,12,33,28,19,17,0,0,0,0,0,0,0,0,0,0,0,0,0,0],"split_type":[0,0,0,0,0,0,0,0,0,0,0,0,0,0,0,0,0,0,0,0,0,0,0,0,0,0,0,0,0],"sum_hessian":[2.477E3,2.2E1,2.455E3,4E0,1.8E1,8.34E2,1.621E3,2E0,2E0,1.3E1,5E0,3.05E2,5.29E2,2.32E2,1.389E3,1E0,1E0,2E0,1.1E1,2E0,3E0,1.18E2,1.87E2,2.52E2,2.77E2,9.1E1,1.41E2,1.38E3,9E0],"tree_param":{"num_deleted":"0","num_feature":"37","num_nodes":"29","size_leaf_vector":"1"}},{"base_weights":[-9.127747E-2,2.2259016E0,-3.0834386E-1,1.5535244E0,1.3246696E1,-1.0597714E0,3.1687465E-1,-8.425749E-1,1.9193444E0,8.0351096E-1,3.5820956E0,-1.2308035E0,8.042701E0,8.027773E-2,4.177939E0,2.5393236E-1,2.3248063E-2,4.472869E-1,-5.9384894E-2,-1.6240157E-1,-2.4268096E-2,6.0749084E-1,-3.6687832E-2,1.3672553E-2,-1.8312965E-1,-6.427722E-2,3.990476E-1],"categories":[],"categories_nodes":[],"categories_segments":[],"categories_sizes":[],"default_left":[0,0,0,0,0,0,0,0,0,0,0,0,0,0,0,0,0,0,0,0,0,0,0,0,0,0,0],"id":50,"left_children":[1,3,5,7,9,11,13,-1,15,-1,17,19,21,23,25,-1,-1,-1,-1,-1,-1,-1,-1,-1,-1,-1,-1],"loss_changes":[1.2390272E3,1.5429584E3,1.0583401E3,1.3789293E3,2.6989355E2,1.60252E3,1.1232892E3,0E0,9.028215E2,0E0,1.1295868E2,1.5096677E3,6.937875E2,8.3970795E2,1.4854763E3,0E0,0E0,0E0,0E0,0E0,0E0,0E0,0E0,0E0,0E0,0E0,0E0],"parents":[2147483647,0,0,1,1,2,2,3,3,4,4,5,5,6,6,8,8,10,10,11,11,12,12,13,13,14,14],"right_children":[2,4,6,8,10,12,14,-1,16,-1,18,20,22,24,26,-1,-1,-1,-1,-1,-1,-1,-1,-1,-1,-1,-1],"split_conditions":[-4.888889E-1,7.4242115E-2,-1.7806267E-2,-1.4933333E2,-9E-1,6.3138354E-1,2.0691637E-2,-8.425749E-1,-5E-1,8.0351096E-1,-1.4164188E2,-6.052542E-2,1.9333333E-1,1.55E1,4.348485E0,2.5393236E-1,2.3248063E-2,4.472869E-1,-5.9384894E-2,-1.6240157E-1,-2.4268096E-2,6.0749084E-1,-3.6687832E-2,1.3672553E-2,-1.8312965E-1,-6.427722E-2,3.990476E-1],"split_indices":[32,29,7,5,14,34,33,0,12,0,1,27,10,2,